{"learner":{"attributes":{"best_iteration":"399","best_score":"0.2520339203534311"},"feature_names":["operating_margin_l2","operating_margin_l3","dcoh_l2","dcoh_l3","debt_to_assets_l2","debt_to_assets_l3","unrestricted_na_ratio_l2","unrestricted_na_ratio_l3","rev_share_tuition_l2","rev_share_tuition_l3","enroll_yoy","enroll_yoy_l2","enroll_yoy_l3","enroll_l2","enroll_l3","operating_margin","dcoh","unrestricted_na_ratio","rev_share_tuition","exp_share_instruction","exp_share_scholarships","exp_share_interest","exp_share_depreciation","debt_to_ebida","rev_decline_10pct","enroll_decline_10pct","persistent_neg_margin","consec_enroll_decline_3yr","total_rev_real","total_rev_real_l2","total_rev_real_l3","enroll_l2","enroll_l3","sec_4","sec_5","sec_6","sec_7","sec_8","sec_9","yr_2002","yr_2003","yr_2004","yr_2005","yr_2006","yr_2007","yr_2008","yr_2009","yr_2010","yr_2011","yr_2012","yr_2013","yr_2014","yr_2015","yr_2016","yr_2017","yr_2018","yr_2019","yr_2020"],"feature_types":[],"gradient_booster":{"model":{"cats":{"enc":[],"feature_segments":[],"sorted_idx":[]},"gbtree_model_param":{"num_parallel_tree":"1","num_trees":"400"},"iteration_indptr":[0,1,2,3,4,5,6,7,8,9,10,11,12,13,14,15,16,17,18,19,20,21,22,23,24,25,26,27,28,29,30,31,32,33,34,35,36,37,38,39,40,41,42,43,44,45,46,47,48,49,50,51,52,53,54,55,56,57,58,59,60,61,62,63,64,65,66,67,68,69,70,71,72,73,74,75,76,77,78,79,80,81,82,83,84,85,86,87,88,89,90,91,92,93,94,95,96,97,98,99,100,101,102,103,104,105,106,107,108,109,110,111,112,113,114,115,116,117,118,119,120,121,122,123,124,125,126,127,128,129,130,131,132,133,134,135,136,137,138,139,140,141,142,143,144,145,146,147,148,149,150,151,152,153,154,155,156,157,158,159,160,161,162,163,164,165,166,167,168,169,170,171,172,173,174,175,176,177,178,179,180,181,182,183,184,185,186,187,188,189,190,191,192,193,194,195,196,197,198,199,200,201,202,203,204,205,206,207,208,209,210,211,212,213,214,215,216,217,218,219,220,221,222,223,224,225,226,227,228,229,230,231,232,233,234,235,236,237,238,239,240,241,242,243,244,245,246,247,248,249,250,251,252,253,254,255,256,257,258,259,260,261,262,263,264,265,266,267,268,269,270,271,272,273,274,275,276,277,278,279,280,281,282,283,284,285,286,287,288,289,290,291,292,293,294,295,296,297,298,299,300,301,302,303,304,305,306,307,308,309,310,311,312,313,314,315,316,317,318,319,320,321,322,323,324,325,326,327,328,329,330,331,332,333,334,335,336,337,338,339,340,341,342,343,344,345,346,347,348,349,350,351,352,353,354,355,356,357,358,359,360,361,362,363,364,365,366,367,368,369,370,371,372,373,374,375,376,377,378,379,380,381,382,383,384,385,386,387,388,389,390,391,392,393,394,395,396,397,398,399,400],"tree_info":[0,0,0,0,0,0,0,0,0,0,0,0,0,0,0,0,0,0,0,0,0,0,0,0,0,0,0,0,0,0,0,0,0,0,0,0,0,0,0,0,0,0,0,0,0,0,0,0,0,0,0,0,0,0,0,0,0,0,0,0,0,0,0,0,0,0,0,0,0,0,0,0,0,0,0,0,0,0,0,0,0,0,0,0,0,0,0,0,0,0,0,0,0,0,0,0,0,0,0,0,0,0,0,0,0,0,0,0,0,0,0,0,0,0,0,0,0,0,0,0,0,0,0,0,0,0,0,0,0,0,0,0,0,0,0,0,0,0,0,0,0,0,0,0,0,0,0,0,0,0,0,0,0,0,0,0,0,0,0,0,0,0,0,0,0,0,0,0,0,0,0,0,0,0,0,0,0,0,0,0,0,0,0,0,0,0,0,0,0,0,0,0,0,0,0,0,0,0,0,0,0,0,0,0,0,0,0,0,0,0,0,0,0,0,0,0,0,0,0,0,0,0,0,0,0,0,0,0,0,0,0,0,0,0,0,0,0,0,0,0,0,0,0,0,0,0,0,0,0,0,0,0,0,0,0,0,0,0,0,0,0,0,0,0,0,0,0,0,0,0,0,0,0,0,0,0,0,0,0,0,0,0,0,0,0,0,0,0,0,0,0,0,0,0,0,0,0,0,0,0,0,0,0,0,0,0,0,0,0,0,0,0,0,0,0,0,0,0,0,0,0,0,0,0,0,0,0,0,0,0,0,0,0,0,0,0,0,0,0,0,0,0,0,0,0,0,0,0,0,0,0,0,0,0,0,0,0,0,0,0,0,0,0,0,0,0,0,0,0,0,0,0,0,0,0,0,0,0,0,0,0,0,0,0,0,0,0,0,0,0,0,0,0,0,0,0,0,0,0,0],"trees":[{"base_weights":[1.777956E-2,3.1543338E-1,-1.9381772E0,-1.6961157E-1,6.3553643E-1,-1.9762927E0,1.1867377E0,-1.2848618E-2,-8.4234893E-1,8.905769E-1,1.2364583E-1,-1.6567789E0,-1.0076298E-1,-8.736192E-2,9.5739834E-2,-1.5342385E-1,4.9166444E-1,9.5115656E-1,-9.9647385E-1,9.5183575E-1,-1.0016097E-1,5.1178855E-1,-2.8063247E-1,-1.00443356E-1,1.3297448E0,3.0146746E-3,-5.9697717E-2,-9.9072434E-2,3.0261988E-2,8.371047E-2,-9.642006E-2,-6.0230996E-2,4.1162292E-3,5.0910052E-2,-3.9566614E-2,2.9329974E-2,-9.90109E-2,-2.6365633E-3,-1.00334726E-1,9.071643E-2,-8.160149E-2],"categories":[],"categories_nodes":[],"categories_segments":[],"categories_sizes":[],"default_left":[0,0,1,1,0,0,1,1,0,0,0,0,0,0,0,1,1,0,0,0,0,0,1,0,0,0,0,0,0,0,0,0,0,0,0,0,0,0,0,0,0],"id":0,"left_children":[1,3,5,7,9,11,13,15,17,19,21,23,-1,-1,-1,25,27,29,31,33,-1,35,37,-1,39,-1,-1,-1,-1,-1,-1,-1,-1,-1,-1,-1,-1,-1,-1,-1,-1],"loss_changes":[1.2607904E4,2.9183625E3,3.430244E2,7.881236E2,1.4781538E3,3.184961E1,7.830562E1,4.3000198E2,3.9134692E2,1.341626E3,5.911938E2,3.3161224E2,0E0,0E0,0E0,1.0545333E3,3.7231445E2,2.3699333E2,2.922461E2,8.570537E2,0E0,3.5948193E2,7.2590485E2,0E0,5.1173164E1,0E0,0E0,0E0,0E0,0E0,0E0,0E0,0E0,0E0,0E0,0E0,0E0,0E0,0E0,0E0,0E0],"parents":[2147483647,0,0,1,1,2,2,3,3,4,4,5,5,6,6,7,7,8,8,9,9,10,10,11,11,15,15,16,16,17,17,18,18,19,19,21,21,22,22,24,24],"right_children":[2,4,6,8,10,12,14,16,18,20,22,24,-1,-1,-1,26,28,30,32,34,-1,36,38,-1,40,-1,-1,-1,-1,-1,-1,-1,-1,-1,-1,-1,-1,-1,-1,-1,-1],"split_conditions":[1E0,1E0,5.849384E-1,1.2E1,1.8181819E-1,5.8E1,8.796018E-1,-1.1111111E-1,1.2479803E2,1E0,2.5641026E-2,5.7E1,-1.0076298E-1,-8.736192E-2,9.5739834E-2,8.571429E-2,-6.561086E-1,1.887338E-7,4.00001E0,1E0,-1.0016097E-1,1E0,1.5873965E6,-1.00443356E-1,-1.6393442E-2,3.0146746E-3,-5.9697717E-2,-9.9072434E-2,3.0261988E-2,8.371047E-2,-9.642006E-2,-6.0230996E-2,4.1162292E-3,5.0910052E-2,-3.9566614E-2,2.9329974E-2,-9.90109E-2,-2.6365633E-3,-1.00334726E-1,9.071643E-2,-8.160149E-2],"split_indices":[33,25,4,31,12,14,8,12,2,57,11,14,0,0,0,10,11,21,11,36,0,36,28,0,10,0,0,0,0,0,0,0,0,0,0,0,0,0,0,0,0],"split_type":[0,0,0,0,0,0,0,0,0,0,0,0,0,0,0,0,0,0,0,0,0,0,0,0,0,0,0,0,0,0,0,0,0,0,0,0,0,0,0,0,0],"sum_hessian":[2.1653648E4,1.8794393E4,2.8592566E3,7.472281E3,1.132211E4,2.8251648E3,3.4091877E1,6.06096E3,1.411321E3,7.556485E3,3.765626E3,3.1182425E2,2.5133403E3,6.4995875E0,2.759229E1,4.7407227E3,1.3202374E3,1.1127506E2,1.300046E3,7.4004946E3,1.559901E2,1.9210159E3,1.8446101E3,2.7923227E2,3.2591972E1,3.9337095E3,8.07013E2,5.7246365E1,1.2629911E3,8.927646E1,2.1998604E1,1.0896831E3,2.1036281E2,7.1294795E3,2.7101492E2,1.8657694E3,5.5246494E1,1.6303738E3,2.142364E2,2.8342243E1,4.24973E0],"tree_param":{"num_deleted":"0","num_feature":"58","num_nodes":"41","size_leaf_vector":"1"}},{"base_weights":[-7.3672696E-3,2.7130497E-1,-1.7711632E0,-2.3780833E-1,5.9712255E-1,-1.8056115E0,1.1293924E0,2.4991108E-1,-4.855366E-1,7.715812E-1,-2.516737E-1,-1.1987005E0,-9.589418E-2,-8.354192E-2,8.976257E-2,-1.5006565E0,4.2684388E-1,-5.6576556E-1,8.761396E-1,8.1729704E-1,-9.658488E-2,1.1460447E0,-7.197607E-1,2.7429995E-1,-1.6174718E0,3.856888E-2,-9.9438064E-2,2.7850876E-2,-6.3568346E-2,-1.5149732E-2,-5.166554E-2,6.3047275E-2,-9.6046634E-2,5.1548954E-2,1.8976387E-2,-9.923996E-2,6.81275E-2,5.8569834E-3,-5.580572E-2,7.25663E-2,-9.3378745E-2,-9.566586E-2,3.8560167E-2],"categories":[],"categories_nodes":[],"categories_segments":[],"categories_sizes":[],"default_left":[0,0,1,0,0,0,0,0,1,0,0,0,0,0,0,0,1,1,1,0,0,0,1,0,0,0,0,0,0,0,0,0,0,0,0,0,0,0,0,0,0,0,0],"id":1,"left_children":[1,3,5,7,9,11,13,15,17,19,21,23,-1,-1,-1,25,27,29,31,33,-1,35,37,39,41,-1,-1,-1,-1,-1,-1,-1,-1,-1,-1,-1,-1,-1,-1,-1,-1,-1,-1],"loss_changes":[1.055369E4,3.0758481E3,2.9475684E2,8.744374E2,1.6744685E3,1.9500098E2,6.82581E1,7.5582214E2,5.24792E2,1.1606748E3,1.2625231E3,2.8092084E2,0E0,0E0,0E0,2.4998193E2,4.9039227E2,5.5657544E2,2.9026093E2,8.624385E2,0E0,3.3090955E2,4.795371E2,2.586159E2,2.5177008E2,0E0,0E0,0E0,0E0,0E0,0E0,0E0,0E0,0E0,0E0,0E0,0E0,0E0,0E0,0E0,0E0,0E0,0E0],"parents":[2147483647,0,0,1,1,2,2,3,3,4,4,5,5,6,6,7,7,8,8,9,9,10,10,11,11,15,15,16,16,17,17,18,18,19,19,21,21,22,22,23,23,24,24],"right_children":[2,4,6,8,10,12,14,16,18,20,22,24,-1,-1,-1,26,28,30,32,34,-1,36,38,40,42,-1,-1,-1,-1,-1,-1,-1,-1,-1,-1,-1,-1,-1,-1,-1,-1,-1,-1],"split_conditions":[1E0,1E0,5.849384E-1,3.0685225E6,1.4286001E-1,7.7E1,4.00001E0,1.4285715E-1,5.849384E-1,1E0,5.7173264E-1,-3.3333334E-1,-9.589418E-2,-8.354192E-2,8.976257E-2,1.10337875E5,7.118644E-1,2.5873221E-3,1.9998373E2,1.5474452E-1,-9.658488E-2,2.2E1,-4.5454547E-1,1.6666667E-1,1E0,3.856888E-2,-9.9438064E-2,2.7850876E-2,-6.3568346E-2,-1.5149732E-2,-5.166554E-2,6.3047275E-2,-9.6046634E-2,5.1548954E-2,1.8976387E-2,-9.923996E-2,6.81275E-2,5.8569834E-3,-5.580572E-2,7.25663E-2,-9.3378745E-2,-9.566586E-2,3.8560167E-2],"split_indices":[33,25,4,28,4,14,11,10,4,57,19,10,0,0,0,28,10,10,2,12,0,14,10,11,56,0,0,0,0,0,0,0,0,0,0,0,0,0,0,0,0,0,0],"split_type":[0,0,0,0,0,0,0,0,0,0,0,0,0,0,0,0,0,0,0,0,0,0,0,0,0,0,0,0,0,0,0,0,0,0,0,0,0,0,0,0,0,0,0],"sum_hessian":[2.1469518E4,1.854097E4,2.9285479E3,7.235404E3,1.1305566E4,2.8945486E3,3.3999447E1,2.4371714E3,4.7982324E3,9.378112E3,1.9274537E3,4.5369238E2,2.4408562E3,6.2415752E0,2.7757872E1,2.2303072E2,2.2141406E3,4.531806E3,2.6642618E2,9.222841E3,1.5527222E2,4.831898E2,1.444264E3,1.0050778E2,3.531846E2,3.9338257E1,1.8369246E2,2.0571267E3,1.570138E2,2.9022979E3,1.6295084E3,2.3468823E2,3.1737926E1,6.196754E3,3.0260864E3,3.0724255E1,4.5246555E2,4.6439618E2,9.798678E2,6.5071434E1,3.5436348E1,3.1443927E2,3.874534E1],"tree_param":{"num_deleted":"0","num_feature":"58","num_nodes":"43","size_leaf_vector":"1"}},{"base_weights":[3.226134E-2,2.9858992E-1,-1.7262973E0,-1.7255819E-1,6.0139674E-1,-8.4987974E-1,-9.173212E-2,-2.0820381E-2,-8.288406E-1,7.812955E-1,-2.1182652E-1,7.263044E-1,-9.129702E-2,-1.1138579E-1,1.0466113E0,6.2670135E-1,-1.0357133E0,8.226626E-1,-9.229197E-2,8.9597267E-1,-7.4048245E-1,1.2479304E0,-8.937806E-2,1.5313909E-3,-2.5531886E-2,-9.6021615E-2,6.2461454E-2,6.303925E-2,-9.3083166E-2,-3.3540133E-2,-9.577223E-2,4.7346853E-2,9.554408E-3,-9.719895E-2,5.2888747E-2,-2.5975695E-2,-9.811207E-2,-8.642936E-2,8.647479E-2],"categories":[],"categories_nodes":[],"categories_segments":[],"categories_sizes":[],"default_left":[0,0,0,1,0,0,0,1,0,0,0,0,0,1,0,1,1,1,0,1,1,0,0,0,0,0,0,0,0,0,0,0,0,0,0,0,0,0,0],"id":2,"left_children":[1,3,5,7,9,11,-1,13,15,17,19,21,-1,23,25,27,29,31,-1,33,35,37,-1,-1,-1,-1,-1,-1,-1,-1,-1,-1,-1,-1,-1,-1,-1,-1,-1],"loss_changes":[1.0205211E4,2.6998574E3,2.7057617E2,7.373457E2,1.6855122E3,4.8928668E2,0E0,5.8160583E2,4.1933453E2,1.0267114E3,1.2232361E3,1.622273E2,0E0,3.1444244E2,2.852672E2,2.7634393E2,3.89661E2,7.288096E2,0E0,3.121524E2,3.8064502E2,1.4867282E2,0E0,0E0,0E0,0E0,0E0,0E0,0E0,0E0,0E0,0E0,0E0,0E0,0E0,0E0,0E0,0E0,0E0],"parents":[2147483647,0,0,1,1,2,2,3,3,4,4,5,5,7,7,8,8,9,9,10,10,11,11,13,13,14,14,15,15,16,16,17,17,19,19,20,20,21,21],"right_children":[2,4,6,8,10,12,-1,14,16,18,20,22,-1,24,26,28,30,32,-1,34,36,38,-1,-1,-1,-1,-1,-1,-1,-1,-1,-1,-1,-1,-1,-1,-1,-1,-1],"split_conditions":[1E0,1E0,-2.3809524E-1,1.2E1,2.04744E0,8.8E1,-9.173212E-2,4.6390012E-2,2.2447276E-1,1E0,3.0617932E2,2.1627034E2,-9.129702E-2,5.6497175E-3,2.1052632E-1,3.04414E-3,1.724138E-1,1.8181819E-1,-9.229197E-2,3E0,2.175153E5,3.9345903E0,-8.937806E-2,1.5313909E-3,-2.5531886E-2,-9.6021615E-2,6.2461454E-2,6.303925E-2,-9.3083166E-2,-3.3540133E-2,-9.577223E-2,4.7346853E-2,9.554408E-3,-9.719895E-2,5.2888747E-2,-2.5975695E-2,-9.811207E-2,-8.642936E-2,8.647479E-2],"split_indices":[33,25,10,13,5,13,0,4,18,57,2,2,0,10,10,11,10,12,0,14,28,17,0,0,0,0,0,0,0,0,0,0,0,0,0,0,0,0,0],"split_type":[0,0,0,0,0,0,0,0,0,0,0,0,0,0,0,0,0,0,0,0,0,0,0,0,0,0,0,0,0,0,0,0,0,0,0,0,0,0,0],"sum_hessian":[2.1787406E4,1.8922482E4,2.8649243E3,7.403515E3,1.1518968E4,3.1617636E2,2.548748E3,6.01405E3,1.3894652E3,9.432399E3,2.0865676E3,1.2101389E2,1.9516246E2,5.5445244E3,4.6952518E2,1.7265404E2,1.2168113E3,9.2868545E3,1.4554474E2,6.738401E2,1.4127277E3,1.0063562E2,2.0378267E1,4.0904705E3,1.4540541E3,2.9472013E1,4.4005316E2,1.3798589E2,3.466815E1,8.613058E2,3.555054E2,7.7595205E3,1.5273342E3,3.5728E1,6.3811206E2,1.1975608E3,2.1516681E2,1.3653692E1,8.698193E1],"tree_param":{"num_deleted":"0","num_feature":"58","num_nodes":"39","size_leaf_vector":"1"}},{"base_weights":[-7.190663E-3,2.4362698E-1,-1.6204243E0,-2.6082766E-1,4.797756E-1,-4.3547863E-1,-1.7235779E0,6.2975365E-1,-4.4132742E-1,8.472183E-1,1.5881084E-1,1.752493E0,-8.754529E-2,-8.8099465E-2,-1.1598603E0,-9.6856624E-2,7.4606884E-1,-2.9598898E-1,-1.2211585E0,1.1116576E0,3.1817815E-1,4.4031912E-1,-1.762023E-1,-5.9029844E-2,1.83426E0,1.3055135E0,-8.746447E-2,4.773074E-2,-2.1577714E-2,-1.100907E-2,-6.0862955E-2,3.38714E-2,-7.250308E-2,5.788941E-2,-8.8279985E-2,2.4922691E-2,-3.9483376E-2,2.6002869E-2,-4.480739E-2,5.889745E-3,-2.992113E-2,9.8432325E-2,7.5734854E-2,-7.7757E-2,9.1340475E-2],"categories":[],"categories_nodes":[],"categories_segments":[],"categories_sizes":[],"default_left":[0,1,0,0,0,0,0,1,1,0,1,0,0,0,0,0,1,1,0,0,1,1,1,0,0,0,0,0,0,0,0,0,0,0,0,0,0,0,0,0,0,0,0,0,0],"id":3,"left_children":[1,3,5,7,9,11,13,15,17,19,21,23,-1,-1,25,-1,27,29,31,33,35,37,39,-1,41,43,-1,-1,-1,-1,-1,-1,-1,-1,-1,-1,-1,-1,-1,-1,-1,-1,-1,-1,-1],"loss_changes":[8.59885E3,2.1910757E3,3.4876562E2,9.430852E2,1.4773423E3,6.659847E2,5.4907227E1,2.9666882E2,5.5242505E2,8.1676025E2,6.3081805E2,2.3026398E1,0E0,0E0,2.5035289E2,0E0,2.3290015E2,2.8693866E2,3.3382263E2,5.188711E2,3.8942755E2,3.8778644E2,3.7923224E2,0E0,6.690979E-1,5.281468E1,0E0,0E0,0E0,0E0,0E0,0E0,0E0,0E0,0E0,0E0,0E0,0E0,0E0,0E0,0E0,0E0,0E0,0E0,0E0],"parents":[2147483647,0,0,1,1,2,2,3,3,4,4,5,5,6,6,7,7,8,8,9,9,10,10,11,11,14,14,16,16,17,17,18,18,19,19,20,20,21,21,22,22,24,24,25,25],"right_children":[2,4,6,8,10,12,14,16,18,20,22,24,-1,-1,26,-1,28,30,32,34,36,38,40,-1,42,44,-1,-1,-1,-1,-1,-1,-1,-1,-1,-1,-1,-1,-1,-1,-1,-1,-1,-1,-1],"split_conditions":[1E0,0E0,1.887338E-7,3.1412357E2,-7.5E-2,3.7E1,1E0,3.2932425E-1,-8.271605E-1,4.595186E-2,1.1E1,2.2215952E2,-8.754529E-2,-8.8099465E-2,-3.3333334E-1,-9.6856624E-2,4.1666668E-2,3.0685225E6,5.7173264E-1,1E0,1.5E-1,2.4466992E6,-4.225352E-2,-5.9029844E-2,-1.0902256E-1,-3.529412E-1,-8.746447E-2,4.773074E-2,-2.1577714E-2,-1.100907E-2,-6.0862955E-2,3.38714E-2,-7.250308E-2,5.788941E-2,-8.8279985E-2,2.4922691E-2,-3.9483376E-2,2.6002869E-2,-4.480739E-2,5.889745E-3,-2.992113E-2,9.8432325E-2,7.5734854E-2,-7.7757E-2,9.1340475E-2],"split_indices":[33,5,21,2,10,13,46,19,12,11,32,3,0,0,10,0,10,28,19,57,12,28,11,0,12,10,0,0,0,0,0,0,0,0,0,0,0,0,0,0,0,0,0,0,0],"split_type":[0,0,0,0,0,0,0,0,0,0,0,0,0,0,0,0,0,0,0,0,0,0,0,0,0,0,0,0,0,0,0,0,0,0,0,0,0,0,0,0,0,0,0,0,0],"sum_hessian":[2.1249299E4,1.8390832E4,2.8584673E3,5.864064E3,1.2526768E4,2.2932983E2,2.6291375E3,9.877991E2,4.8762646E3,5.839746E3,6.6870215E3,8.598211E1,1.4334772E2,2.4594277E3,1.6970982E2,4.2141907E1,9.4565717E2,4.1113965E3,7.6486835E2,3.8928264E3,1.9469199E3,3.6335068E3,3.053515E3,1.9674759E0,8.401463E1,3.2511368E1,1.3719846E2,8.035461E2,1.4211107E2,3.7999526E3,3.114437E2,8.208368E1,6.8278467E2,3.8319863E3,6.0840065E1,1.6749169E3,2.7200302E2,3.4295017E3,2.0400508E2,1.8005151E3,1.2529998E3,5.5510307E1,2.850432E1,4.705629E0,2.7805738E1],"tree_param":{"num_deleted":"0","num_feature":"58","num_nodes":"45","size_leaf_vector":"1"}},{"base_weights":[9.961533E-3,1.9914123E-1,-1.4758617E0,4.5777294E-1,-3.206544E-1,-1.6200416E0,2.9890695E-1,-7.03258E-2,6.607684E-1,-6.024686E-1,5.7634264E-1,1.4164406E0,-1.6634799E0,-9.731706E-2,1.1491519E0,7.602988E-2,-1.5012641E0,5.377279E-1,1.2807419E0,-4.023632E-1,-1.3865526E0,7.594608E-1,-4.7392815E-1,9.0669684E-2,-6.654001E-2,7.1069306E-1,-8.542969E-2,1.6672506E0,-9.6350044E-2,-7.814103E-3,3.6244694E-2,-9.1130756E-2,5.7369836E-2,3.3490848E-2,-9.2155645E-3,-1.0145996E-1,6.579875E-2,-2.3179999E-2,5.985027E-2,-5.8618676E-2,-9.184751E-2,-9.5892414E-2,4.1482914E-2,-9.532461E-2,7.6328E-2,8.581242E-2,-8.51064E-2,-7.149989E-2,8.7795496E-2],"categories":[],"categories_nodes":[],"categories_segments":[],"categories_sizes":[],"default_left":[1,0,0,0,1,0,1,1,0,1,1,0,0,0,1,0,1,1,1,0,0,0,0,0,0,0,0,1,0,0,0,0,0,0,0,0,0,0,0,0,0,0,0,0,0,0,0,0,0],"id":4,"left_children":[1,3,5,7,9,11,13,15,17,19,21,23,25,-1,27,29,31,33,35,37,39,41,43,-1,-1,45,-1,47,-1,-1,-1,-1,-1,-1,-1,-1,-1,-1,-1,-1,-1,-1,-1,-1,-1,-1,-1,-1,-1],"loss_changes":[6.0232305E3,2.5555103E3,6.1977344E2,1.3607659E3,1.596948E3,2.976123E2,3.50982E2,7.383953E2,6.987256E2,7.5358704E2,2.9085638E2,3.7431267E1,2.3764307E2,0E0,2.15396E2,4.82343E2,2.8054828E2,7.299419E2,1.7965186E2,3.7573328E2,9.207971E1,2.4339246E2,6.4734735E2,0E0,0E0,1.04504005E2,0E0,3.3947083E1,0E0,0E0,0E0,0E0,0E0,0E0,0E0,0E0,0E0,0E0,0E0,0E0,0E0,0E0,0E0,0E0,0E0,0E0,0E0,0E0,0E0],"parents":[2147483647,0,0,1,1,2,2,3,3,4,4,5,5,6,6,7,7,8,8,9,9,10,10,11,11,12,12,14,14,15,15,16,16,17,17,18,18,19,19,20,20,21,21,22,22,25,25,27,27],"right_children":[2,4,6,8,10,12,14,16,18,20,22,24,26,-1,28,30,32,34,36,38,40,42,44,-1,-1,46,-1,48,-1,-1,-1,-1,-1,-1,-1,-1,-1,-1,-1,-1,-1,-1,-1,-1,-1,-1,-1,-1,-1],"split_conditions":[-1.8706462E-1,1.8500686E3,1E0,1E0,6.571614E1,5.984743E0,-9.2361945E-1,3.5E1,1E0,-4.680851E-1,3.1412357E2,3.7E1,2E0,-9.731706E-2,-1.5597076E0,1E0,4.827201E7,1.8181819E-1,-9.2042404E-1,1E0,6.451613E-2,3E0,1E0,9.0669684E-2,-6.654001E-2,6.325806E-3,-8.542969E-2,4.5E1,-9.6350044E-2,-7.814103E-3,3.6244694E-2,-9.1130756E-2,5.7369836E-2,3.3490848E-2,-9.2155645E-3,-1.0145996E-1,6.579875E-2,-2.3179999E-2,5.985027E-2,-5.8618676E-2,-9.184751E-2,-9.5892414E-2,4.1482914E-2,-9.532461E-2,7.6328E-2,8.581242E-2,-8.51064E-2,-7.149989E-2,8.7795496E-2],"split_indices":[17,5,34,25,16,2,15,14,27,11,2,13,13,0,0,24,29,12,12,55,11,14,50,0,0,17,0,13,0,0,0,0,0,0,0,0,0,0,0,0,0,0,0,0,0,0,0,0,0],"split_type":[0,0,0,0,0,0,0,0,0,0,0,0,0,0,0,0,0,0,0,0,0,0,0,0,0,0,0,0,0,0,0,0,0,0,0,0,0,0,0,0,0,0,0,0,0,0,0,0,0],"sum_hessian":[2.1426258E4,1.9007082E4,2.4191758E3,1.2692078E4,6.3150044E3,2.237492E3,1.816838E2,3.5242612E3,9.167816E3,4.805549E3,1.5094559E3,3.1111143E1,2.2063809E3,4.9549343E1,1.3213448E2,3.1981072E3,3.26154E2,7.6512163E3,1.5166006E3,3.8296897E3,9.758588E2,1.2855865E3,2.238694E2,2.7480383E1,3.6307602E0,4.0868637E1,2.1655122E3,1.1347974E2,1.8654732E1,2.3555217E3,8.425853E2,2.9114273E2,3.5011265E1,6.4680337E3,1.1831825E3,1.5377517E1,1.501223E3,3.6891494E3,1.4054034E2,6.63802E2,3.1205682E2,3.2173607E1,1.253413E3,1.3047925E2,9.339015E1,2.9050426E1,1.1818213E1,2.7369606E0,1.10742775E2],"tree_param":{"num_deleted":"0","num_feature":"58","num_nodes":"49","size_leaf_vector":"1"}},{"base_weights":[2.77826E-2,2.5734928E-1,-1.5135212E0,7.7594393E-1,9.081308E-2,-3.696667E-1,-1.6117903E0,1.1523144E0,2.4216156E-2,1.310508E-1,-9.137964E-2,1.6428436E0,-8.193653E-2,-8.241786E-2,-1.093198E0,1.1884167E0,-1.03410296E-1,1.196525E-1,-9.65321E-2,1.1478642E0,6.6043936E-2,-5.786584E-2,1.7215756E0,1.2088319E0,-8.1850655E-2,6.1461147E-2,-8.6561374E-2,5.6105025E-2,-2.1961096E-3,6.3955866E-2,-9.81811E-2,3.7822254E-2,-4.1829507E-4,6.894561E-2,9.357279E-2,8.6204536E-2,-7.499067E-2],"categories":[],"categories_nodes":[],"categories_segments":[],"categories_sizes":[],"default_left":[0,0,0,0,0,0,0,0,0,0,0,0,0,0,0,0,0,0,0,0,0,0,1,0,0,0,0,0,0,0,0,0,0,0,0,0,0],"id":5,"left_children":[1,3,5,7,9,11,13,15,17,19,-1,21,-1,-1,23,25,-1,27,-1,29,31,-1,33,35,-1,-1,-1,-1,-1,-1,-1,-1,-1,-1,-1,-1,-1],"loss_changes":[7.609111E3,1.6164178E3,3.127666E2,1.287138E3,1.0939414E3,5.692975E2,4.6875E1,3.549348E2,2.835973E2,9.1728406E2,0E0,2.1016998E1,0E0,0E0,2.1736017E2,3.5937988E2,0E0,2.3766675E2,0E0,3.4306824E2,6.701881E2,0E0,1.7507935E0,4.9272842E1,0E0,0E0,0E0,0E0,0E0,0E0,0E0,0E0,0E0,0E0,0E0,0E0,0E0],"parents":[2147483647,0,0,1,1,2,2,3,3,4,4,5,5,6,6,7,7,8,8,9,9,11,11,14,14,15,15,17,17,19,19,20,20,22,22,23,23],"right_children":[2,4,6,8,10,12,14,16,18,20,-1,22,-1,-1,24,26,-1,28,-1,30,32,-1,34,36,-1,-1,-1,-1,-1,-1,-1,-1,-1,-1,-1,-1,-1],"split_conditions":[1E0,-2.3809524E-1,1.887338E-7,4.2857143E-1,1E0,3.7E1,1E0,1E0,-3.0769232E-1,2.4101697E-2,-9.137964E-2,2E1,-8.193653E-2,-8.241786E-2,-3.3333334E-1,1E0,-1.03410296E-1,-9.325843E-1,-9.65321E-2,1E0,-6.439394E-1,-5.786584E-2,-5E-2,3.795226E1,-8.1850655E-2,6.1461147E-2,-8.6561374E-2,5.6105025E-2,-2.1961096E-3,6.3955866E-2,-9.81811E-2,3.7822254E-2,-4.1829507E-4,6.894561E-2,9.357279E-2,8.6204536E-2,-7.499067E-2],"split_indices":[33,10,21,11,57,13,46,44,10,8,0,14,0,0,10,57,0,10,0,56,12,0,11,3,0,0,0,0,0,0,0,0,0,0,0,0,0],"split_type":[0,0,0,0,0,0,0,0,0,0,0,0,0,0,0,0,0,0,0,0,0,0,0,0,0,0,0,0,0,0,0,0,0,0,0,0,0],"sum_hessian":[2.1502768E4,1.8715984E4,2.7867852E3,4.5484443E3,1.4167539E4,2.2084978E2,2.5659353E3,3.0305793E3,1.5178647E3,1.3877398E4,2.9014062E2,8.529404E1,1.3555574E2,2.394889E3,1.7104645E2,2.997607E3,3.297248E1,1.4481069E3,6.975792E1,8.328955E2,1.3044503E4,1.9579722E0,8.333607E1,3.245174E1,1.385947E2,2.9568596E3,4.0747257E1,2.0232465E2,1.2457822E3,7.997483E2,3.3147213E1,1.2682316E3,1.1776271E4,2.8462873E1,5.487319E1,2.757055E1,4.881191E0],"tree_param":{"num_deleted":"0","num_feature":"58","num_nodes":"37","size_leaf_vector":"1"}},{"base_weights":[8.0409576E-4,-1.3418739E0,1.7252348E-1,-1.4430517E0,8.292512E-1,6.7954963E-1,-5.537054E-2,-1.5541884E0,-1.8881214E-1,-8.958746E-2,1.3888841E0,9.981335E-1,7.360111E-2,-1.7669493E-2,-8.7484546E-2,6.601507E-1,-1.5977352E0,1.4734448E0,-1.0257988E0,8.241578E-2,-8.365389E-2,1.046001E0,-8.3645605E-2,2.2950791E-1,-1.4154123E0,1.9425778E-1,-3.3165428E-1,8.385982E-2,-8.281368E-2,-7.954126E-2,-9.336065E-2,8.953458E-2,-7.927143E-2,5.750667E-2,-9.215624E-2,5.392191E-2,-1.0472989E-1,5.5972856E-2,7.040428E-5,-9.7626746E-2,4.072747E-2,5.349219E-2,5.6410264E-3,2.7304573E-2,-2.3716096E-2],"categories":[],"categories_nodes":[],"categories_segments":[],"categories_sizes":[],"default_left":[0,1,0,0,1,0,0,0,0,0,1,0,1,0,0,0,0,0,0,0,0,0,0,0,1,0,0,0,0,0,0,0,0,0,0,0,0,0,0,0,0,0,0,0,0],"id":6,"left_children":[1,3,5,7,9,11,13,15,17,-1,19,21,23,25,-1,27,29,31,33,-1,-1,35,-1,37,39,41,43,-1,-1,-1,-1,-1,-1,-1,-1,-1,-1,-1,-1,-1,-1,-1,-1,-1,-1],"loss_changes":[4.855594E3,5.257632E2,2.1575156E3,3.1780176E2,1.5938242E2,1.117667E3,8.228811E2,2.0317871E2,2.615237E2,0E0,7.322362E1,4.8693555E2,4.6375226E2,8.3870734E2,0E0,9.968771E1,8.588867E-1,6.3973267E1,2.242269E2,0E0,0E0,3.820984E2,0E0,3.6700076E2,2.283833E2,5.364603E2,6.362938E2,0E0,0E0,0E0,0E0,0E0,0E0,0E0,0E0,0E0,0E0,0E0,0E0,0E0,0E0,0E0,0E0,0E0,0E0],"parents":[2147483647,0,0,1,1,2,2,3,3,4,4,5,5,6,6,7,7,8,8,10,10,11,11,12,12,13,13,15,15,16,16,17,17,18,18,21,21,23,23,24,24,25,25,26,26],"right_children":[2,4,6,8,10,12,14,16,18,-1,20,22,24,26,-1,28,30,32,34,-1,-1,36,-1,38,40,42,44,-1,-1,-1,-1,-1,-1,-1,-1,-1,-1,-1,-1,-1,-1,-1,-1,-1,-1],"split_conditions":[4.8695984E2,1.0760678E-1,-1.5384616E-1,1E0,-9.2361945E-1,2.5E-1,1E0,-2.7664924E0,3.1008705E1,-8.958746E-2,1.3246968E2,1E0,1.7631418E6,1.8500686E3,-8.7484546E-2,1.3725397E-1,1E0,3.2394063E-1,2E0,8.241578E-2,-8.365389E-2,1E0,-8.3645605E-2,1.2743505E6,8.007208E-2,6.5842434E-4,3.0617932E2,8.385982E-2,-8.281368E-2,-7.954126E-2,-9.336065E-2,8.953458E-2,-7.927143E-2,5.750667E-2,-9.215624E-2,5.392191E-2,-1.0472989E-1,5.5972856E-2,7.040428E-5,-9.7626746E-2,4.072747E-2,5.349219E-2,5.6410264E-3,2.7304573E-2,-2.3716096E-2],"split_indices":[17,21,10,36,15,11,57,23,2,0,2,57,28,5,0,6,34,6,13,0,0,43,0,30,5,8,2,0,0,0,0,0,0,0,0,0,0,0,0,0,0,0,0,0,0],"split_type":[0,0,0,0,0,0,0,0,0,0,0,0,0,0,0,0,0,0,0,0,0,0,0,0,0,0,0,0,0,0,0,0,0,0,0,0,0,0,0,0,0,0,0,0,0],"sum_hessian":[2.1057648E4,2.38698E3,1.8670668E4,2.2810166E3,1.0596354E2,5.7890396E3,1.2881629E4,2.0951304E3,1.8588617E2,1.8256918E1,8.770663E1,3.7937751E3,1.9952645E3,1.2602222E4,2.7940698E2,4.013479E1,2.0549956E3,6.1997868E1,1.238883E2,8.128154E1,6.425082E0,3.727582E3,6.6193115E1,1.8069175E3,1.8834702E2,7.52412E3,5.078101E3,2.8081377E1,1.20534115E1,2.010348E3,4.4647514E1,5.654769E1,5.4501753E0,3.3717213E1,9.017109E1,3.6901257E3,3.745636E1,3.678427E2,1.4390747E3,1.5188696E2,3.646004E1,6.392272E2,6.884893E3,7.0959204E2,4.3685093E3],"tree_param":{"num_deleted":"0","num_feature":"58","num_nodes":"45","size_leaf_vector":"1"}},{"base_weights":[2.6819488E-2,-1.3776252E0,1.9716835E-1,-1.4815319E0,8.032333E-1,4.2752746E-1,-2.630718E-1,1.2848922E0,-1.5212257E0,-8.533298E-2,1.3766773E0,-7.684565E-2,6.13807E-1,4.5753717E-1,-4.5578393E-1,-6.387154E-2,8.363061E-2,7.038339E-1,-1.562907E0,8.049911E-2,-7.816928E-2,2.0101577E-1,-8.033106E-1,6.504627E-1,-8.242395E-2,6.2889206E-1,-4.2320234E-1,-8.166227E-2,-9.732659E-1,8.271195E-2,-8.133667E-2,-7.763007E-2,-8.856364E-2,3.6804012E-3,6.418555E-2,3.217022E-2,-5.5922687E-2,3.3610925E-2,-1.0206943E-1,2.264038E-2,6.6999055E-2,-9.465315E-2,2.1370925E-2,-9.143416E-3,6.0603667E-2,-7.994251E-2,-3.6972657E-2],"categories":[],"categories_nodes":[],"categories_segments":[],"categories_sizes":[],"default_left":[0,1,0,0,1,0,0,1,0,0,1,1,0,1,1,0,0,0,0,0,0,1,0,0,0,1,0,1,0,0,0,0,0,0,0,0,0,0,0,0,0,0,0,0,0,0,0],"id":7,"left_children":[1,3,5,7,9,11,13,15,17,-1,19,21,23,25,27,-1,-1,29,31,-1,-1,33,35,37,-1,39,41,43,45,-1,-1,-1,-1,-1,-1,-1,-1,-1,-1,-1,-1,-1,-1,-1,-1,-1,-1],"loss_changes":[5.0995405E3,5.236758E2,2.0154829E3,2.4366748E2,1.5420428E2,1.1903394E3,8.808424E2,3.3608585E1,2.0240039E2,0E0,6.18078E1,6.9007996E2,7.6829663E2,2.0227856E2,9.686764E2,0E0,0E0,9.262227E1,1.8256836E0,0E0,0E0,3.4104913E2,4.3193182E2,5.346028E2,0E0,1.3974829E2,2.7413284E2,3.8062552E2,3.0591968E2,0E0,0E0,0E0,0E0,0E0,0E0,0E0,0E0,0E0,0E0,0E0,0E0,0E0,0E0,0E0,0E0,0E0,0E0],"parents":[2147483647,0,0,1,1,2,2,3,3,4,4,5,5,6,6,7,7,8,8,10,10,11,11,12,12,13,13,14,14,17,17,18,18,21,21,22,22,23,23,25,25,26,26,27,27,28,28],"right_children":[2,4,6,8,10,12,14,16,18,-1,20,22,24,26,28,-1,-1,30,32,-1,-1,34,36,38,-1,40,42,44,46,-1,-1,-1,-1,-1,-1,-1,-1,-1,-1,-1,-1,-1,-1,-1,-1,-1,-1],"split_conditions":[2.4347992E2,1.0760678E-1,1.8500686E3,5.984743E0,-9.2361945E-1,1E0,3.7267706E-1,1.6661431E0,2E0,-8.533298E-2,-1.4943589E0,1.3E1,1E0,5.5555556E-2,-3.8235295E-1,-6.387154E-2,8.363061E-2,6.325806E-3,1E0,8.049911E-2,-7.816928E-2,2.5984615E-1,6.5842434E-4,1E0,-8.242395E-2,9.5E1,4E-1,-4.9056605E-1,-1.8181818E-2,8.271195E-2,-8.133667E-2,-7.763007E-2,-8.856364E-2,3.6804012E-3,6.418555E-2,3.217022E-2,-5.5922687E-2,3.3610925E-2,-1.0206943E-1,2.264038E-2,6.6999055E-2,-9.465315E-2,2.1370925E-2,-9.143416E-3,6.0603667E-2,-7.994251E-2,-3.6972657E-2],"split_indices":[17,21,5,2,15,25,21,8,13,0,1,13,57,10,10,0,0,17,36,0,0,4,8,36,0,13,10,10,10,0,0,0,0,0,0,0,0,0,0,0,0,0,0,0,0,0,0],"split_type":[0,0,0,0,0,0,0,0,0,0,0,0,0,0,0,0,0,0,0,0,0,0,0,0,0,0,0,0,0,0,0,0,0,0,0,0,0,0,0,0,0,0,0,0,0,0,0],"sum_hessian":[2.1312953E4,2.3047021E3,1.900825E4,2.2001948E3,1.0450724E2,1.2667828E4,6.3404224E3,3.0679012E1,2.1695159E3,1.9068897E1,8.543835E1,3.4168645E3,9.250964E3,1.3375487E3,5.0028735E3,3.7305052E0,2.6948507E1,3.960134E1,2.1299146E3,7.957609E1,5.862262E0,2.4720627E3,9.448019E2,9.104162E3,1.4680157E2,1.1199413E3,2.1760753E2,2.904313E3,2.0985608E3,2.8336086E1,1.1265254E1,2.0375896E3,9.232492E1,2.212743E3,2.5931976E2,1.6881018E2,7.759917E2,9.031915E3,7.224672E1,8.9896936E2,2.2097186E2,7.9319336E1,1.382882E2,2.694395E3,2.099179E2,5.6935864E2,1.529202E3],"tree_param":{"num_deleted":"0","num_feature":"58","num_nodes":"47","size_leaf_vector":"1"}},{"base_weights":[2.517676E-2,1.7410317E-1,-1.3929887E0,-3.2242084E-1,4.0972495E-1,-4.2672735E-1,-1.5163286E0,-4.5524272E-1,3.8464773E-1,8.031261E-1,1.7271115E-1,-7.934799E-2,8.635633E-1,-7.548702E-2,-9.893607E-2,-2.58357E-1,-1.2983338E0,-9.325399E-2,5.615877E-1,1.0116212E0,8.5836224E-2,2.1475475E-1,-8.2909815E-2,-7.95149E-2,1.4095794E0,-1.5356085E-2,6.231577E-2,-4.367452E-3,-7.412115E-2,3.9370805E-2,-4.7207016E-2,5.2682932E-2,-7.833777E-2,-1.0401334E-1,1.0009519E-2,1.2137062E-2,-8.4684506E-2,-6.515703E-2,7.823139E-2],"categories":[],"categories_nodes":[],"categories_segments":[],"categories_sizes":[],"default_left":[1,1,0,0,0,0,0,1,1,0,0,0,0,0,0,1,0,0,1,0,0,1,0,0,0,0,0,0,0,0,0,0,0,0,0,0,0,0,0],"id":8,"left_children":[1,3,5,7,9,11,13,15,17,19,21,-1,23,-1,-1,25,27,-1,29,31,33,35,-1,-1,37,-1,-1,-1,-1,-1,-1,-1,-1,-1,-1,-1,-1,-1,-1],"loss_changes":[4.476441E3,2.2441118E3,2.3940771E2,5.799397E2,1.2127751E3,3.4478854E2,2.4526367E0,8.6241724E2,3.8988153E2,7.312781E2,6.253333E2,0E0,1.486326E2,0E0,0E0,3.0964365E2,2.1917407E2,0E0,3.089357E2,4.123269E2,2.734971E2,4.243606E2,0E0,0E0,3.9852325E1,0E0,0E0,0E0,0E0,0E0,0E0,0E0,0E0,0E0,0E0,0E0,0E0,0E0,0E0],"parents":[2147483647,0,0,1,1,2,2,3,3,4,4,5,5,6,6,7,7,8,8,9,9,10,10,12,12,15,15,16,16,18,18,19,19,20,20,21,21,24,24],"right_children":[2,4,6,8,10,12,14,16,18,20,22,-1,24,-1,-1,26,28,-1,30,32,34,36,-1,-1,38,-1,-1,-1,-1,-1,-1,-1,-1,-1,-1,-1,-1,-1,-1],"split_conditions":[4.4454016E-2,0E0,3.7E1,1E0,-1.5384616E-1,9.6568495E-1,1.1884491E0,-8.271605E-1,3.2932425E-1,4.2857143E-1,1E0,-7.934799E-2,4.2E1,-7.548702E-2,-9.893607E-2,2.5838742E-1,-7.8571427E-1,-9.325399E-2,5.5555556E-2,1E0,8E-1,3.4802777E-1,-8.2909815E-2,-7.95149E-2,2.5873221E-3,-1.5356085E-2,6.231577E-2,-4.367452E-3,-7.412115E-2,3.9370805E-2,-4.7207016E-2,5.2682932E-2,-7.833777E-2,-1.0401334E-1,1.0009519E-2,1.2137062E-2,-8.4684506E-2,-6.515703E-2,7.823139E-2],"split_indices":[18,5,31,34,10,18,15,12,19,11,57,0,14,0,0,21,11,0,10,57,11,6,0,0,10,0,0,0,0,0,0,0,0,0,0,0,0,0,0],"split_type":[0,0,0,0,0,0,0,0,0,0,0,0,0,0,0,0,0,0,0,0,0,0,0,0,0,0,0,0,0,0,0,0,0,0,0,0,0,0,0],"sum_hessian":[2.119289E4,1.9179646E4,2.0132432E3,6.1723438E3,1.3007303E4,2.2839854E2,1.7848446E3,5.196537E3,9.7580646E2,4.889389E3,8.1179136E3,1.2013918E2,1.0825937E2,1.763976E3,2.0868607E1,4.2138013E3,9.8273615E2,7.045507E1,9.0535144E2,3.7879365E3,1.1014526E3,7.9365474E3,1.8136627E2,1.9356485E1,8.890288E1,4.0822944E3,1.3150667E2,1.298731E2,8.5286304E2,7.876909E2,1.17660484E2,3.7277515E3,6.0185234E1,5.4370575E1,1.047082E3,7.8227036E3,1.1384359E2,4.4062657E0,8.449661E1],"tree_param":{"num_deleted":"0","num_feature":"58","num_nodes":"39","size_leaf_vector":"1"}},{"base_weights":[1.1279501E-3,1.4017193E-1,-1.3103454E0,-3.6198723E-1,3.762014E-1,-2.5286612E-1,-1.478153E0,-5.4780614E-1,4.4542283E-1,4.1398564E-1,-7.956194E-2,-7.738148E-2,7.395283E-1,-7.3645554E-2,-9.4148E-2,-4.4647983E-1,-8.4259234E-2,-9.3019776E-2,5.2808696E-1,6.077126E-1,8.621319E-2,-7.449799E-2,1.3630667E0,4.145963E-2,-2.658445E-2,-9.084347E-2,3.0180318E-2,3.1915214E-2,-8.3145626E-2,1.0545889E-2,-5.1713478E-2,-7.712088E-2,7.7137336E-2],"categories":[],"categories_nodes":[],"categories_segments":[],"categories_sizes":[],"default_left":[1,1,0,1,0,0,0,1,0,0,0,0,0,0,0,0,0,0,1,1,1,0,0,0,0,0,0,0,0,0,0,0,0],"id":9,"left_children":[1,3,5,7,9,11,13,15,17,19,-1,-1,21,-1,-1,23,-1,-1,25,27,29,-1,31,-1,-1,-1,-1,-1,-1,-1,-1,-1,-1],"loss_changes":[3.7954834E3,2.2306216E3,3.536792E2,9.0308575E2,9.523469E2,3.5379657E2,8.803711E-1,5.6306616E2,2.1567783E2,7.975952E2,0E0,0E0,2.1896194E2,0E0,0E0,4.8887524E2,0E0,0E0,1.9379959E2,5.4947363E2,6.5241815E2,0E0,6.631279E1,0E0,0E0,0E0,0E0,0E0,0E0,0E0,0E0,0E0,0E0],"parents":[2147483647,0,0,1,1,2,2,3,3,4,4,5,5,6,6,7,7,8,8,9,9,12,12,15,15,18,18,19,19,20,20,22,22],"right_children":[2,4,6,8,10,12,14,16,18,20,-1,-1,22,-1,-1,24,-1,-1,26,28,30,-1,32,-1,-1,-1,-1,-1,-1,-1,-1,-1,-1],"split_conditions":[4.4454016E-2,0E0,4.5E1,1.7234306E2,1E0,4.2E1,1.1884491E0,3.04414E-3,1.122777E6,5.0931677E-2,-7.956194E-2,-7.738148E-2,9.4120973E-1,-7.3645554E-2,-9.4148E-2,3.181522E5,-8.4259234E-2,-9.3019776E-2,3.6092028E-1,2.008521E-1,2.2222222E-1,-7.449799E-2,5.763097E6,4.145963E-2,-2.658445E-2,-9.084347E-2,3.0180318E-2,3.1915214E-2,-8.3145626E-2,1.0545889E-2,-5.1713478E-2,-7.712088E-2,7.7137336E-2],"split_indices":[18,5,13,16,57,14,15,11,29,11,0,0,19,0,0,29,0,0,19,7,12,0,29,0,0,0,0,0,0,0,0,0,0],"split_type":[0,0,0,0,0,0,0,0,0,0,0,0,0,0,0,0,0,0,0,0,0,0,0,0,0,0,0,0,0,0,0,0,0],"sum_hessian":[2.0811986E4,1.8817795E4,1.9941919E3,6.0166577E3,1.2801137E4,2.7345532E2,1.7207366E3,4.8912886E3,1.1253691E3,1.2560701E4,2.404358E2,1.184091E2,1.5504623E2,1.7033179E3,1.7418678E1,4.4924585E3,3.9882974E2,3.8204124E1,1.087165E3,7.894106E3,4.6665947E3,3.3582184E1,1.2146404E2,2.8074057E2,4.2117183E3,3.3200386E1,1.0539646E3,7.7898735E3,1.04232605E2,4.199969E3,4.6662558E2,6.63236E0,1.1483169E2],"tree_param":{"num_deleted":"0","num_feature":"58","num_nodes":"33","size_leaf_vector":"1"}},{"base_weights":[1.877394E-2,2.044255E-1,-1.3280628E0,6.2080985E-1,1.5620241E-2,-7.62816E-1,-1.4622304E0,9.1330683E-1,-1.9993374E-2,4.6338893E-2,-7.933262E-2,7.024072E-1,-1.2046982E0,-7.766435E-2,-7.1765475E-2,9.456259E-1,-1.17150165E-1,1.0590401E0,-1.5587759E-1,2.1008822E-1,-2.2306891E-1,-6.8597734E-2,1.0547234E0,-7.405338E-2,1.168652E0,4.930053E-2,-7.502718E-2,-9.538381E-2,5.9906926E-2,-1.587198E-2,4.375363E-2,1.2456361E-2,-4.14847E-2,2.9603157E-2,-1.763729E-2,-7.265839E-2,6.425593E-2,9.234641E-2,-6.82918E-2],"categories":[],"categories_nodes":[],"categories_segments":[],"categories_sizes":[],"default_left":[0,0,0,0,0,0,1,0,0,0,0,0,0,0,0,0,0,0,0,0,0,0,0,0,0,0,0,0,0,0,0,0,0,0,0,0,0,0,0],"id":10,"left_children":[1,3,5,7,9,11,13,15,17,19,-1,21,23,-1,-1,25,-1,27,29,31,33,-1,35,-1,37,-1,-1,-1,-1,-1,-1,-1,-1,-1,-1,-1,-1,-1,-1],"loss_changes":[5.216108E3,1.4412998E3,1.9053955E2,1.0720691E3,6.209792E2,3.1607587E2,2.7749023E0,4.1551025E2,2.631376E2,5.4613574E2,0E0,8.435394E1,2.4732886E2,0E0,0E0,3.856892E2,0E0,8.5118866E1,2.6574384E2,3.127487E2,4.9491043E2,0E0,5.8225105E1,0E0,7.062018E1,0E0,0E0,0E0,0E0,0E0,0E0,0E0,0E0,0E0,0E0,0E0,0E0,0E0,0E0],"parents":[2147483647,0,0,1,1,2,2,3,3,4,4,5,5,6,6,7,7,8,8,9,9,11,11,12,12,15,15,17,17,18,18,19,19,20,20,22,22,24,24],"right_children":[2,4,6,8,10,12,14,16,18,20,-1,22,24,-1,-1,26,-1,28,30,32,34,-1,36,-1,38,-1,-1,-1,-1,-1,-1,-1,-1,-1,-1,-1,-1,-1,-1],"split_conditions":[1E0,-1.5891473E-1,8.8E1,3.3333334E-1,1E0,-2.3809524E-1,-1.8706462E-1,1E0,-9.325843E-1,1.9366142E1,-7.933262E-2,2.4347992E2,1E0,-7.766435E-2,-7.1765475E-2,1E0,-1.17150165E-1,4E0,1E0,1E0,3.1589847E2,-6.8597734E-2,2E1,-7.405338E-2,-1.6393442E-2,4.930053E-2,-7.502718E-2,-9.538381E-2,5.9906926E-2,-1.587198E-2,4.375363E-2,1.2456361E-2,-4.14847E-2,2.9603157E-2,-1.763729E-2,-7.265839E-2,6.425593E-2,9.234641E-2,-6.82918E-2],"split_indices":[33,10,13,11,57,10,17,46,10,5,0,17,56,0,0,57,0,14,48,48,3,0,14,0,10,0,0,0,0,0,0,0,0,0,0,0,0,0,0],"split_type":[0,0,0,0,0,0,0,0,0,0,0,0,0,0,0,0,0,0,0,0,0,0,0,0,0,0,0,0,0,0,0,0,0,0,0,0,0,0,0],"sum_hessian":[2.0858814E4,1.8332643E4,2.5261719E3,5.7186494E3,1.2613993E4,4.858741E2,2.0402977E3,3.9261284E3,1.7925209E3,1.237766E4,2.363325E2,1.1244193E2,3.734322E2,4.526324E2,1.5876654E3,3.8882468E3,3.788144E1,1.9972723E2,1.5927937E3,7.698586E3,4.679074E3,1.5904654E1,9.653728E1,3.3481946E2,3.861274E1,3.8256843E3,6.256266E1,8.375634E0,1.9135161E2,1.3775997E3,2.1519395E2,7.4207324E3,2.7785364E2,6.417227E2,4.0373513E3,7.6759515E0,8.886133E1,3.067486E1,7.9378815E0],"tree_param":{"num_deleted":"0","num_feature":"58","num_nodes":"39","size_leaf_vector":"1"}},{"base_weights":[2.9359125E-2,2.0641562E-1,-1.2904129E0,-1.322541E-1,4.2669973E-1,-1.3287169E0,1.3632612E0,2.8254054E-3,-6.1077404E-1,3.2537833E-1,1.0305411E0,-1.3598496E0,9.147962E-1,1.0222136E-1,-6.276299E-2,-9.469907E-2,7.3314464E-1,-7.296143E-1,9.815546E-1,3.573189E-1,-7.4672505E-2,-1.0052623E-1,1.0632182E0,-9.507638E-1,-1.4307967E0,7.677866E-2,-6.4993456E-2,-4.4524983E-2,-6.0834916E-4,-9.441775E-2,4.3510612E-2,-2.4663905E-2,-9.039116E-2,6.317851E-2,-8.5840784E-2,1.9215463E-2,-8.743667E-2,5.4293986E-2,-7.712101E-2,-6.0381602E-2,6.299469E-2,-7.5693764E-2,-7.0254415E-2],"categories":[],"categories_nodes":[],"categories_segments":[],"categories_sizes":[],"default_left":[0,0,1,1,0,1,0,0,1,0,0,0,0,0,0,0,0,1,0,0,0,0,0,0,1,0,0,0,0,0,0,0,0,0,0,0,0,0,0,0,0,0,0],"id":11,"left_children":[1,3,5,7,9,11,13,15,17,19,21,23,25,-1,-1,27,29,31,33,35,-1,-1,37,39,41,-1,-1,-1,-1,-1,-1,-1,-1,-1,-1,-1,-1,-1,-1,-1,-1,-1,-1],"loss_changes":[4.8523022E3,1.3659601E3,2.5148218E2,4.6644962E2,6.783905E2,1.7040088E2,6.578536E1,4.0096564E2,3.0133478E2,5.524906E2,1.6049036E2,6.797949E1,4.838921E1,0E0,0E0,3.2618207E2,2.3994666E2,3.7595178E2,8.645233E1,5.3146484E2,0E0,0E0,9.48064E1,2.037203E2,2.2167969E0,0E0,0E0,0E0,0E0,0E0,0E0,0E0,0E0,0E0,0E0,0E0,0E0,0E0,0E0,0E0,0E0,0E0,0E0],"parents":[2147483647,0,0,1,1,2,2,3,3,4,4,5,5,6,6,7,7,8,8,9,9,10,10,11,11,12,12,15,15,16,16,17,17,18,18,19,19,22,22,23,23,24,24],"right_children":[2,4,6,8,10,12,14,16,18,20,22,24,26,-1,-1,28,30,32,34,36,-1,-1,38,40,42,-1,-1,-1,-1,-1,-1,-1,-1,-1,-1,-1,-1,-1,-1,-1,-1,-1,-1],"split_conditions":[1E0,1E0,2.0975822E-1,1E1,1E0,5.849384E-1,3.3E1,1E0,2.747985E7,1E0,5.210314E2,7.7E1,5.957906E5,1.0222136E-1,-6.276299E-2,6.88416E5,1.724138E-1,1.7849425E6,4.9215524E7,1E0,-7.4672505E-2,-1.0052623E-1,1E0,1E0,-1.8706462E-1,7.677866E-2,-6.4993456E-2,-4.4524983E-2,-6.0834916E-4,-9.441775E-2,4.3510612E-2,-2.4663905E-2,-9.039116E-2,6.317851E-2,-8.5840784E-2,1.9215463E-2,-8.743667E-2,5.4293986E-2,-7.712101E-2,-6.0381602E-2,6.299469E-2,-7.5693764E-2,-7.0254415E-2],"split_indices":[33,25,22,13,27,4,14,43,29,57,3,14,29,0,0,30,10,29,29,41,0,0,36,56,17,0,0,0,0,0,0,0,0,0,0,0,0,0,0,0,0,0,0],"split_type":[0,0,0,0,0,0,0,0,0,0,0,0,0,0,0,0,0,0,0,0,0,0,0,0,0,0,0,0,0,0,0,0,0,0,0,0,0,0,0,0,0,0,0],"sum_hessian":[2.0763105E4,1.8307828E4,2.4552773E3,7.215285E3,1.1092542E4,2.4208337E3,3.444371E1,5.6276675E3,1.5876179E3,9.500026E3,1.5925156E3,2.3880886E3,3.274507E1,2.7507359E1,6.9363523E0,4.9654653E3,6.622019E2,1.4778624E3,1.0975554E2,9.336864E3,1.6316187E2,1.6286636E1,1.5762289E3,3.550794E2,2.0330092E3,2.5815538E1,6.929534E0,4.6565756E2,4.499808E3,3.2268604E1,6.299333E2,1.2133595E3,2.6450284E2,9.985146E1,9.904078E0,9.219528E3,1.17336334E2,1.5632168E3,1.3012174E1,3.185223E2,3.6557095E1,4.667579E2,1.5662512E3],"tree_param":{"num_deleted":"0","num_feature":"58","num_nodes":"43","size_leaf_vector":"1"}},{"base_weights":[-6.814141E-3,1.5909778E-1,-1.2289635E0,4.32204E-1,-6.1594006E-2,-5.6294596E-1,-1.4005684E0,7.701622E-1,1.1570772E-1,-1.4588098E-1,4.025358E-1,1.3203835E0,-9.9004835E-1,-7.372359E-2,-6.888605E-2,8.014759E-1,-1.0939634E-1,4.637605E-1,-2.0457457E-1,-9.20314E-2,-8.756368E-1,7.8554195E-1,-2.0938686E-1,1.6225708E0,-6.5852575E-2,-1.2095478E0,1.094821E0,4.1949134E-2,-7.1968965E-2,2.8214628E-2,-1.01693295E-1,-9.877334E-2,-6.3869446E-3,-3.586717E-3,-1.04981564E-1,-7.020994E-2,1.9493245E-2,-1.0585209E-1,4.7385063E-2,-3.766082E-2,5.4774087E-2,8.4403045E-2,-4.6830084E-2,-7.1432695E-2,4.7823813E-2,-6.96115E-2,8.877853E-2],"categories":[],"categories_nodes":[],"categories_segments":[],"categories_sizes":[],"default_left":[0,0,0,0,0,0,1,0,0,1,1,1,0,0,0,0,0,1,0,1,1,0,0,1,0,0,1,0,0,0,0,0,0,0,0,0,0,0,0,0,0,0,0,0,0,0,0],"id":12,"left_children":[1,3,5,7,9,11,13,15,17,19,21,23,25,-1,-1,27,-1,29,31,33,35,37,39,41,-1,43,45,-1,-1,-1,-1,-1,-1,-1,-1,-1,-1,-1,-1,-1,-1,-1,-1,-1,-1,-1,-1],"loss_changes":[4.118848E3,1.0780004E3,2.767085E2,8.5491003E2,3.870588E2,4.0276508E2,1.2270508E0,3.5980713E2,4.60372E2,3.2895123E2,3.565656E2,7.601085E1,1.8776318E2,0E0,0E0,3.2274927E2,0E0,4.9805948E2,2.9242383E2,3.1763232E2,3.8534555E2,4.4232367E2,4.1679846E2,1.5594086E1,0E0,1.7652374E2,6.906257E1,0E0,0E0,0E0,0E0,0E0,0E0,0E0,0E0,0E0,0E0,0E0,0E0,0E0,0E0,0E0,0E0,0E0,0E0,0E0,0E0],"parents":[2147483647,0,0,1,1,2,2,3,3,4,4,5,5,6,6,7,7,8,8,9,9,10,10,11,11,12,12,15,15,17,17,18,18,19,19,20,20,21,21,22,22,23,23,25,25,26,26],"right_children":[2,4,6,8,10,12,14,16,18,20,22,24,26,-1,-1,28,-1,30,32,34,36,38,40,42,-1,44,46,-1,-1,-1,-1,-1,-1,-1,-1,-1,-1,-1,-1,-1,-1,-1,-1,-1,-1,-1,-1],"split_conditions":[1E0,5.91716E-2,8.8E1,-8.2666665E-2,1E0,1.887338E-7,-1.8706462E-1,1E0,1.1E1,1.9613935E6,-2.3076923E-1,-1E-1,1E0,-7.372359E-2,-6.888605E-2,1E0,-1.0939634E-1,1.8445E6,1.0680684E6,3.69E2,2.2190726E7,3.8759294E5,1E0,3.8634878E-1,-6.5852575E-2,8.5E1,7.364551E-2,4.1949134E-2,-7.1968965E-2,2.8214628E-2,-1.01693295E-1,-9.877334E-2,-6.3869446E-3,-3.586717E-3,-1.04981564E-1,-7.020994E-2,1.9493245E-2,-1.0585209E-1,4.7385063E-2,-3.766082E-2,5.4774087E-2,8.4403045E-2,-4.6830084E-2,-7.1432695E-2,4.7823813E-2,-6.96115E-2,8.877853E-2],"split_indices":[33,12,13,10,24,21,17,46,13,29,10,12,56,0,0,57,0,29,30,14,28,30,44,6,0,13,12,0,0,0,0,0,0,0,0,0,0,0,0,0,0,0,0,0,0,0,0],"split_type":[0,0,0,0,0,0,0,0,0,0,0,0,0,0,0,0,0,0,0,0,0,0,0,0,0,0,0,0,0,0,0,0,0,0,0,0,0,0,0,0,0,0,0,0,0,0,0],"sum_hessian":[2.0311027E4,1.788406E4,2.4269668E3,7.992446E3,9.891615E3,4.9809314E2,1.9288737E3,3.8644792E3,4.1279663E3,8.371939E3,1.5196766E3,9.169E1,4.0640314E2,4.404938E2,1.4883799E3,3.8247207E3,3.9758553E1,1.9780063E3,2.14996E3,7.7976655E3,5.742733E2,9.344899E2,5.851867E2,8.2609695E1,9.080308E0,3.6807162E2,3.833151E1,3.7623728E3,6.2347946E1,1.9022144E3,7.579205E1,8.8376114E1,2.061584E3,7.720645E3,7.702084E1,4.0500522E2,1.6926811E2,4.8807137E1,8.8568274E2,4.133414E2,1.7184532E2,8.0880325E1,1.7293714E0,3.3456848E2,3.3503143E1,8.012714E0,3.0318794E1],"tree_param":{"num_deleted":"0","num_feature":"58","num_nodes":"47","size_leaf_vector":"1"}},{"base_weights":[-3.433198E-4,1.6071855E-1,-1.238806E0,5.925385E-1,2.0776734E-2,-6.788323E-1,-1.3727922E0,9.1815746E-1,-5.1986584E-3,5.0577823E-2,-7.544325E-2,7.430278E-1,-1.117004E0,-7.203105E-2,-6.762029E-2,-1.1405543E-1,9.540318E-1,-1.6461824E-1,1.079134E0,9.8140545E-2,-7.0976675E-1,-6.812664E-2,1.0347294E0,-6.9544524E-2,1.0197496E0,4.910111E-2,-1.0878781E-1,-7.870849E-4,-9.283806E-2,6.588771E-2,-9.748224E-2,8.016692E-3,-2.5336077E-2,-4.785451E-2,3.8551435E-2,-6.0688894E-2,6.2405992E-2,8.039231E-2,-6.644666E-2],"categories":[],"categories_nodes":[],"categories_segments":[],"categories_sizes":[],"default_left":[0,0,0,0,0,0,1,0,1,0,0,0,0,0,0,0,0,0,1,1,0,0,0,0,0,0,0,0,0,0,0,0,0,0,0,0,0,0,0],"id":13,"left_children":[1,3,5,7,9,11,13,15,17,19,-1,21,23,-1,-1,-1,25,27,29,31,33,-1,35,-1,37,-1,-1,-1,-1,-1,-1,-1,-1,-1,-1,-1,-1,-1,-1],"loss_changes":[4.0277683E3,1.079783E3,1.7342041E2,8.5122144E2,6.153016E2,2.8159222E2,6.435547E-1,3.2711133E2,2.6695233E2,4.7885565E2,0E0,6.698174E1,2.0325601E2,0E0,0E0,0E0,2.4746802E2,3.3913684E2,1.4562758E2,4.688338E2,2.8623215E2,0E0,4.6779404E1,0E0,5.705749E1,0E0,0E0,0E0,0E0,0E0,0E0,0E0,0E0,0E0,0E0,0E0,0E0,0E0,0E0],"parents":[2147483647,0,0,1,1,2,2,3,3,4,4,5,5,6,6,7,7,8,8,9,9,11,11,12,12,16,16,17,17,18,18,19,19,20,20,22,22,24,24],"right_children":[2,4,6,8,10,12,14,16,18,20,-1,22,24,-1,-1,-1,26,28,30,32,34,-1,36,-1,38,-1,-1,-1,-1,-1,-1,-1,-1,-1,-1,-1,-1,-1,-1],"split_conditions":[1E0,-2.3809524E-1,8.8E1,3.8961038E-1,1E0,-2.3809524E-1,-1.8706462E-1,3E0,2.2531798E2,1E0,-7.544325E-2,1.9E1,1E0,-7.203105E-2,-6.762029E-2,-1.1405543E-1,1E0,-3.3333334E-1,1.6E2,2.9922912E6,1E0,-6.812664E-2,1.000001E1,-6.9544524E-2,-1.6393442E-2,4.910111E-2,-1.0878781E-1,-7.870849E-4,-9.283806E-2,6.588771E-2,-9.748224E-2,8.016692E-3,-2.5336077E-2,-4.785451E-2,3.8551435E-2,-6.0688894E-2,6.2405992E-2,8.039231E-2,-6.644666E-2],"split_indices":[33,10,13,11,57,10,17,13,16,36,0,14,56,0,0,0,44,10,13,28,43,0,15,0,10,0,0,0,0,0,0,0,0,0,0,0,0,0,0],"split_type":[0,0,0,0,0,0,0,0,0,0,0,0,0,0,0,0,0,0,0,0,0,0,0,0,0,0,0,0,0,0,0,0,0,0,0,0,0,0,0],"sum_hessian":[2.0190443E4,1.786763E4,2.322812E3,4.3724087E3,1.3495223E4,4.4964804E2,1.8731641E3,2.8301438E3,1.5422648E3,1.3238276E4,2.5694644E2,1.0576066E2,3.4388736E2,4.1678787E2,1.4563761E3,3.0689367E1,2.7994543E3,1.3453224E3,1.9694237E2,1.2459738E4,7.7853766E2,1.2422385E1,9.333828E1,3.051258E2,3.8761585E1,2.7753203E3,2.4134098E1,1.2374587E3,1.0786365E2,1.830832E2,1.3859158E1,1.1298714E4,1.1610242E3,6.6741864E2,1.1111901E2,7.683958E0,8.565432E1,3.1251757E1,7.5098305E0],"tree_param":{"num_deleted":"0","num_feature":"58","num_nodes":"39","size_leaf_vector":"1"}},{"base_weights":[2.746679E-2,1.8356572E-1,-1.2482599E0,-1.189951E-1,3.841383E-1,-6.297299E-1,-1.3502845E0,2.7787572E-1,-3.1648344E-1,4.2035905E-1,-1.0612824E-1,9.691357E-2,-6.8558075E-2,-7.075177E-2,-6.648693E-2,-9.407105E-2,3.4489205E-1,-1.0607537E0,-1.4690834E-1,-2.6150194E-1,5.5521953E-1,-6.837246E-2,6.461055E-1,1.3732515E-2,7.949947E-2,-2.2670578E-2,-8.040563E-2,-2.0438062E-3,-6.042991E-2,-3.5311263E-2,2.9662302E-2,2.9162345E-2,-7.040085E-2,-6.6700585E-2,4.588482E-2],"categories":[],"categories_nodes":[],"categories_segments":[],"categories_sizes":[],"default_left":[0,0,0,0,0,0,1,0,0,1,0,0,0,0,0,0,0,1,1,1,0,0,0,0,0,0,0,0,0,0,0,0,0,0,0],"id":14,"left_children":[1,3,5,7,9,11,13,15,17,19,-1,21,-1,-1,-1,-1,23,25,27,29,31,-1,33,-1,-1,-1,-1,-1,-1,-1,-1,-1,-1,-1,-1],"loss_changes":[4.0796096E3,1.1077124E3,1.4009033E2,5.704484E2,9.9749915E2,1.7151578E2,6.677246E-1,3.5062634E2,6.131732E2,9.952012E2,0E0,1.3083707E2,0E0,0E0,0E0,0E0,2.047873E2,2.9899274E2,4.456289E2,6.7988965E2,4.97938E2,0E0,6.478792E1,0E0,0E0,0E0,0E0,0E0,0E0,0E0,0E0,0E0,0E0,0E0,0E0],"parents":[2147483647,0,0,1,1,2,2,3,3,4,4,5,5,6,6,7,7,8,8,9,9,11,11,16,16,17,17,18,18,19,19,20,20,22,22],"right_children":[2,4,6,8,10,12,14,16,18,20,-1,22,-1,-1,-1,-1,24,26,28,30,32,-1,34,-1,-1,-1,-1,-1,-1,-1,-1,-1,-1,-1,-1],"split_conditions":[1E0,1E0,5.8E1,2.9922912E6,1E0,-1.6393442E-2,-1.8706462E-1,-1.0097823E-2,2.7289596E7,0E0,-1.0612824E-1,5.849384E-1,-6.8558075E-2,-7.075177E-2,-6.648693E-2,-9.407105E-2,1E0,3E0,1.112013E-1,7.861942E1,1E0,-6.837246E-2,-5.6E-2,1.3732515E-2,7.949947E-2,-2.2670578E-2,-8.040563E-2,-2.0438062E-3,-6.042991E-2,-3.5311263E-2,2.9662302E-2,2.9162345E-2,-7.040085E-2,-6.6700585E-2,4.588482E-2],"split_indices":[33,25,31,28,46,10,17,12,30,5,0,4,0,0,0,0,48,14,11,3,57,0,11,0,0,0,0,0,0,0,0,0,0,0,0],"split_type":[0,0,0,0,0,0,0,0,0,0,0,0,0,0,0,0,0,0,0,0,0,0,0,0,0,0,0,0,0,0,0,0,0,0,0],"sum_hessian":[2.048403E4,1.8251605E4,2.2324248E3,7.276108E3,1.0975497E4,3.171083E2,1.9153165E3,2.417505E3,4.858603E3,1.0819985E4,1.5551163E2,1.605903E2,1.5651799E2,4.450039E2,1.4703126E3,7.195663E1,2.345548E3,9.0059766E2,3.9580056E3,1.7864868E3,9.033499E3,4.3394226E1,1.17196075E2,2.2214465E3,1.241016E2,4.277739E2,4.7282376E2,3.5995525E3,3.5845306E2,1.1752046E3,6.112823E2,8.907044E3,1.26454834E2,1.3663834E1,1.0353224E2],"tree_param":{"num_deleted":"0","num_feature":"58","num_nodes":"35","size_leaf_vector":"1"}},{"base_weights":[-1.3187996E-2,1.2995584E-1,-1.1503035E0,3.8925663E-1,-9.962693E-2,-4.79825E-1,-6.627875E-2,5.149408E-1,-1.7745654E-1,1.1143269E-1,-3.611181E-1,1.2722741E0,-9.0285593E-1,7.0247597E-1,9.093482E-2,4.4642442E-1,-8.352718E-1,1.3603347E-3,8.1586343E-1,-4.8254284E-1,5.076279E-1,1.5817298E0,-6.28921E-2,-1.1205308E0,9.737782E-1,3.6322575E-2,-1.1182753E-1,4.0761553E-2,-1.2440852E-2,-9.549352E-2,2.9873235E-2,-8.1127847E-4,-5.9890714E-2,2.43379E-2,-8.998144E-3,4.6135604E-2,-9.664623E-2,-3.0347232E-2,2.613092E-2,-1.133033E-1,3.7550386E-2,-4.8516225E-2,8.258198E-2,-6.759783E-2,4.361681E-2,-6.671092E-2,7.88855E-2],"categories":[],"categories_nodes":[],"categories_segments":[],"categories_sizes":[],"default_left":[0,0,0,0,1,0,0,0,0,1,0,1,0,0,0,1,0,0,1,0,0,0,0,0,1,0,0,0,0,0,0,0,0,0,0,0,0,0,0,0,0,0,0,0,0,0,0],"id":15,"left_children":[1,3,5,7,9,11,-1,13,15,17,19,21,23,25,27,29,31,33,35,37,39,41,-1,43,45,-1,-1,-1,-1,-1,-1,-1,-1,-1,-1,-1,-1,-1,-1,-1,-1,-1,-1,-1,-1,-1,-1],"loss_changes":[3.2266182E3,1.0481855E3,2.5982422E2,5.890265E2,5.154785E2,3.427538E2,0E0,5.380853E2,6.166407E2,4.0077676E2,4.402884E2,7.249556E1,1.5298453E2,3.322622E2,5.1120578E2,2.756599E2,2.1712799E2,3.9362064E2,2.069386E2,4.5803888E2,3.47362E2,1.5997009E1,0E0,1.5506055E2,5.672009E1,0E0,0E0,0E0,0E0,0E0,0E0,0E0,0E0,0E0,0E0,0E0,0E0,0E0,0E0,0E0,0E0,0E0,0E0,0E0,0E0,0E0,0E0],"parents":[2147483647,0,0,1,1,2,2,3,3,4,4,5,5,7,7,8,8,9,9,10,10,11,11,12,12,13,13,14,14,15,15,16,16,17,17,18,18,19,19,20,20,21,21,23,23,24,24],"right_children":[2,4,6,8,10,12,-1,14,16,18,20,22,24,26,28,30,32,34,36,38,40,42,-1,44,46,-1,-1,-1,-1,-1,-1,-1,-1,-1,-1,-1,-1,-1,-1,-1,-1,-1,-1,-1,-1,-1,-1],"split_conditions":[1E0,3.04414E-3,8.8E1,4.5235302E-2,-3.0769232E-1,1.887338E-7,-6.627875E-2,2.293578E-2,1.8695693E0,-4.9056605E-1,1E0,3.4E1,1E0,1E0,-2.4742268E-1,-8.498943E-1,-4.680851E-1,3.0183882E6,1.3333334E-1,1E0,9.1836736E-2,2E1,-6.28921E-2,8.5E1,7.364551E-2,3.6322575E-2,-1.1182753E-1,4.0761553E-2,-1.2440852E-2,-9.549352E-2,2.9873235E-2,-8.1127847E-4,-5.9890714E-2,2.43379E-2,-8.998144E-3,4.6135604E-2,-9.664623E-2,-3.0347232E-2,2.613092E-2,-1.133033E-1,3.7550386E-2,-4.8516225E-2,8.258198E-2,-6.759783E-2,4.361681E-2,-6.671092E-2,7.88855E-2],"split_indices":[33,11,13,5,10,21,0,10,19,10,52,32,56,43,12,12,11,29,12,55,11,32,0,13,12,0,0,0,0,0,0,0,0,0,0,0,0,0,0,0,0,0,0,0,0,0,0],"split_type":[0,0,0,0,0,0,0,0,0,0,0,0,0,0,0,0,0,0,0,0,0,0,0,0,0,0,0,0,0,0,0,0,0,0,0,0,0,0,0,0,0,0,0,0,0,0,0],"sum_hessian":[1.9821127E4,1.7605742E4,2.215383E3,8.26744E3,9.338303E3,4.5988614E2,1.755497E3,6.766807E3,1.500633E3,5.1677705E3,4.1705327E3,8.905069E1,3.7083548E2,4.6912427E3,2.0755645E3,7.7034686E2,7.302862E2,4.4702617E3,6.9750854E2,3.65949E3,5.110427E2,7.967996E1,9.370728E0,3.326532E2,3.8182262E1,4.65403E3,3.7213066E1,6.622834E2,1.413281E3,4.570373E1,7.246431E2,2.2439159E2,5.058946E2,1.2152865E3,3.2549753E3,6.720495E2,2.5459055E1,3.2568132E3,4.026768E2,4.0554134E1,4.7048856E2,1.7811055E0,7.789886E1,2.9833054E2,3.432266E1,7.668183E0,3.0514082E1],"tree_param":{"num_deleted":"0","num_feature":"58","num_nodes":"47","size_leaf_vector":"1"}},{"base_weights":[2.3817101E-2,1.3748778E-1,-1.1947353E0,4.8214018E-1,-6.8593053E-3,1.2507714E0,-1.2359892E0,7.569353E-1,3.7606444E-2,3.048216E-1,-1.5482354E-1,-5.07822E-2,7.516188E-2,5.107728E-1,-1.2886281E0,9.225901E-1,1.4652209E-1,1.2184592E-1,-1.9617622E0,3.3368295E-1,-9.08167E-2,3.051113E-1,-3.2103154E-1,-6.32395E-2,9.437581E-2,-1.3256679E0,5.6649023E-1,4.8047062E-2,-6.827485E-2,1.3779516E-2,-1.1435854E-1,-9.721296E-2,9.003941E-3,-1.0444478E-1,-7.5567074E-2,1.8004296E-2,-9.310531E-2,-6.0826773E-3,4.3300703E-2,-8.995171E-3,-4.264587E-2,-6.5303944E-2,-8.2421444E-2,6.579788E-2,-6.8308E-2],"categories":[],"categories_nodes":[],"categories_segments":[],"categories_sizes":[],"default_left":[1,0,0,0,0,0,0,0,1,1,0,0,0,0,1,0,0,0,0,1,0,1,1,0,0,0,0,0,0,0,0,0,0,0,0,0,0,0,0,0,0,0,0,0,0],"id":16,"left_children":[1,3,5,7,9,11,13,15,17,19,21,-1,-1,23,25,27,29,31,33,35,-1,37,39,-1,-1,41,43,-1,-1,-1,-1,-1,-1,-1,-1,-1,-1,-1,-1,-1,-1,-1,-1,-1,-1],"loss_changes":[2.7818342E3,9.138865E2,1.7442578E2,6.6236475E2,5.9718463E2,1.8077282E1,1.556521E2,3.3870935E2,3.4930917E2,2.5579727E2,6.713349E2,0E0,0E0,1.2468105E2,1.1321069E2,2.3258081E2,2.2568239E2,2.3974089E2,1.6445618E0,2.3914404E2,0E0,5.581615E2,4.8403613E2,0E0,0E0,7.9941406E0,4.9218502E1,0E0,0E0,0E0,0E0,0E0,0E0,0E0,0E0,0E0,0E0,0E0,0E0,0E0,0E0,0E0,0E0,0E0,0E0],"parents":[2147483647,0,0,1,1,2,2,3,3,4,4,5,5,6,6,7,7,8,8,9,9,10,10,13,13,14,14,15,15,16,16,17,17,18,18,19,19,21,21,22,22,25,25,26,26],"right_children":[2,4,6,8,10,12,14,16,18,20,22,-1,-1,24,26,28,30,32,34,36,-1,38,40,-1,-1,42,44,-1,-1,-1,-1,-1,-1,-1,-1,-1,-1,-1,-1,-1,-1,-1,-1,-1,-1],"split_conditions":[-1.8706462E-1,-1.5891473E-1,5.984743E0,1.6780822E-1,1.1E1,4.2301035E-1,2.5987279E-2,1.8181819E-1,5.97E2,3.0617932E2,2.7428012E6,-5.07822E-2,7.516188E-2,9.923E3,4.335364E0,1E0,-1.8410042E-1,4E0,3.4156567E-1,1.0382899E7,-9.08167E-2,6.43778E5,3.04414E-3,-6.32395E-2,9.437581E-2,4.305E2,-8.86076E-1,4.8047062E-2,-6.827485E-2,1.3779516E-2,-1.1435854E-1,-9.721296E-2,9.003941E-3,-1.0444478E-1,-7.5567074E-2,1.8004296E-2,-9.310531E-2,-6.0826773E-3,4.3300703E-2,-8.995171E-3,-4.264587E-2,-6.5303944E-2,-8.2421444E-2,6.579788E-2,-6.8308E-2],"split_indices":[17,10,2,11,31,1,9,12,31,2,28,0,0,31,23,57,10,31,4,28,0,30,11,0,0,18,12,0,0,0,0,0,0,0,0,0,0,0,0,0,0,0,0,0,0],"split_type":[0,0,0,0,0,0,0,0,0,0,0,0,0,0,0,0,0,0,0,0,0,0,0,0,0,0,0,0,0,0,0,0,0,0,0,0,0,0,0,0,0,0,0,0,0],"sum_hessian":[2.0081275E4,1.836867E4,1.7126042E3,5.4215317E3,1.2947139E4,2.7924706E1,1.6846796E3,3.3499856E3,2.0715461E3,4.1674688E3,8.77967E3,2.4958966E0,2.5428808E1,4.9028236E1,1.6356514E3,2.6345156E3,7.1546985E2,1.9886954E3,8.285072E1,4.112357E3,5.5111794E1,2.3303188E3,6.449351E3,2.1448187E1,2.7580048E1,1.6039126E3,3.173874E1,2.5916562E3,4.285934E1,6.802788E2,3.519108E1,5.362681E1,1.9350686E3,6.1776382E1,2.107434E1,4.0643218E3,4.8034916E1,1.3238478E3,1.006471E3,5.098008E3,1.3513434E3,1.5168956E3,8.701695E1,2.3099874E1,8.638866E0],"tree_param":{"num_deleted":"0","num_feature":"58","num_nodes":"45","size_leaf_vector":"1"}},{"base_weights":[2.1448134E-2,1.5542093E-1,-1.1534227E0,9.841263E-1,9.700705E-2,-6.11284E-1,-1.2899731E0,-7.430713E-2,1.0405735E0,4.092749E-1,-3.4432378E-2,6.686137E-1,-1.0305359E0,-6.767236E-2,-6.349422E-2,1.1925503E0,3.658717E-1,-1.7819531E-1,6.0123783E-1,-9.480243E-3,-7.315546E-2,-6.511648E-2,9.5418245E-1,-6.548068E-2,9.7793245E-1,-1.14369564E-1,6.2092353E-2,3.913199E-2,-9.405885E-2,-1.5006111E-3,-9.615537E-2,-1.5066154E-2,3.4251478E-2,-8.4328294E-2,3.7662097E-4,-5.717034E-2,5.7783842E-2,-6.4183176E-2,8.020562E-2],"categories":[],"categories_nodes":[],"categories_segments":[],"categories_sizes":[],"default_left":[0,0,0,0,0,0,1,0,0,1,0,0,0,0,0,0,0,1,0,0,0,0,0,0,1,0,0,0,0,0,0,0,0,0,0,0,0,0,0],"id":17,"left_children":[1,3,5,7,9,11,13,-1,15,17,19,21,23,-1,-1,25,27,29,31,33,-1,-1,35,-1,37,-1,-1,-1,-1,-1,-1,-1,-1,-1,-1,-1,-1,-1,-1],"loss_changes":[3.1344326E3,8.6520557E2,1.5010986E2,1.656549E2,6.8542505E2,2.217754E2,3.564453E-1,0E0,1.17607666E2,5.579828E2,4.1897705E2,5.8802986E1,1.7545972E2,0E0,0E0,1.6394788E2,2.0102254E2,3.1516653E2,2.822036E2,3.29629E2,0E0,0E0,3.931894E1,0E0,5.6557632E1,0E0,0E0,0E0,0E0,0E0,0E0,0E0,0E0,0E0,0E0,0E0,0E0,0E0,0E0],"parents":[2147483647,0,0,1,1,2,2,3,3,4,4,5,5,6,6,8,8,9,9,10,10,11,11,12,12,15,15,16,16,17,17,18,18,19,19,22,22,24,24],"right_children":[2,4,6,8,10,12,14,-1,16,18,20,22,24,-1,-1,26,28,30,32,34,-1,-1,36,-1,38,-1,-1,-1,-1,-1,-1,-1,-1,-1,-1,-1,-1,-1,-1],"split_conditions":[1E0,5.475373E-2,8.8E1,6.0889393E-1,-1.5384616E-1,-2.3809524E-1,-1.8706462E-1,-7.430713E-2,2.293578E-2,5E0,1E0,2E1,1E0,-6.767236E-2,-6.349422E-2,9.571662E5,2.6018322E-2,8.9705144E5,-7.910448E-1,4.8695984E2,-7.315546E-2,-6.511648E-2,3.9345903E0,-6.548068E-2,7.364551E-2,-1.14369564E-1,6.2092353E-2,3.913199E-2,-9.405885E-2,-1.5006111E-3,-9.615537E-2,-1.5066154E-2,3.4251478E-2,-8.4328294E-2,3.7662097E-4,-5.717034E-2,5.7783842E-2,-6.4183176E-2,8.020562E-2],"split_indices":[33,8,13,21,10,10,17,0,10,14,57,14,56,0,0,30,18,29,10,7,0,0,17,0,12,0,0,0,0,0,0,0,0,0,0,0,0,0,0],"split_type":[0,0,0,0,0,0,0,0,0,0,0,0,0,0,0,0,0,0,0,0,0,0,0,0,0,0,0,0,0,0,0,0,0,0,0,0,0,0,0],"sum_hessian":[1.991157E4,1.7874207E4,2.0373625E3,1.175914E3,1.6698293E4,4.1101373E2,1.6263489E3,2.5704212E1,1.1502097E3,4.94591E3,1.1752384E4,1.0126768E2,3.0974606E2,3.7502423E2,1.2513246E3,9.381284E2,2.1208133E2,1.2181228E3,3.7277874E3,1.1551639E4,2.007451E2,1.2365158E1,8.890252E1,2.7226294E2,3.748312E1,1.246971E1,9.256587E2,1.7944983E2,3.2631496E1,1.1237112E3,9.4411674E1,3.1645883E2,3.4113286E3,1.1501963E2,1.1436618E4,7.3818316E0,8.152068E1,7.9000916E0,2.9583029E1],"tree_param":{"num_deleted":"0","num_feature":"58","num_nodes":"39","size_leaf_vector":"1"}},{"base_weights":[3.1628758E-3,1.3058898E-1,-1.1231644E0,-1.5307511E-1,3.1872717E-1,-1.1663998E0,1.373363E0,2.0565547E-1,-3.2867008E-1,4.6202043E-1,-6.6818476E-2,-6.373084E-1,-1.27395E0,9.644937E-2,-5.5073213E-2,-6.762316E-1,3.214213E-1,5.2462703E-1,-4.5045716E-1,4.8876607E-1,-6.81765E-2,9.0396684E-1,-2.5185522E-1,-5.276937E-2,-6.4420216E-2,-6.673316E-2,-6.2678576E-2,6.349874E-2,-6.4310476E-2,2.289523E-2,-1.7960368E-2,3.9078783E-2,-9.007671E-2,-1.7608726E-2,-5.527054E-2,2.7040366E-2,-1.6728062E-2,5.210941E-2,-8.16389E-2,-1.9014075E-2,4.8378404E-2,-6.1979987E-2,2.318861E-2],"categories":[],"categories_nodes":[],"categories_segments":[],"categories_sizes":[],"default_left":[0,0,1,0,0,0,0,0,0,0,0,0,1,0,0,0,1,0,1,1,0,1,1,0,0,0,0,0,0,0,0,0,0,0,0,0,0,0,0,0,0,0,0],"id":18,"left_children":[1,3,5,7,9,11,13,15,17,19,21,23,25,-1,-1,27,29,31,33,35,-1,37,39,41,-1,-1,-1,-1,-1,-1,-1,-1,-1,-1,-1,-1,-1,-1,-1,-1,-1,-1,-1],"loss_changes":[2.829467E3,9.452294E2,2.17875E2,4.4497787E2,5.8832263E2,1.11295166E2,4.965914E1,2.372491E2,4.9305945E2,3.797173E2,5.186768E2,1.2736104E2,3.5107422E-1,0E0,0E0,3.2184433E2,1.9087726E2,3.5570996E2,2.6678326E2,3.280464E2,0E0,1.6378873E2,3.8012488E2,1.0937211E2,0E0,0E0,0E0,0E0,0E0,0E0,0E0,0E0,0E0,0E0,0E0,0E0,0E0,0E0,0E0,0E0,0E0,0E0,0E0],"parents":[2147483647,0,0,1,1,2,2,3,3,4,4,5,5,6,6,7,7,8,8,9,9,10,10,11,11,12,12,15,15,16,16,17,17,18,18,19,19,21,21,22,22,23,23],"right_children":[2,4,6,8,10,12,14,16,18,20,22,24,26,-1,-1,28,30,32,34,36,-1,38,40,42,-1,-1,-1,-1,-1,-1,-1,-1,-1,-1,-1,-1,-1,-1,-1,-1,-1,-1,-1],"split_conditions":[1E0,1E0,2.0975822E-1,2.906413E6,9.135971E-5,7.7E1,3.3E1,1.4285715E-1,2.8894086E2,1E0,5.764153E-1,-1.6393442E-2,-1.8706462E-1,9.644937E-2,-5.5073213E-2,6.5842434E-4,3.106796E-1,1.8110874E0,2E1,1.6E0,-6.81765E-2,5.5978495E-1,1.4224998E0,2.4347992E2,-6.4420216E-2,-6.673316E-2,-6.2678576E-2,6.349874E-2,-6.4310476E-2,2.289523E-2,-1.7960368E-2,3.9078783E-2,-9.007671E-2,-1.7608726E-2,-5.527054E-2,2.7040366E-2,-1.6728062E-2,5.210941E-2,-8.16389E-2,-1.9014075E-2,4.8378404E-2,-6.1979987E-2,2.318861E-2],"split_indices":[33,25,22,28,5,32,32,10,2,57,19,10,17,0,0,9,10,19,32,11,0,17,19,17,0,0,0,0,0,0,0,0,0,0,0,0,0,0,0,0,0,0,0],"split_type":[0,0,0,0,0,0,0,0,0,0,0,0,0,0,0,0,0,0,0,0,0,0,0,0,0,0,0,0,0,0,0,0,0,0,0,0,0,0,0,0,0,0,0],"sum_hessian":[1.9712287E4,1.770961E4,2.0026779E3,7.062045E3,1.0647565E4,1.9691093E3,3.3568623E1,2.3207378E3,4.741307E3,7.7623745E3,2.8851904E3,3.3381888E2,1.6352904E3,2.7594034E1,5.9745893E0,2.687324E2,2.0520054E3,5.9177155E2,4.1495356E3,7.651014E3,1.113607E2,4.612711E2,2.4239194E3,1.7646957E2,1.573493E2,3.947449E2,1.2405455E3,6.386895E1,2.0486343E2,1.7095287E3,3.4247662E2,5.335044E2,5.8267105E1,3.609439E3,5.400964E2,7.196479E3,4.5453488E2,4.3799493E2,2.3276152E1,2.1935852E3,2.3033417E2,5.3089294E1,1.2338028E2],"tree_param":{"num_deleted":"0","num_feature":"58","num_nodes":"43","size_leaf_vector":"1"}},{"base_weights":[7.3328805E-3,9.6454054E-2,-1.1002122E0,-2.2996552E-1,2.5753507E-1,4.8534167E-1,-1.2549504E0,2.9458709E-2,-5.6788737E-1,1.6377716E-1,9.413729E-1,-1.6622227E0,1.4774386E0,-6.187115E-2,-7.618963E-2,7.822592E-2,-9.166249E-2,6.262948E-1,-7.334348E-1,1.9324356E-1,-6.892766E-2,9.571448E-1,-1.05985515E-1,-6.175033E-2,-9.4117194E-2,1.7074211E0,-6.436255E-2,-3.3160006E-3,3.5833057E-2,4.149497E-2,-8.4578514E-2,-2.470551E-2,-6.0160376E-2,4.365413E-2,6.2947297E-3,4.8598073E-2,-9.73837E-2,8.860913E-2,-5.027759E-2],"categories":[],"categories_nodes":[],"categories_segments":[],"categories_sizes":[],"default_left":[1,1,1,1,0,0,0,0,0,0,0,0,0,0,0,1,0,0,1,0,0,0,0,0,0,1,0,0,0,0,0,0,0,0,0,0,0,0,0],"id":19,"left_children":[1,3,5,7,9,11,13,15,17,19,21,23,25,-1,-1,27,-1,29,31,33,-1,35,-1,-1,-1,37,-1,-1,-1,-1,-1,-1,-1,-1,-1,-1,-1,-1,-1],"loss_changes":[1.9302057E3,9.5168976E2,3.5792102E2,5.2431946E2,7.768562E2,2.7988776E2,4.368164E0,3.075693E2,5.139602E2,4.8468283E2,7.2565796E1,1.5888901E0,5.9166367E1,0E0,0E0,3.0448123E2,0E0,1.5090134E2,2.5593005E2,4.7881653E2,0E0,6.448218E1,0E0,0E0,0E0,1.6390488E1,0E0,0E0,0E0,0E0,0E0,0E0,0E0,0E0,0E0,0E0,0E0,0E0,0E0],"parents":[2147483647,0,0,1,1,2,2,3,3,4,4,5,5,6,6,7,7,8,8,9,9,10,10,11,11,12,12,15,15,17,17,18,18,19,19,21,21,25,25],"right_children":[2,4,6,8,10,12,14,16,18,20,22,24,26,-1,-1,28,-1,30,32,34,-1,36,-1,-1,-1,38,-1,-1,-1,-1,-1,-1,-1,-1,-1,-1,-1,-1,-1],"split_conditions":[4.4454016E-2,0E0,6.325806E-3,-3.0769232E-1,1E0,2.857143E-1,1E0,1E0,5.764153E-1,1E0,7.64E2,1.1884491E0,4.5E1,-6.187115E-2,-7.618963E-2,4.135925E-1,-9.166249E-2,3.347543E-1,-1.9689119E-1,5.475373E-2,-6.892766E-2,1E0,-1.05985515E-1,-6.175033E-2,-9.4117194E-2,4E-1,-6.436255E-2,-3.3160006E-3,3.5833057E-2,4.149497E-2,-8.4578514E-2,-2.470551E-2,-6.0160376E-2,4.365413E-2,6.2947297E-3,4.8598073E-2,-9.73837E-2,8.860913E-2,-5.027759E-2],"split_indices":[18,5,17,10,27,10,36,42,19,57,31,15,31,0,0,19,0,21,11,8,0,46,0,0,0,10,0,0,0,0,0,0,0,0,0,0,0,0,0],"split_type":[0,0,0,0,0,0,0,0,0,0,0,0,0,0,0,0,0,0,0,0,0,0,0,0,0,0,0,0,0,0,0,0,0,0,0,0,0,0,0],"sum_hessian":[1.955308E4,1.8097719E4,1.4553617E3,5.9797466E3,1.2117972E4,1.2921356E2,1.3261482E3,3.3832905E3,2.5964558E3,1.0657948E4,1.4600236E3,4.0616558E1,8.8597E1,1.2502401E3,7.5908066E1,3.2979067E3,8.538385E1,3.1578033E2,2.2806755E3,1.0459003E4,1.9894579E2,1.4532233E3,6.8002667E0,1.605915E1,2.4557405E1,8.214604E1,6.4509544E0,2.6898118E3,6.080949E2,2.908717E2,2.4908632E1,1.5122932E3,7.683823E2,9.4166034E2,9.517343E3,1.4465105E3,6.7128143E0,8.0569534E1,1.5765061E0],"tree_param":{"num_deleted":"0","num_feature":"58","num_nodes":"39","size_leaf_vector":"1"}},{"base_weights":[3.1075789E-2,1.5084028E-1,-1.1322567E0,8.2142526E-1,8.916767E-2,-1.1781634E0,1.3472902E0,1.3281285E0,5.85621E-1,4.4622982E-1,-1.0381113E-2,-4.8856598E-1,-1.248828E0,9.173456E-2,-5.3114243E-2,-1.055597E-1,1.3515902E0,6.662274E-1,-9.563842E-2,7.229422E-1,1.5922627E-1,4.6176106E-2,-5.687919E-1,7.793121E-1,-6.278524E-2,-6.545181E-2,-6.1249513E-2,6.856538E-2,-5.878147E-2,4.618752E-2,1.278957E-2,1.7886838E-2,4.9230643E-2,3.555314E-2,-1.3850743E-2,2.1945143E-5,4.1373875E-2,-6.1514255E-2,2.3935089E-2,-6.680668E-2,5.6771632E-2],"categories":[],"categories_nodes":[],"categories_segments":[],"categories_sizes":[],"default_left":[0,0,1,1,0,0,0,0,0,0,1,0,1,0,0,0,1,0,0,0,1,1,1,0,0,0,0,0,0,0,0,0,0,0,0,0,0,0,0,0,0],"id":20,"left_children":[1,3,5,7,9,11,13,15,17,19,21,23,25,-1,-1,-1,27,29,-1,31,33,35,37,39,-1,-1,-1,-1,-1,-1,-1,-1,-1,-1,-1,-1,-1,-1,-1,-1,-1],"loss_changes":[2.7411316E3,7.376321E2,2.1062036E2,1.7871008E2,5.8068384E2,8.727759E1,4.1700813E1,4.1285583E1,2.080834E2,2.8274042E2,4.0351288E2,1.6562573E2,7.4316406E-1,0E0,0E0,0E0,2.5214966E1,1.0499252E2,0E0,1.7290869E2,4.213817E2,4.145825E2,8.147816E2,5.005565E1,0E0,0E0,0E0,0E0,0E0,0E0,0E0,0E0,0E0,0E0,0E0,0E0,0E0,0E0,0E0,0E0,0E0],"parents":[2147483647,0,0,1,1,2,2,3,3,4,4,5,5,6,6,7,7,8,8,9,9,10,10,11,11,12,12,16,16,17,17,19,19,20,20,21,21,22,22,23,23],"right_children":[2,4,6,8,10,12,14,16,18,20,22,24,26,-1,-1,-1,28,30,-1,32,34,36,38,40,-1,-1,-1,-1,-1,-1,-1,-1,-1,-1,-1,-1,-1,-1,-1,-1,-1],"split_conditions":[1E0,4.4454016E-2,2.0975822E-1,-3.8235295E-1,-1.9689119E-1,-3.3333334E-1,3.3E1,-8.418079E-1,4.21875E-1,-5.882353E-2,1.8445E6,1.6666667E-1,-1.8706462E-1,9.173456E-2,-5.3114243E-2,-1.055597E-1,2.3554967E-1,4.1230568E6,-9.563842E-2,2.2E1,-2E-1,1.2520835E6,1.191049E7,-5.263158E-2,-6.278524E-2,-6.545181E-2,-6.1249513E-2,6.856538E-2,-5.878147E-2,4.618752E-2,1.278957E-2,1.7886838E-2,4.9230643E-2,3.555314E-2,-1.3850743E-2,2.1945143E-5,4.1373875E-2,-6.1514255E-2,2.3935089E-2,-6.680668E-2,5.6771632E-2],"split_indices":[33,18,22,10,11,10,14,10,12,10,29,11,17,0,0,0,19,29,0,13,12,29,30,11,0,0,0,0,0,0,0,0,0,0,0,0,0,0,0,0,0],"split_type":[0,0,0,0,0,0,0,0,0,0,0,0,0,0,0,0,0,0,0,0,0,0,0,0,0,0,0,0,0,0,0,0,0,0,0,0,0,0,0,0,0],"sum_hessian":[1.9672014E4,1.7836613E4,1.8353999E3,1.5012078E3,1.6335406E4,1.8025521E3,3.28478E1,4.7527985E2,1.025928E3,3.560631E3,1.2774775E4,1.6827888E2,1.6342732E3,2.7519773E1,5.3280277E0,2.617294E0,4.7266254E2,9.9457306E2,3.1354908E1,1.8120437E3,1.7485874E3,1.1600741E4,1.1740342E3,6.342998E1,1.048489E2,4.4823483E2,1.1860385E3,4.694572E2,3.2053452E0,6.1035974E2,3.8421332E2,7.573715E2,1.0546721E3,7.717319E2,9.768556E2,1.0960138E4,6.406034E2,7.194969E2,4.5453732E2,8.74292E0,5.468706E1],"tree_param":{"num_deleted":"0","num_feature":"58","num_nodes":"41","size_leaf_vector":"1"}},{"base_weights":[4.897467E-3,-9.294831E-1,8.938493E-2,-1.0361459E0,8.0924034E-1,2.6844304E-2,7.999829E-1,-1.1641368E0,-3.8256146E-2,-7.685099E-2,1.2826792E0,-3.445273E-2,6.095588E-1,-9.86531E-2,8.385668E-1,9.660279E-1,-1.2274505E0,1.2598639E0,-7.458654E-1,7.277109E-2,-6.538203E-2,8.095409E-1,-8.634652E-2,7.092566E-1,-9.486349E-2,-1.1815552E-1,8.5845387E-1,-7.037607E-2,9.295386E-2,-6.0711116E-2,-7.893674E-2,-6.318628E-2,7.538201E-2,5.3596657E-2,-7.444053E-2,4.564603E-2,-8.876521E-2,3.4215134E-2,-6.5663443E-3,5.6240734E-2,1.4217086E-2,4.990565E-2,2.2430046E-2],"categories":[],"categories_nodes":[],"categories_segments":[],"categories_sizes":[],"default_left":[0,1,0,0,1,0,0,0,0,0,1,0,0,0,0,0,0,0,0,0,0,0,0,1,0,0,0,0,0,0,0,0,0,0,0,0,0,0,0,0,0,0,0],"id":21,"left_children":[1,3,5,7,9,11,13,15,17,-1,19,21,23,-1,25,27,29,31,33,-1,-1,35,37,39,-1,-1,41,-1,-1,-1,-1,-1,-1,-1,-1,-1,-1,-1,-1,-1,-1,-1,-1],"loss_changes":[1.5197333E3,2.9689136E2,7.8456714E2,1.9211267E2,1.0508754E2,5.796438E2,1.5445099E2,1.8102551E2,1.5899458E2,0E0,3.6710136E1,6.431943E2,3.873756E2,0E0,9.175366E1,8.538836E1,4.102661E0,4.0095406E1,1.5284315E2,0E0,0E0,2.28932E2,4.7964014E2,2.62114E2,0E0,0E0,7.97572E1,0E0,0E0,0E0,0E0,0E0,0E0,0E0,0E0,0E0,0E0,0E0,0E0,0E0,0E0,0E0,0E0],"parents":[2147483647,0,0,1,1,2,2,3,3,4,4,5,5,6,6,7,7,8,8,10,10,11,11,12,12,14,14,15,15,16,16,17,17,18,18,21,21,22,22,23,23,26,26],"right_children":[2,4,6,8,10,12,14,16,18,-1,20,22,24,-1,26,28,30,32,34,-1,-1,36,38,40,-1,-1,42,-1,-1,-1,-1,-1,-1,-1,-1,-1,-1,-1,-1,-1,-1,-1,-1],"split_conditions":[4.8695984E2,1.0760678E-1,1E0,1E0,-9.2361945E-1,1E0,5.210314E2,-2.7664924E0,3.1008705E1,-7.685099E-2,1.3246968E2,6.5842434E-4,7.5464684E-1,-9.86531E-2,8E0,1E0,1E0,1E0,2E0,7.277109E-2,-6.538203E-2,4.7857141E-1,2.175153E5,1.1E1,-9.486349E-2,-1.1815552E-1,3.529412E-1,-7.037607E-2,9.295386E-2,-6.0711116E-2,-7.893674E-2,-6.318628E-2,7.538201E-2,5.3596657E-2,-7.444053E-2,4.564603E-2,-8.876521E-2,3.4215134E-2,-6.5663443E-3,5.6240734E-2,1.4217086E-2,4.990565E-2,2.2430046E-2],"split_indices":[17,21,27,36,15,52,3,23,2,0,2,8,10,0,31,47,34,43,31,0,0,10,28,14,0,0,12,0,0,0,0,0,0,0,0,0,0,0,0,0,0,0,0],"split_type":[0,0,0,0,0,0,0,0,0,0,0,0,0,0,0,0,0,0,0,0,0,0,0,0,0,0,0,0,0,0,0,0,0,0,0,0,0,0,0,0,0,0,0],"sum_hessian":[1.924886E4,1.5953412E3,1.7653518E4,1.5035116E3,9.182954E1,1.6226445E4,1.4270721E3,1.3324438E3,1.710678E2,1.5041355E1,7.6788185E1,1.4682863E4,1.543582E3,1.8895647E1,1.4081765E3,3.804883E1,1.294395E3,6.0076355E1,1.1099145E2,7.239824E1,4.389941E0,8.4965125E2,1.3833212E4,1.4852307E3,5.8351273E1,7.965474E0,1.4002109E3,1.0244603E1,2.7804226E1,1.2517163E3,4.2678696E1,5.004591E0,5.5071766E1,3.207333E1,7.891811E1,8.175986E2,3.2052643E1,7.620905E2,1.3071121E4,7.500501E2,7.351806E2,1.0432753E3,3.569357E2],"tree_param":{"num_deleted":"0","num_feature":"58","num_nodes":"43","size_leaf_vector":"1"}},{"base_weights":[3.0077416E-2,1.3852511E-1,-1.0564394E0,1.8443337E-1,-7.478442E-1,-1.102509E0,1.4158919E0,2.0763135E-1,-6.958867E-2,-9.191511E-1,7.592463E-1,-6.339026E-1,-1.2200109E0,9.040027E-2,-4.984337E-2,7.684244E-1,1.5670143E-1,-1.0786006E0,3.6787185E-1,1.7977935E0,-8.020615E-2,-6.3238055E-2,-9.98098E-2,-6.408973E-2,-5.992788E-2,-1.0255324E-3,4.761739E-2,9.437309E-3,-3.2926794E-2,3.6662526E-2,-6.0338404E-2,-8.168127E-2,5.83852E-2,-7.4874364E-2,1.1241629E-1,-5.955345E-2,2.4667084E-2],"categories":[],"categories_nodes":[],"categories_segments":[],"categories_sizes":[],"default_left":[0,0,1,0,0,0,0,0,0,0,1,0,1,0,0,0,0,0,0,1,0,0,0,0,0,0,0,0,0,0,0,0,0,0,0,0,0],"id":22,"left_children":[1,3,5,7,9,11,13,15,-1,17,19,21,23,-1,-1,25,27,29,31,33,-1,-1,35,-1,-1,-1,-1,-1,-1,-1,-1,-1,-1,-1,-1,-1,-1],"loss_changes":[2.288543E3,7.187312E2,2.0232654E2,6.142365E2,2.2525983E2,9.453784E1,3.272239E1,4.725094E2,0E0,1.6076837E2,2.2212935E2,1.1750003E2,2.9663086E-1,0E0,0E0,1.9989581E2,3.9646643E2,1.6241486E2,1.4100778E2,9.619647E1,0E0,0E0,1.2365987E2,0E0,0E0,0E0,0E0,0E0,0E0,0E0,0E0,0E0,0E0,0E0,0E0,0E0,0E0],"parents":[2147483647,0,0,1,1,2,2,3,3,4,4,5,5,6,6,7,7,9,9,10,10,11,11,12,12,15,15,16,16,17,17,18,18,19,19,22,22],"right_children":[2,4,6,8,10,12,14,16,-1,18,20,22,24,-1,-1,26,28,30,32,34,-1,-1,36,-1,-1,-1,-1,-1,-1,-1,-1,-1,-1,-1,-1,-1,-1],"split_conditions":[1E0,1E0,2.0975822E-1,1E0,1E0,8.8E1,3.3E1,2.2447276E-1,-6.958867E-2,1E0,4.1E1,5.7E1,-1.8706462E-1,9.040027E-2,-4.984337E-2,1E0,1E0,-7.8571427E-1,6.1E2,4.4E1,-8.020615E-2,-6.3238055E-2,1.000001E1,-6.408973E-2,-5.992788E-2,-1.0255324E-3,4.761739E-2,9.437309E-3,-3.2926794E-2,3.6662526E-2,-6.0338404E-2,-8.168127E-2,5.83852E-2,-7.4874364E-2,1.1241629E-1,-5.955345E-2,2.4667084E-2],"split_indices":[33,36,22,57,50,31,32,18,0,43,32,32,17,0,0,24,46,11,32,31,0,0,15,0,0,0,0,0,0,0,0,0,0,0,0,0,0],"split_type":[0,0,0,0,0,0,0,0,0,0,0,0,0,0,0,0,0,0,0,0,0,0,0,0,0,0,0,0,0,0,0,0,0,0,0,0,0],"sum_hessian":[1.9420129E4,1.765847E4,1.7616593E3,1.6789664E4,8.6880505E2,1.7299769E3,3.168244E1,1.6547E4,2.4266385E2,7.804801E2,8.832495E1,3.481046E2,1.3818723E3,2.7468931E1,4.2135096E0,1.3764727E3,1.5170528E4,6.945893E2,8.589082E1,6.15271E1,2.6797853E1,1.5896759E2,1.8913701E2,3.4101822E2,1.0408541E3,2.603965E2,1.1160762E3,1.4597509E4,5.7301965E2,4.5576202E1,6.4901306E2,2.4225803E1,6.1665024E1,7.1207485E0,5.440635E1,6.6248085E1,1.2288892E2],"tree_param":{"num_deleted":"0","num_feature":"58","num_nodes":"37","size_leaf_vector":"1"}},{"base_weights":[1.3822358E-2,1.1666787E-1,-1.042489E0,1.4982748E-1,-9.1669273E-1,-2.3041372E-1,-1.2092505E0,9.7927086E-2,8.539287E-1,-2.1794868E-1,-9.3140915E-2,1.3617345E0,-8.396527E-1,-6.3501276E-2,-5.9357535E-2,1.22372836E-1,-6.8165794E-2,-9.4767146E-2,9.3048316E-1,-9.8808914E-2,3.022078E-1,1.4472097E0,-4.4748105E-2,-6.255292E-2,1.3694983E0,3.4942438E-3,3.029795E-2,-9.9773794E-2,4.938032E-2,7.523631E-2,-5.596287E-3,-4.4712972E-2,7.571098E-2,-5.0539102E-2,8.9047365E-2],"categories":[],"categories_nodes":[],"categories_segments":[],"categories_sizes":[],"default_left":[0,0,0,1,1,0,1,0,1,0,0,1,0,0,0,0,0,0,1,0,0,0,0,0,0,0,0,0,0,0,0,0,0,0,0],"id":23,"left_children":[1,3,5,7,9,11,13,15,17,19,-1,21,23,-1,-1,25,-1,-1,27,-1,29,31,-1,-1,33,-1,-1,-1,-1,-1,-1,-1,-1,-1,-1],"loss_changes":[2.0810767E3,5.982992E2,2.2989001E2,6.1802966E2,3.584969E2,2.8321506E2,3.8549805E-1,5.629377E2,2.4613489E2,2.8721902E2,0E0,1.6892365E1,1.9342406E2,0E0,0E0,3.9329004E2,0E0,0E0,1.9088849E2,0E0,1.2104294E2,1.3638123E1,0E0,0E0,3.4699535E1,0E0,0E0,0E0,0E0,0E0,0E0,0E0,0E0,0E0,0E0],"parents":[2147483647,0,0,1,1,2,2,3,3,4,4,5,5,6,6,7,7,8,8,9,9,11,11,12,12,15,15,18,18,20,20,21,21,24,24],"right_children":[2,4,6,8,10,12,14,16,18,20,-1,22,24,-1,-1,26,-1,-1,28,-1,30,32,-1,-1,34,-1,-1,-1,-1,-1,-1,-1,-1,-1,-1],"split_conditions":[1E0,1E0,5.8E1,1.4128745E7,3E0,1.887338E-7,-1.8706462E-1,1E0,6E0,1.7849425E6,-9.3140915E-2,1.2826811E-1,5.6E1,-6.3501276E-2,-5.9357535E-2,1E0,-6.8165794E-2,-9.4767146E-2,2.9373732E6,-9.8808914E-2,1.27007225E2,2E1,-4.4748105E-2,-6.255292E-2,1E0,3.4942438E-3,3.029795E-2,-9.9773794E-2,4.938032E-2,7.523631E-2,-5.596287E-3,-4.4712972E-2,7.571098E-2,-5.0539102E-2,8.9047365E-2],"split_indices":[33,46,13,30,13,21,17,57,14,29,0,17,13,0,0,52,0,0,29,0,2,14,0,0,56,0,0,0,0,0,0,0,0,0,0],"split_type":[0,0,0,0,0,0,0,0,0,0,0,0,0,0,0,0,0,0,0,0,0,0,0,0,0,0,0,0,0,0,0,0,0,0,0],"sum_hessian":[1.915414E4,1.7455512E4,1.6986292E3,1.6913625E4,5.418878E2,2.897959E2,1.4088333E3,1.5753545E4,1.160079E3,3.1240045E2,2.294874E2,7.9859856E1,2.0993605E2,3.606262E2,1.0482072E3,1.5495235E4,2.583101E2,3.0784088E1,1.1292949E3,7.068209E1,2.4171835E2,7.729107E1,2.568792E0,1.7734344E2,3.2592613E1,1.3979102E4,1.5161333E3,2.0975174E1,1.1083198E3,6.1245766E1,1.8047258E2,1.8069576E0,7.548411E1,4.5888624E0,2.800375E1],"tree_param":{"num_deleted":"0","num_feature":"58","num_nodes":"35","size_leaf_vector":"1"}},{"base_weights":[4.500082E-2,1.4951462E-1,-1.1601319E0,5.418307E-1,1.9319328E-2,-1.2024517E0,-5.7866436E-1,7.85005E-1,1.288295E-1,6.454672E-2,-7.8114575E-1,-5.890264E-2,-6.328549E-2,1.1026505E0,-5.9884336E-2,8.198764E-1,-9.947657E-2,1.0886834E0,-2.1875657E-2,4.428166E-1,-2.425719E-2,-9.8166656E-1,1.3261403E0,-4.8943218E-2,6.9840804E-2,4.2604275E-2,-1.0906781E-1,6.0731877E-2,-8.87272E-2,4.789397E-2,-8.775367E-3,2.7200988E-2,-5.716605E-2,4.158989E-2,-3.449345E-3,-6.259348E-2,-4.0577838E-4,-7.0094936E-2,8.327043E-2],"categories":[],"categories_nodes":[],"categories_segments":[],"categories_sizes":[],"default_left":[0,0,0,0,0,0,0,0,0,0,1,0,0,0,0,0,0,1,0,0,0,1,0,0,0,0,0,0,0,0,0,0,0,0,0,0,0,0,0],"id":24,"left_children":[1,3,5,7,9,11,13,15,17,19,21,-1,-1,23,-1,25,-1,27,29,31,33,35,37,-1,-1,-1,-1,-1,-1,-1,-1,-1,-1,-1,-1,-1,-1,-1,-1],"loss_changes":[2.4589082E3,9.175544E2,3.76416E1,4.4944067E2,4.883913E2,7.487793E-1,1.1333273E2,2.741914E2,2.4015314E2,4.289288E2,3.0615952E2,0E0,0E0,1.9419655E1,0E0,2.708673E2,0E0,8.340198E1,2.1627591E2,3.9032275E2,3.9605664E2,1.7343646E2,6.074714E1,0E0,0E0,0E0,0E0,0E0,0E0,0E0,0E0,0E0,0E0,0E0,0E0,0E0,0E0,0E0,0E0],"parents":[2147483647,0,0,1,1,2,2,3,3,4,4,5,5,6,6,7,7,8,8,9,9,10,10,13,13,15,15,17,17,18,18,19,19,20,20,21,21,22,22],"right_children":[2,4,6,8,10,12,14,16,18,20,22,-1,-1,24,-1,26,-1,28,30,32,34,36,38,-1,-1,-1,-1,-1,-1,-1,-1,-1,-1,-1,-1,-1,-1,-1,-1],"split_conditions":[1E0,-2.3809524E-1,1E0,4.2857143E-1,1E0,1.000001E1,3.795226E1,1E0,-9.325843E-1,-2.1621622E-1,2.5984615E-1,-5.890264E-2,-6.328549E-2,3.7165073E1,-5.9884336E-2,1E0,-9.947657E-2,5.4545455E-2,9.174361E-1,6.394756E0,1.7640788E5,6.25E-2,1.45E2,-4.8943218E-2,6.9840804E-2,4.2604275E-2,-1.0906781E-1,6.0731877E-2,-8.87272E-2,4.789397E-2,-8.775367E-3,2.7200988E-2,-5.716605E-2,4.158989E-2,-3.449345E-3,-6.259348E-2,-4.0577838E-4,-7.0094936E-2,8.327043E-2],"split_indices":[33,10,46,11,36,15,3,46,10,12,4,0,0,3,0,44,0,12,19,5,29,11,13,0,0,0,0,0,0,0,0,0,0,0,0,0,0,0,0],"split_type":[0,0,0,0,0,0,0,0,0,0,0,0,0,0,0,0,0,0,0,0,0,0,0,0,0,0,0,0,0,0,0,0,0,0,0,0,0,0,0],"sum_hessian":[1.952005E4,1.7963098E4,1.5569535E3,4.4751157E3,1.3487981E4,1.4503293E3,1.0662414E2,2.8161008E3,1.6590148E3,1.2767519E4,7.2046326E2,1.0607994E3,3.895299E2,2.8482384E1,7.8141754E1,2.781842E3,3.4258755E1,2.2428712E2,1.4347277E3,2.4267078E3,1.0340811E4,6.583514E2,6.2111897E1,3.238582E0,2.5243801E1,2.753013E3,2.8829102E1,2.1538794E2,8.899196E0,1.9376917E2,1.2409585E3,2.2817766E3,1.4493123E2,5.1261346E2,9.828197E3,5.151021E2,1.4324927E2,6.523628E0,5.558827E1],"tree_param":{"num_deleted":"0","num_feature":"58","num_nodes":"39","size_leaf_vector":"1"}},{"base_weights":[-8.847146E-3,8.0750585E-2,-9.7027093E-1,3.452614E-1,-7.550649E-2,-2.603374E-1,-5.9167624E-2,5.619227E-1,-4.4273835E-2,2.4880727E-1,-2.0587662E-1,1.2321705E0,-7.000385E-1,5.8722985E-1,-1.07806556E-1,1.1568213E-1,-8.874063E-1,-9.5145755E-2,2.8257707E-1,-1.0576725E0,-1.122539E-1,1.4353455E0,-5.3926248E-2,-9.5916194E-1,1.0462983E0,3.0969862E-2,-6.4645834E-2,1.049964E-2,-1.0270827E-1,8.068683E-2,-5.4938074E-2,4.605874E-2,8.524462E-3,-6.347958E-2,3.9456047E-2,-1.0029418E-2,3.1053979E-2,-4.512023E-2,7.490756E-2,-6.0928315E-2,4.378847E-2,-5.7270885E-2,7.532289E-2],"categories":[],"categories_nodes":[],"categories_segments":[],"categories_sizes":[],"default_left":[0,0,0,0,0,0,0,0,0,0,0,1,0,0,0,1,0,0,0,1,1,0,0,0,1,0,0,0,0,0,0,0,0,0,0,0,0,0,0,0,0,0,0],"id":25,"left_children":[1,3,5,7,9,11,-1,13,15,17,19,21,23,25,-1,27,29,-1,31,33,35,37,-1,39,41,-1,-1,-1,-1,-1,-1,-1,-1,-1,-1,-1,-1,-1,-1,-1,-1,-1,-1],"loss_changes":[1.6144889E3,7.0864355E2,2.413894E2,5.3738605E2,4.5577957E2,2.4376198E2,0E0,2.8270203E2,3.0713147E2,2.2513771E2,6.130304E2,4.1261063E1,1.306669E2,2.4601538E2,0E0,3.9220062E2,1.9374316E2,0E0,2.1773523E2,2.9894073E2,4.4893466E2,1.2830994E1,0E0,1.2008188E2,3.9547325E1,0E0,0E0,0E0,0E0,0E0,0E0,0E0,0E0,0E0,0E0,0E0,0E0,0E0,0E0,0E0,0E0,0E0,0E0],"parents":[2147483647,0,0,1,1,2,2,3,3,4,4,5,5,7,7,8,8,9,9,10,10,11,11,12,12,13,13,15,15,16,16,18,18,19,19,20,20,21,21,23,23,24,24],"right_children":[2,4,6,8,10,12,-1,14,16,18,20,22,24,26,-1,28,30,-1,32,34,36,38,-1,40,42,-1,-1,-1,-1,-1,-1,-1,-1,-1,-1,-1,-1,-1,-1,-1,-1,-1,-1],"split_conditions":[1E0,-8.2666665E-2,8.8E1,1.904762E-1,2.9922912E6,1.887338E-7,-5.9167624E-2,1E0,-1.8410042E-1,4.2123348E4,4.413953E6,-1.0902256E-1,1E0,1E0,-1.07806556E-1,1.8847495E-3,1.1063598E4,-9.5145755E-2,1.7683947E5,1.375E0,1.1498191E-2,2.1518697E2,-5.3926248E-2,8.5E1,7.364551E-2,3.0969862E-2,-6.4645834E-2,1.049964E-2,-1.0270827E-1,8.068683E-2,-5.4938074E-2,4.605874E-2,8.524462E-3,-6.347958E-2,3.9456047E-2,-1.0029418E-2,3.1053979E-2,-4.512023E-2,7.490756E-2,-6.0928315E-2,4.378847E-2,-5.7270885E-2,7.532289E-2],"split_indices":[33,10,31,12,28,21,0,44,10,28,30,12,56,57,0,4,30,0,28,11,4,3,0,31,12,0,0,0,0,0,0,0,0,0,0,0,0,0,0,0,0,0,0],"split_type":[0,0,0,0,0,0,0,0,0,0,0,0,0,0,0,0,0,0,0,0,0,0,0,0,0,0,0,0,0,0,0,0,0,0,0,0,0,0,0,0,0,0,0],"sum_hessian":[1.8740404E4,1.7143654E4,1.5967483E3,6.3660474E3,1.0777607E4,3.691283E2,1.22762E3,4.0904675E3,2.27558E3,3.08997E3,7.6876377E3,8.359016E1,2.8553815E2,4.0535103E3,3.695723E1,1.9134333E3,3.621467E2,4.6890392E1,3.0430796E3,7.602701E2,6.927367E3,7.718247E1,6.4076815E0,2.4903658E2,3.6501575E1,3.9859846E3,6.7525604E1,1.8345972E3,7.8836075E1,2.7701107E1,3.344456E2,4.5329657E2,2.5897832E3,6.8229004E2,7.7980064E1,6.1832803E3,7.4408716E2,1.6695726E0,7.55129E1,2.1848521E2,3.0551365E1,6.0754313E0,3.0426142E1],"tree_param":{"num_deleted":"0","num_feature":"58","num_nodes":"43","size_leaf_vector":"1"}},{"base_weights":[3.6382936E-2,9.605864E-2,-1.148836E0,2.378645E-1,-1.742948E-1,-1.1991224E0,4.4599918E-1,2.6193208E-1,-6.517702E-2,4.2903957E-1,-2.963449E-1,-1.1658419E0,-7.56262E-2,6.2079925E-2,-7.4074455E-2,7.202815E-1,2.0128796E-1,6.5059686E-1,-4.6199548E-1,-8.4155284E-2,-2.3488688E-1,-5.779819E-2,-6.9599934E-2,5.4643463E-2,2.310326E-2,1.0993033E-2,-9.2624865E-2,-8.83526E-2,3.5627455E-2,-5.9674133E-2,5.957472E-2,-1.3111852E-4,-2.7187526E-2],"categories":[],"categories_nodes":[],"categories_segments":[],"categories_sizes":[],"default_left":[1,0,1,0,0,0,0,0,0,0,0,0,0,0,0,1,1,0,0,0,1,0,0,0,0,0,0,0,0,0,0,0,0],"id":26,"left_children":[1,3,5,7,9,11,13,15,-1,17,19,21,-1,-1,-1,23,25,27,29,-1,31,-1,-1,-1,-1,-1,-1,-1,-1,-1,-1,-1,-1],"loss_changes":[1.3426892E3,6.929214E2,7.351611E1,4.4014954E2,4.5805542E2,7.440918E0,4.5613575E1,3.2434534E2,0E0,2.06944E2,4.404851E2,1.8261719E-1,0E0,0E0,0E0,1.3069446E2,3.937212E2,1.268808E2,2.542444E2,0E0,3.554331E2,0E0,0E0,0E0,0E0,0E0,0E0,0E0,0E0,0E0,0E0,0E0,0E0],"parents":[2147483647,0,0,1,1,2,2,3,3,4,4,5,5,6,6,7,7,9,9,10,10,11,11,15,15,16,16,17,17,18,18,20,20],"right_children":[2,4,6,8,10,12,14,16,-1,18,20,22,-1,-1,-1,24,26,28,30,-1,32,-1,-1,-1,-1,-1,-1,-1,-1,-1,-1,-1,-1],"split_conditions":[3.4802777E-1,1.9366142E1,1.639672E1,1E0,1.9560741E-2,2.1525E2,9.135971E-5,4.4454016E-2,-6.517702E-2,1E0,8E0,1E0,-7.56262E-2,6.2079925E-2,-7.4074455E-2,-2.2222222E-1,7.64E2,4.135925E-1,7.32192E-7,-8.4155284E-2,-3.8235295E-1,-5.779819E-2,-6.9599934E-2,5.4643463E-2,2.310326E-2,1.0993033E-2,-9.2624865E-2,-8.83526E-2,3.5627455E-2,-5.9674133E-2,5.957472E-2,-1.3111852E-4,-2.7187526E-2],"split_indices":[6,5,4,57,21,18,5,18,0,37,14,36,0,0,0,10,13,19,21,0,10,0,0,0,0,0,0,0,0,0,0,0,0],"split_type":[0,0,0,0,0,0,0,0,0,0,0,0,0,0,0,0,0,0,0,0,0,0,0,0,0,0,0,0,0,0,0,0,0],"sum_hessian":[1.8981076E4,1.8072068E4,9.090085E2,1.1854344E4,6.2177236E3,8.814634E2,2.7545109E1,1.1672912E4,1.814314E2,1.0457445E3,5.1719795E3,8.0111224E2,8.035116E1,1.9749186E1,7.7959223E0,1.3627028E3,1.031021E4,8.3771515E2,2.0802936E2,2.1836336E2,4.9536157E3,7.734412E2,2.7671036E1,5.5649194E2,8.062108E2,1.0218693E4,9.15162E1,2.0242458E1,8.1747266E2,1.4441835E2,6.3611008E1,2.8279868E3,2.1256292E3],"tree_param":{"num_deleted":"0","num_feature":"58","num_nodes":"33","size_leaf_vector":"1"}},{"base_weights":[-1.2841831E-2,7.450956E-2,-1.0256908E0,2.3480466E-1,-1.6022204E-1,-1.1306773E0,1.5625323E-1,3.60756E-1,-1.4570363E-1,4.962186E-1,-3.1538302E-1,-4.830121E-1,-1.1736284E0,1.4688468E0,-5.8051307E-2,3.8519913E-1,-6.3994914E-2,9.72652E-2,-1.3648844E0,5.9735125E-1,-8.552515E-2,-8.988883E-2,-2.6807964E-1,6.593213E-2,-5.795778E-2,-6.1351456E-2,-5.7451334E-2,-5.1231354E-2,1.6040521E0,2.681003E-2,7.5292923E-3,-4.199362E-3,7.333932E-2,-8.95023E-2,-2.3008592E-3,3.305116E-2,-8.93073E-2,-1.6584786E-2,2.3995157E-2,-3.5356067E-2,8.3253406E-2],"categories":[],"categories_nodes":[],"categories_segments":[],"categories_sizes":[],"default_left":[0,0,0,1,0,0,0,0,1,0,0,0,1,0,0,0,0,0,0,0,0,0,1,0,0,0,0,0,0,0,0,0,0,0,0,0,0,0,0,0,0],"id":27,"left_children":[1,3,5,7,9,11,13,15,17,19,21,23,25,27,-1,29,-1,31,33,35,-1,-1,37,-1,-1,-1,-1,-1,39,-1,-1,-1,-1,-1,-1,-1,-1,-1,-1,-1,-1],"loss_changes":[1.6279885E3,6.374272E2,1.8146289E2,4.82492E2,7.0035724E2,3.6761597E1,2.0929749E2,3.0380212E2,7.419143E2,2.9441602E2,3.8946057E2,1.052619E2,2.4243164E-1,2.2066605E1,0E0,2.639579E2,0E0,5.18661E2,2.3328528E2,1.92065E2,0E0,0E0,2.5664072E2,0E0,0E0,0E0,0E0,0E0,9.33577E0,0E0,0E0,0E0,0E0,0E0,0E0,0E0,0E0,0E0,0E0,0E0,0E0],"parents":[2147483647,0,0,1,1,2,2,3,3,4,4,5,5,6,6,7,7,8,8,9,9,10,10,11,11,12,12,13,13,15,15,17,17,18,18,19,19,22,22,28,28],"right_children":[2,4,6,8,10,12,14,16,18,20,22,24,26,28,-1,30,-1,32,34,36,-1,-1,38,-1,-1,-1,-1,-1,40,-1,-1,-1,-1,-1,-1,-1,-1,-1,-1,-1,-1],"split_conditions":[1E0,9.135971E-5,1E0,2.293578E-2,3.1412357E2,1.887338E-7,5.8E1,1E0,3.1E1,1.8695693E0,4.8722305E2,-5.833333E-1,-7.3955735E6,3.5E1,-5.8051307E-2,4.595186E-2,-6.3994914E-2,1.1498191E-2,1.87E2,1E0,-8.552515E-2,-8.988883E-2,1.2340345E2,6.593213E-2,-5.795778E-2,-6.1351456E-2,-5.7451334E-2,-5.1231354E-2,-2.2041013E-2,2.681003E-2,7.5292923E-3,-4.199362E-3,7.333932E-2,-8.95023E-2,-2.3008592E-3,3.305116E-2,-8.93073E-2,-1.6584786E-2,2.3995157E-2,-3.5356067E-2,8.3253406E-2],"split_indices":[33,5,56,10,2,21,14,57,13,19,3,10,28,13,0,11,0,4,13,42,0,0,16,0,0,0,0,0,11,0,0,0,0,0,0,0,0,0,0,0,0],"split_type":[0,0,0,0,0,0,0,0,0,0,0,0,0,0,0,0,0,0,0,0,0,0,0,0,0,0,0,0,0,0,0,0,0,0,0,0,0,0,0,0,0],"sum_hessian":[1.8398941E4,1.6938992E4,1.4599474E3,1.0065438E4,6.8735547E3,1.3408862E3,1.19061195E2,7.5623057E3,2.5031328E3,1.3136572E3,5.5598975E3,8.41546E1,1.2567317E3,5.9579033E1,5.9482162E1,7.4520474E3,1.10258385E2,2.0879487E3,4.151842E2,1.2567887E3,5.686854E1,1.707864E2,5.389111E3,2.270487E1,6.144973E1,3.809553E2,8.7577637E2,2.7260754E0,5.685296E1,4.5331455E3,2.9189016E3,1.844741E3,2.4320781E2,3.136999E2,1.01484314E2,1.2247927E3,3.1996012E1,4.9672056E3,4.2190515E2,1.1899723E0,5.5662987E1],"tree_param":{"num_deleted":"0","num_feature":"58","num_nodes":"41","size_leaf_vector":"1"}},{"base_weights":[-5.8511272E-2,-4.0219794E-3,-9.066895E-1,-3.3786556E-1,1.2915517E-1,1.8258409E-1,-1.1667544E0,3.6320955E-1,-6.1804205E-1,4.7394937E-1,2.1519393E-2,-1.3076268E0,1.0242497E0,-5.764419E-2,-8.934504E-2,9.414431E-1,-3.4975663E-2,-3.574225E-1,-1.0212982E0,-1.050983E-1,5.2281386E-1,1.4470634E-1,-4.0102103E-1,-6.077165E-2,-8.850797E-2,-7.153459E-2,1.4030491E0,-8.693138E-2,5.1971417E-2,2.417552E-2,-7.423153E-2,-2.6285758E-2,2.9152064E-2,-7.763187E-2,-4.2247705E-2,2.7974313E-2,-1.1204902E-1,-1.18465714E-1,8.216075E-3,-1.2144602E-2,-9.233099E-2,7.749721E-2,-5.5997025E-2],"categories":[],"categories_nodes":[],"categories_segments":[],"categories_sizes":[],"default_left":[1,1,0,0,0,0,0,0,1,0,1,0,0,0,0,0,0,1,0,0,0,0,1,0,0,0,1,0,0,0,0,0,0,0,0,0,0,0,0,0,0,0,0],"id":28,"left_children":[1,3,5,7,9,11,13,15,17,19,21,23,25,-1,-1,27,29,31,33,-1,35,37,39,-1,-1,-1,41,-1,-1,-1,-1,-1,-1,-1,-1,-1,-1,-1,-1,-1,-1,-1,-1],"loss_changes":[8.283188E2,7.48832E2,3.0669244E2,9.4363574E2,4.4681323E2,2.6395944E2,5.4536133E0,3.1592883E2,3.6031653E2,3.6162952E2,4.7770865E2,1.08992E0,1.26961136E2,0E0,0E0,1.4874704E2,6.1213763E2,3.3049185E2,1.24875244E2,0E0,2.862409E2,3.5079846E2,4.731183E2,0E0,0E0,0E0,4.50652E1,0E0,0E0,0E0,0E0,0E0,0E0,0E0,0E0,0E0,0E0,0E0,0E0,0E0,0E0,0E0,0E0],"parents":[2147483647,0,0,1,1,2,2,3,3,4,4,5,5,6,6,7,7,8,8,9,9,10,10,11,11,12,12,15,15,16,16,17,17,18,18,20,20,21,21,22,22,26,26],"right_children":[2,4,6,8,10,12,14,16,18,20,22,24,26,-1,-1,28,30,32,34,-1,36,38,40,-1,-1,-1,42,-1,-1,-1,-1,-1,-1,-1,-1,-1,-1,-1,-1,-1,-1,-1,-1],"split_conditions":[4.4454016E-2,0E0,4.5E1,3.7267706E-1,-2.1621622E-1,1.6661431E0,1.1884491E0,5.764153E-1,-4.117647E-1,2E0,5.0931677E-2,1E0,2.0594966E-2,-5.764419E-2,-8.934504E-2,2.860587E-1,3.1589847E2,1.8800814E6,4E1,-1.050983E-1,1E0,-1.8181819E-1,5.2E-1,-6.077165E-2,-8.850797E-2,-7.153459E-2,-1.9545439E-1,-8.693138E-2,5.1971417E-2,2.417552E-2,-7.423153E-2,-2.6285758E-2,2.9152064E-2,-7.763187E-2,-4.2247705E-2,2.7974313E-2,-1.1204902E-1,-1.18465714E-1,8.216075E-3,-1.2144602E-2,-9.233099E-2,7.749721E-2,-5.5997025E-2],"split_indices":[18,4,13,21,12,8,15,19,10,14,11,15,10,0,0,19,3,28,14,0,45,12,12,0,0,0,15,0,0,0,0,0,0,0,0,0,0,0,0,0,0,0,0],"split_type":[0,0,0,0,0,0,0,0,0,0,0,0,0,0,0,0,0,0,0,0,0,0,0,0,0,0,0,0,0,0,0,0,0,0,0,0,0,0,0,0,0,0,0],"sum_hessian":[1.7921604E4,1.6840715E4,1.0808888E3,4.8019146E3,1.20388E4,2.0838263E2,8.725062E2,1.3710046E3,3.4309102E3,2.8632925E3,9.175508E3,7.501363E1,1.33369E2,8.562146E2,1.6291595E1,5.5854156E2,8.12463E2,2.0851738E3,1.3457362E3,5.252258E1,2.81077E3,7.104831E3,2.0706765E3,6.557144E1,9.442185E0,1.745686E1,1.1591215E2,1.910985E1,5.3943176E2,5.9891907E2,2.1354395E2,1.7690497E3,3.161242E2,3.3339255E2,1.0123437E3,2.7747498E3,3.6020233E1,5.4077488E1,7.0507534E3,1.8675588E3,2.0311769E2,1.098992E2,6.0129447E0],"tree_param":{"num_deleted":"0","num_feature":"58","num_nodes":"43","size_leaf_vector":"1"}},{"base_weights":[6.523737E-3,8.4416576E-2,-9.536596E-1,3.506047E-2,6.97339E-1,-1.0575334E0,1.983328E-1,5.4599773E-2,-6.538161E-2,7.1964604E-1,-9.6058525E-2,-1.1030793E0,1.0414019E0,1.4450814E0,-5.6968577E-2,2.1794295E-1,-8.4640324E-2,-1.1091441E-1,7.352537E-1,-5.7814647E-2,-4.634248E-1,6.793704E-2,-4.608887E-2,-4.8320957E-2,1.56851E0,5.380919E-3,3.543563E-2,4.1586827E-3,-3.1243488E-2,3.782394E-2,-7.185329E-2,5.896638E-2,-5.775122E-2,8.2841866E-2,-4.2457085E-2],"categories":[],"categories_nodes":[],"categories_segments":[],"categories_sizes":[],"default_left":[0,0,0,0,1,1,0,1,0,0,0,0,0,0,0,0,1,0,0,0,0,0,0,0,0,0,0,0,0,0,0,0,0,0,0],"id":29,"left_children":[1,3,5,7,9,11,13,15,-1,17,-1,19,21,23,-1,25,27,-1,29,-1,31,-1,-1,-1,33,-1,-1,-1,-1,-1,-1,-1,-1,-1,-1],"loss_changes":[1.3725764E3,5.134919E2,1.6499133E2,4.1225195E2,7.527258E1,1.219198E2,1.930077E2,3.5224295E2,0E0,5.917993E1,0E0,4.1568726E1,1.828863E1,1.932412E1,0E0,3.8579337E2,7.580257E2,0E0,5.8683044E1,0E0,1.1119251E2,0E0,0E0,0E0,1.3642548E1,0E0,0E0,0E0,0E0,0E0,0E0,0E0,0E0,0E0,0E0],"parents":[2147483647,0,0,1,1,2,2,3,3,4,4,5,5,6,6,7,7,9,9,11,11,12,12,13,13,15,15,16,16,18,18,20,20,24,24],"right_children":[2,4,6,8,10,12,14,16,-1,18,-1,20,22,24,-1,26,28,-1,30,-1,32,-1,-1,-1,34,-1,-1,-1,-1,-1,-1,-1,-1,-1,-1],"split_conditions":[1E0,1E0,1E0,1E0,7.2190815E-1,5.849384E-1,5.8E1,-2.3809524E-1,-6.538161E-2,1E1,-9.6058525E-2,1E0,-2.316936E0,-1.724138E-2,-5.6968577E-2,1E0,1.7683947E5,-1.1091441E-1,1E0,-5.7814647E-2,3.795226E1,6.793704E-2,-4.608887E-2,-4.8320957E-2,1.3043478E-1,5.380919E-3,3.543563E-2,4.1586827E-3,-3.1243488E-2,3.782394E-2,-7.185329E-2,5.896638E-2,-5.775122E-2,8.2841866E-2,-4.2457085E-2],"split_indices":[33,27,56,57,19,4,14,10,0,14,0,46,0,11,0,24,28,0,36,0,3,0,0,0,11,0,0,0,0,0,0,0,0,0,0],"split_type":[0,0,0,0,0,0,0,0,0,0,0,0,0,0,0,0,0,0,0,0,0,0,0,0,0,0,0,0,0,0,0,0,0,0,0],"sum_hessian":[1.8349984E4,1.6973924E4,1.3760615E3,1.5709926E4,1.263998E3,1.2623215E3,1.1374001E2,1.5485534E4,2.2439127E2,1.2540402E3,9.95798E0,1.2359758E3,2.6345673E1,5.882991E1,5.4910103E1,7.125736E3,8.359798E3,5.8810463E0,1.248159E3,1.1403049E3,9.567087E1,2.294466E1,3.4010124E0,2.5319488E0,5.6297962E1,5.818877E3,1.3068589E3,6.3790806E3,1.9807173E3,1.236727E3,1.1431964E1,2.813552E1,6.753535E1,5.4617252E1,1.680711E0],"tree_param":{"num_deleted":"0","num_feature":"58","num_nodes":"35","size_leaf_vector":"1"}},{"base_weights":[4.351241E-2,1.16981834E-1,-9.055403E-1,1.3575189E-1,-6.445578E-2,-1.7890143E-1,-5.7129603E-2,7.944162E-1,9.407132E-2,1.1690013E0,-6.051684E-1,-2.2787413E-1,9.221889E-1,1.9463722E-1,-9.593456E-2,1.3581284E0,-5.104491E-2,-5.8785636E-2,1.7574346E-1,-8.8951774E-2,6.187458E-2,-1.1900886E-1,4.717244E-2,7.0452266E-3,2.9496262E-2,-8.451824E-2,-3.3380077E-3,-4.2404145E-2,7.008177E-2,-5.8097195E-2,4.4843543E-2],"categories":[],"categories_nodes":[],"categories_segments":[],"categories_sizes":[],"default_left":[0,0,0,0,0,0,0,0,0,1,1,0,0,1,0,1,0,0,0,0,0,0,0,0,0,0,0,0,0,0,0],"id":30,"left_children":[1,3,5,7,-1,9,-1,11,13,15,17,19,21,23,25,27,-1,-1,29,-1,-1,-1,-1,-1,-1,-1,-1,-1,-1,-1,-1],"loss_changes":[1.297933E3,4.5614954E2,2.3017969E2,4.6800677E2,0E0,1.9042123E2,0E0,1.3273584E2,3.0644385E2,3.4384407E1,1.1226717E2,2.6024084E2,6.557739E1,2.226506E2,2.5809167E2,8.269333E0,0E0,0E0,1.04308525E2,0E0,0E0,0E0,0E0,0E0,0E0,0E0,0E0,0E0,0E0,0E0,0E0],"parents":[2147483647,0,0,1,1,2,2,3,3,5,5,7,7,8,8,9,9,10,10,11,11,12,12,13,13,14,14,15,15,18,18],"right_children":[2,4,6,8,-1,10,-1,12,14,16,18,20,22,24,26,28,-1,-1,30,-1,-1,-1,-1,-1,-1,-1,-1,-1,-1,-1,-1],"split_conditions":[1E0,1E0,8.8E1,5.475373E-2,-6.445578E-2,1.887338E-7,-5.7129603E-2,1E0,1.9366142E1,3.4E1,5.7E1,2.289555E7,1E0,2.845898E-2,3E0,9.6184044E1,-5.104491E-2,-5.8785636E-2,-1.0857764E-2,-8.8951774E-2,6.187458E-2,-1.1900886E-1,4.717244E-2,7.0452266E-3,2.9496262E-2,-8.451824E-2,-3.3380077E-3,-4.2404145E-2,7.008177E-2,-5.8097195E-2,4.4843543E-2],"split_indices":[33,57,13,8,0,21,0,25,5,14,14,29,35,4,14,2,0,0,11,0,0,0,0,0,0,0,0,0,0,0,0],"split_type":[0,0,0,0,0,0,0,0,0,0,0,0,0,0,0,0,0,0,0,0,0,0,0,0,0,0,0,0,0,0,0],"sum_hessian":[1.8612148E4,1.7275656E4,1.3364911E3,1.7048973E4,2.2668405E2,3.29186E2,1.00730505E3,1.01358374E3,1.6035389E4,7.86725E1,2.505135E2,1.1252273E2,9.0106104E2,1.0485579E4,5.549809E3,7.276785E1,5.9046535E0,1.4446207E2,1.0605143E2,5.4557205E1,5.7965527E1,5.0539775E0,8.960071E2,9.232002E3,1.2535774E3,9.870089E1,5.4511084E3,1.0496117E0,7.171824E1,3.693182E1,6.9119606E1],"tree_param":{"num_deleted":"0","num_feature":"58","num_nodes":"31","size_leaf_vector":"1"}},{"base_weights":[3.1028537E-2,1.004368E-1,-8.9607185E-1,1.3366294E-1,-9.37067E-1,-1.6385671E-1,-5.6733467E-2,1.5243533E-1,-6.3481815E-2,-1.3941882E0,8.7579954E-1,1.1142231E0,-5.8151585E-1,7.9980874E-1,1.1079652E-1,-6.505529E-2,-1.9156573E0,-8.8635266E-2,1.54018E0,1.3056307E0,-5.1803585E-2,-5.830499E-2,2.8869468E-1,4.4474404E-2,-3.238498E-2,2.1152612E-2,1.5378128E-3,5.830849E-2,-1.0552394E-1,-1.0774698E-1,-8.784397E-2,8.627894E-2,-7.880559E-2,-4.255174E-2,6.823477E-2,5.8315158E-2,-5.7411637E-2],"categories":[],"categories_nodes":[],"categories_segments":[],"categories_sizes":[],"default_left":[0,0,0,0,1,0,0,0,0,0,0,1,1,0,0,0,0,0,0,0,0,0,0,0,0,0,0,0,0,0,0,0,0,0,0,0,0],"id":31,"left_children":[1,3,5,7,9,11,-1,13,-1,15,17,19,21,23,25,27,29,-1,31,33,-1,-1,35,-1,-1,-1,-1,-1,-1,-1,-1,-1,-1,-1,-1,-1,-1],"loss_changes":[1.1877646E3,5.920924E2,2.2442358E2,4.3855276E2,4.4292062E2,1.6994038E2,0E0,4.4256708E2,0E0,2.9517468E2,1.9267764E2,3.364361E1,1.222693E2,1.2937958E2,3.8563623E2,3.0741226E2,7.838379E0,0E0,5.2889175E1,1.0394745E1,0E0,0E0,1.2380898E2,0E0,0E0,0E0,0E0,0E0,0E0,0E0,0E0,0E0,0E0,0E0,0E0,0E0,0E0],"parents":[2147483647,0,0,1,1,2,2,3,3,4,4,5,5,7,7,9,9,10,10,11,11,12,12,13,13,14,14,15,15,16,16,18,18,19,19,22,22],"right_children":[2,4,6,8,10,12,-1,14,-1,16,18,20,22,24,26,28,30,-1,32,34,-1,-1,36,-1,-1,-1,-1,-1,-1,-1,-1,-1,-1,-1,-1,-1,-1],"split_conditions":[1E0,1E0,8.8E1,1E0,2.0810659E-1,1.887338E-7,-5.6733467E-2,5.475373E-2,-6.3481815E-2,-1.9689119E-1,1.5555556E0,-1.0902256E-1,7.364551E-2,1E0,-2E-1,5.3296956E5,2.0516625E6,-8.8635266E-2,1.6813488E6,2.1518697E2,-5.1803585E-2,-5.830499E-2,1.2E-1,4.4474404E-2,-3.238498E-2,2.1152612E-2,1.5378128E-3,5.830849E-2,-1.0552394E-1,-1.0774698E-1,-8.784397E-2,8.627894E-2,-7.880559E-2,-4.255174E-2,6.823477E-2,5.8315158E-2,-5.7411637E-2],"split_indices":[33,42,13,57,4,21,0,8,0,11,10,12,12,56,12,28,30,0,30,3,0,0,12,0,0,0,0,0,0,0,0,0,0,0,0,0,0],"split_type":[0,0,0,0,0,0,0,0,0,0,0,0,0,0,0,0,0,0,0,0,0,0,0,0,0,0,0,0,0,0,0,0,0,0,0,0,0],"sum_hessian":[1.8455934E4,1.717128E4,1.2846527E3,1.6639277E4,5.3200305E2,3.161448E2,9.6850793E2,1.6420506E4,2.1877095E2,4.250548E2,1.0694826E2,7.745544E1,2.3868936E2,9.9123364E2,1.5429272E4,1.20090355E2,3.0496445E2,2.1113321E1,8.583494E1,7.148504E1,5.970393E0,1.4257278E2,9.611657E1,9.337682E2,5.746544E1,3.147165E3,1.2282107E4,7.523385E1,4.4856506E1,1.166292E2,1.8833525E2,8.143629E1,4.398649E0,1.5481472E0,6.99369E1,5.9788727E1,3.6327843E1],"tree_param":{"num_deleted":"0","num_feature":"58","num_nodes":"37","size_leaf_vector":"1"}},{"base_weights":[2.6030375E-2,9.438833E-2,-9.2701834E-1,4.6089426E-1,-4.8498735E-3,-2.658346E-1,-5.636815E-2,-1.2782791E-1,6.691519E-1,2.7150458E-1,-1.06700405E-1,-6.532074E-1,1.1637075E0,1.4113416E-1,-1.8509014E0,7.087291E-1,-9.2027776E-2,2.9420492E-1,-1.1826383E-1,4.026574E-1,-1.9146037E-1,5.5795276E-1,-5.7136584E-2,1.363623E0,-5.4078996E-2,-1.5029772E-2,4.3490335E-2,-1.0981297E-1,-8.118206E-2,3.658487E-2,-9.683734E-2,6.810039E-3,3.0889371E-2,3.132913E-2,-4.925243E-2,-1.2786425E-2,3.8886838E-2,5.92433E-2,-6.2207337E-2,7.248614E-2,-4.4425752E-2],"categories":[],"categories_nodes":[],"categories_segments":[],"categories_sizes":[],"default_left":[0,0,0,1,0,0,0,1,0,1,0,0,0,0,0,0,0,1,0,1,1,0,0,0,0,0,0,0,0,0,0,0,0,0,0,0,0,0,0,0,0],"id":32,"left_children":[1,3,5,7,9,11,-1,13,15,17,19,21,23,25,27,29,-1,31,-1,33,35,37,-1,39,-1,-1,-1,-1,-1,-1,-1,-1,-1,-1,-1,-1,-1,-1,-1,-1,-1],"loss_changes":[1.1893174E3,6.1953046E2,1.6153992E2,4.4507037E2,3.7733752E2,1.5881747E2,0E0,4.4017416E2,2.6761658E2,2.1679007E2,4.2299075E2,1.341629E2,2.8951271E1,2.648425E2,6.4987183E0,1.6184485E2,0E0,1.8296823E2,0E0,4.3498413E2,5.233548E2,7.546924E1,0E0,1.2273079E1,0E0,0E0,0E0,0E0,0E0,0E0,0E0,0E0,0E0,0E0,0E0,0E0,0E0,0E0,0E0,0E0,0E0],"parents":[2147483647,0,0,1,1,2,2,3,3,4,4,5,5,7,7,8,8,9,9,10,10,11,11,12,12,13,13,14,14,15,15,17,17,19,19,20,20,21,21,23,23],"right_children":[2,4,6,8,10,12,-1,14,16,18,20,22,24,26,28,30,-1,32,-1,34,36,38,-1,40,-1,-1,-1,-1,-1,-1,-1,-1,-1,-1,-1,-1,-1,-1,-1,-1,-1],"split_conditions":[1E0,-2.8E-1,8.8E1,5E0,3.0685225E6,1E0,-5.636815E-2,2.175153E5,1E0,2.47E2,-4E-1,-2.3809524E-1,1E0,-4.9056605E-1,1.0553503E-1,1E0,-9.2027776E-2,1.0875595E6,-1.1826383E-1,3E1,2.1181134E7,-1.9989815E-2,-5.7136584E-2,7.692308E-2,-5.4078996E-2,-1.5029772E-2,4.3490335E-2,-1.0981297E-1,-8.118206E-2,3.658487E-2,-9.683734E-2,6.810039E-3,3.0889371E-2,3.132913E-2,-4.925243E-2,-1.2786425E-2,3.8886838E-2,5.92433E-2,-6.2207337E-2,7.248614E-2,-4.4425752E-2],"split_indices":[33,10,31,14,28,56,0,28,36,14,12,10,25,10,5,46,0,29,0,31,29,0,0,12,0,0,0,0,0,0,0,0,0,0,0,0,0,0,0,0,0],"split_type":[0,0,0,0,0,0,0,0,0,0,0,0,0,0,0,0,0,0,0,0,0,0,0,0,0,0,0,0,0,0,0,0,0,0,0,0,0,0,0,0,0],"sum_hessian":[1.8253152E4,1.7032395E4,1.2207572E3,3.6283928E3,1.3404002E4,2.8442273E2,9.363344E2,9.4823096E2,2.6801619E3,3.6092466E3,9.794756E3,2.2421005E2,6.021267E1,8.2099615E2,1.2723479E2,2.6392593E3,4.0902557E1,3.57932E3,2.9926329E1,1.3968364E3,8.397919E3,6.4496284E1,1.5971378E2,5.5650352E1,4.562314E0,5.1150406E2,3.094921E2,4.7058247E1,8.0176544E1,2.6172593E3,2.1999908E1,2.4059329E3,1.1733875E3,1.2032278E3,1.9360866E2,7.8763677E3,5.215512E2,4.81043E1,1.6391985E1,5.394434E1,1.7060142E0],"tree_param":{"num_deleted":"0","num_feature":"58","num_nodes":"41","size_leaf_vector":"1"}},{"base_weights":[3.1084515E-2,7.544748E-2,-1.0777184E0,2.8045839E-2,6.676965E-1,-1.1515399E0,-2.0622146E-1,2.669365E-1,-5.350393E-2,6.976131E-1,-8.8183574E-2,-1.1162332E0,-7.633189E-2,1.0454392E0,-6.640093E-2,4.9568442E-1,-1.3945011E-2,2.5042894E-1,-1.9463967E-1,7.1963066E-1,-1.1049266E-1,-5.5210557E-2,-6.66967E-2,-5.962965E-2,6.698639E-2,2.1419084E-2,6.835145E-2,-4.2072926E-2,1.6077392E-2,1.4753239E-2,-8.5931234E-2,1.0178025E-2,-1.5343516E-2,-1.1090515E-1,3.689002E-2],"categories":[],"categories_nodes":[],"categories_segments":[],"categories_sizes":[],"default_left":[1,0,0,0,1,0,0,1,0,0,0,0,0,0,0,0,1,0,0,0,0,0,0,0,0,0,0,0,0,0,0,0,0,0,0],"id":33,"left_children":[1,3,5,7,9,11,13,15,17,19,-1,21,-1,23,-1,25,27,29,31,33,-1,-1,-1,-1,-1,-1,-1,-1,-1,-1,-1,-1,-1,-1,-1],"loss_changes":[8.96736E2,4.920592E2,4.488263E1,3.1620383E2,9.570935E1,6.855713E0,7.9998695E1,2.654056E2,5.19114E2,8.377411E1,0E0,8.288574E-2,0E0,1.939442E1,0E0,1.329248E2,5.1527057E2,3.3780072E2,3.6938046E2,6.968915E1,0E0,0E0,0E0,0E0,0E0,0E0,0E0,0E0,0E0,0E0,0E0,0E0,0E0,0E0,0E0],"parents":[2147483647,0,0,1,1,2,2,3,3,4,4,5,5,6,6,7,7,8,8,9,9,11,11,13,13,15,15,16,16,17,17,18,18,19,19],"right_children":[2,4,6,8,10,12,14,16,18,20,-1,22,-1,24,-1,26,28,30,32,34,-1,-1,-1,-1,-1,-1,-1,-1,-1,-1,-1,-1,-1,-1,-1],"split_conditions":[3.4802777E-1,1E0,7.3E3,3.0685225E6,5.9239674E-1,2.1525E2,-3.3333334E-1,-3.3333334E-1,1.1E1,7.32E2,-8.8183574E-2,1E0,-7.633189E-2,2.9E1,-6.640093E-2,2.656393E6,4E0,1E0,-2.8E-1,8E0,-1.1049266E-1,-5.5210557E-2,-6.66967E-2,-5.962965E-2,6.698639E-2,2.1419084E-2,6.835145E-2,-4.2072926E-2,1.6077392E-2,1.4753239E-2,-8.5931234E-2,1.0178025E-2,-1.5343516E-2,-1.1090515E-1,3.689002E-2],"split_indices":[6,27,16,28,19,18,10,10,13,13,0,36,0,13,0,28,14,42,10,13,0,0,0,0,0,0,0,0,0,0,0,0,0,0,0],"split_type":[0,0,0,0,0,0,0,0,0,0,0,0,0,0,0,0,0,0,0,0,0,0,0,0,0,0,0,0,0,0,0,0,0,0,0],"sum_hessian":[1.8227479E4,1.7527152E4,7.003256E2,1.6229264E4,1.2978888E3,6.4533966E2,5.498591E1,4.1296514E3,1.2099612E4,1.2828175E3,1.5071277E1,5.9345557E2,5.18841E1,2.6020851E1,2.8965057E1,2.27563E3,1.8540212E3,3.8366633E3,8.262949E3,1.273923E3,8.894618E0,5.681523E2,2.5303312E1,2.6692247E0,2.3351625E1,2.1138477E3,1.6178218E2,5.343951E2,1.3196262E3,3.7524504E3,8.421296E1,1.8166317E3,6.4463174E3,7.0864654E0,1.2668364E3],"tree_param":{"num_deleted":"0","num_feature":"58","num_nodes":"35","size_leaf_vector":"1"}},{"base_weights":[4.242111E-2,1.0823969E-1,-9.8054016E-1,4.241925E-1,2.98331E-2,-1.1683167E-1,-5.6045264E-2,4.6749178E-1,-1.0519325E-1,2.0907582E-1,-1.396311E-1,7.515936E-1,-5.5589177E-2,-2.4016799E-1,5.672999E-1,1.2505062E-1,6.068328E-1,-3.1765103E-3,-5.080974E-1,1.0630938E0,-5.836178E-2,1.7845765E-2,-8.630345E-2,-1.05446555E-1,2.9474253E-2,4.1708786E-2,2.8345624E-3,3.3694506E-2,-1.0376736E-1,-1.2445209E-1,1.0367354E-3,-6.433862E-2,-9.083802E-3,-5.120588E-2,6.061644E-2],"categories":[],"categories_nodes":[],"categories_segments":[],"categories_sizes":[],"default_left":[0,0,0,0,1,0,0,0,0,0,0,0,0,0,0,0,1,0,0,0,0,0,0,0,0,0,0,0,0,0,0,0,0,0,0],"id":34,"left_children":[1,3,5,7,9,11,-1,13,-1,15,17,19,-1,21,23,25,27,29,31,33,-1,-1,-1,-1,-1,-1,-1,-1,-1,-1,-1,-1,-1,-1,-1],"loss_changes":[1.231493E3,4.2568716E2,1.3391711E2,3.7496234E2,4.182563E2,1.3535591E2,0E0,2.3743762E2,0E0,2.2357132E2,3.5587244E2,5.1285255E1,0E0,3.6968658E2,1.7608264E2,2.6782202E2,2.1125989E2,3.0712958E2,4.8595908E2,2.384159E1,0E0,0E0,0E0,0E0,0E0,0E0,0E0,0E0,0E0,0E0,0E0,0E0,0E0,0E0,0E0],"parents":[2147483647,0,0,1,1,2,2,3,3,4,4,5,5,7,7,9,9,10,10,11,11,13,13,14,14,15,15,16,16,17,17,18,18,19,19],"right_children":[2,4,6,8,10,12,-1,14,-1,16,18,20,-1,22,24,26,28,30,32,34,-1,-1,-1,-1,-1,-1,-1,-1,-1,-1,-1,-1,-1,-1,-1],"split_conditions":[1E0,-2E-1,-2.3809524E-1,1E0,-2.3809524E-1,8.8E1,-5.6045264E-2,1E0,-1.0519325E-1,1E0,3.3333334E-1,2.1627034E2,-5.5589177E-2,9E0,2E0,2.8894086E2,1.2E0,-2.1428572E-1,1.6E1,5.7920013E-3,-5.836178E-2,1.7845765E-2,-8.630345E-2,-1.05446555E-1,2.9474253E-2,4.1708786E-2,2.8345624E-3,3.3694506E-2,-1.0376736E-1,-1.2445209E-1,1.0367354E-3,-6.433862E-2,-9.083802E-3,-5.120588E-2,6.061644E-2],"split_indices":[33,12,10,45,10,13,0,25,0,24,11,2,0,13,14,2,11,10,13,4,0,0,0,0,0,0,0,0,0,0,0,0,0,0,0],"split_type":[0,0,0,0,0,0,0,0,0,0,0,0,0,0,0,0,0,0,0,0,0,0,0,0,0,0,0,0,0,0,0,0,0,0,0],"sum_hessian":[1.8287867E4,1.7183176E4,1.1046924E3,3.4154844E3,1.376769E4,1.5468736E2,9.50005E2,3.3587722E3,5.6712254E1,6.6906934E3,7.076997E3,8.272605E1,7.196131E1,4.1499164E2,2.9437805E3,5.524888E3,1.165805E3,5.1651787E3,1.9118186E3,7.1555756E1,1.11703E1,2.9657712E2,1.1841452E2,2.3429136E1,2.9203513E3,4.8478403E2,5.040104E3,1.1381001E3,2.7704948E1,4.8227634E1,5.116951E3,5.638406E2,1.3479779E3,4.3836226E0,6.717213E1],"tree_param":{"num_deleted":"0","num_feature":"58","num_nodes":"35","size_leaf_vector":"1"}},{"base_weights":[6.6347783E-3,5.7594784E-2,-1.1503981E0,7.488354E-2,-6.218621E-2,-1.12356E0,-9.0671584E-2,2.3451458E-1,-8.258539E-2,-6.1559584E-2,-5.5223953E-2,4.6823496E-1,3.8839478E-2,-2.2155762E0,-7.025207E-2,2.4794962E-2,-9.3807474E-2,2.0213362E-2,-1.3233039E-2,-1.1708833E-1,-7.817584E-2,-1.4136852E-3,-3.5637494E-2],"categories":[],"categories_nodes":[],"categories_segments":[],"categories_sizes":[],"default_left":[1,0,0,0,0,0,0,0,0,0,0,1,0,0,1,0,0,0,0,0,0,0,0],"id":35,"left_children":[1,3,5,7,-1,9,-1,11,13,-1,-1,15,17,19,21,-1,-1,-1,-1,-1,-1,-1,-1],"loss_changes":[1.0525236E3,3.8475793E2,1.136261E1,4.241889E2,0E0,1.3195801E-1,0E0,3.832224E2,2.2333286E2,0E0,0E0,2.4859021E2,5.0609818E2,3.5462952E-1,2.2782117E2,0E0,0E0,0E0,0E0,0E0,0E0,0E0,0E0],"parents":[2147483647,0,0,1,1,2,2,3,3,5,5,7,7,8,8,11,11,12,12,13,13,14,14],"right_children":[2,4,6,8,-1,10,-1,12,14,-1,-1,16,18,20,22,-1,-1,-1,-1,-1,-1,-1,-1],"split_conditions":[4.4454016E-2,1E0,1.1884491E0,2.2222222E-1,-6.218621E-2,7.3288335E6,-9.0671584E-2,-8.2666665E-2,-8.75E-1,-6.1559584E-2,-5.5223953E-2,5.97E2,1.1E1,3.4156567E-1,4.8387095E-1,2.4794962E-2,-9.3807474E-2,2.0213362E-2,-1.3233039E-2,-1.1708833E-1,-7.817584E-2,-1.4136852E-3,-3.5637494E-2],"split_indices":[18,57,15,12,0,28,0,10,11,0,0,13,14,4,11,0,0,0,0,0,0,0,0],"split_type":[0,0,0,0,0,0,0,0,0,0,0,0,0,0,0,0,0,0,0,0,0,0,0],"sum_hessian":[1.7848635E4,1.7096588E4,7.5204675E2,1.687336E4,2.2322968E2,7.253795E2,2.6667215E1,8.378912E3,8.494446E3,9.9664314E1,6.257152E2,3.8176274E3,4.5612847E3,4.7806988E1,8.44664E3,3.773883E3,4.374422E1,2.0693562E3,2.4919285E3,3.7884083E1,9.922906E0,7.929594E3,5.1704553E2],"tree_param":{"num_deleted":"0","num_feature":"58","num_nodes":"23","size_leaf_vector":"1"}},{"base_weights":[2.0971637E-2,7.635581E-2,-8.463968E-1,6.30483E-1,3.0830912E-2,-1.10377856E-1,-5.5352014E-2,6.564671E-1,-1.0018672E-1,5.961521E-2,-7.577614E-1,-4.6660733E-1,1.2503345E0,6.776351E-1,-1.1639649E-1,5.3090805E-1,1.4291737E-2,-5.0538905E-2,-1.7200745E0,