{"learner":{"attributes":{"best_iteration":"399","best_score":"0.17638290971804144"},"feature_names":["operating_margin_l2","operating_margin_l3","dcoh_l2","dcoh_l3","debt_to_assets_l2","debt_to_assets_l3","unrestricted_na_ratio_l2","unrestricted_na_ratio_l3","rev_share_tuition_l2","rev_share_tuition_l3","enroll_yoy","enroll_yoy_l2","enroll_yoy_l3","enroll_l2","enroll_l3","operating_margin","dcoh","unrestricted_na_ratio","rev_share_tuition","exp_share_instruction","exp_share_scholarships","exp_share_interest","exp_share_depreciation","debt_to_ebida","rev_decline_10pct","enroll_decline_10pct","persistent_neg_margin","consec_enroll_decline_3yr","total_rev_real","total_rev_real_l2","total_rev_real_l3","sc_tuitfte_real","sc_tuitfte_real_l2","sc_tuitfte_real_l3","sc_inexpfte_real","sc_inexpfte_real_l2","sc_pctpell","sc_pctpell_l2","sec_4","sec_5","sec_6","sec_7","sec_8","sec_9","yr_2002","yr_2003","yr_2004","yr_2005","yr_2006","yr_2007","yr_2008","yr_2009","yr_2010","yr_2011","yr_2012","yr_2013","yr_2014","yr_2015","yr_2016","yr_2017","yr_2018","yr_2019","yr_2020"],"feature_types":[],"gradient_booster":{"model":{"cats":{"enc":[],"feature_segments":[],"sorted_idx":[]},"gbtree_model_param":{"num_parallel_tree":"1","num_trees":"400"},"iteration_indptr":[0,1,2,3,4,5,6,7,8,9,10,11,12,13,14,15,16,17,18,19,20,21,22,23,24,25,26,27,28,29,30,31,32,33,34,35,36,37,38,39,40,41,42,43,44,45,46,47,48,49,50,51,52,53,54,55,56,57,58,59,60,61,62,63,64,65,66,67,68,69,70,71,72,73,74,75,76,77,78,79,80,81,82,83,84,85,86,87,88,89,90,91,92,93,94,95,96,97,98,99,100,101,102,103,104,105,106,107,108,109,110,111,112,113,114,115,116,117,118,119,120,121,122,123,124,125,126,127,128,129,130,131,132,133,134,135,136,137,138,139,140,141,142,143,144,145,146,147,148,149,150,151,152,153,154,155,156,157,158,159,160,161,162,163,164,165,166,167,168,169,170,171,172,173,174,175,176,177,178,179,180,181,182,183,184,185,186,187,188,189,190,191,192,193,194,195,196,197,198,199,200,201,202,203,204,205,206,207,208,209,210,211,212,213,214,215,216,217,218,219,220,221,222,223,224,225,226,227,228,229,230,231,232,233,234,235,236,237,238,239,240,241,242,243,244,245,246,247,248,249,250,251,252,253,254,255,256,257,258,259,260,261,262,263,264,265,266,267,268,269,270,271,272,273,274,275,276,277,278,279,280,281,282,283,284,285,286,287,288,289,290,291,292,293,294,295,296,297,298,299,300,301,302,303,304,305,306,307,308,309,310,311,312,313,314,315,316,317,318,319,320,321,322,323,324,325,326,327,328,329,330,331,332,333,334,335,336,337,338,339,340,341,342,343,344,345,346,347,348,349,350,351,352,353,354,355,356,357,358,359,360,361,362,363,364,365,366,367,368,369,370,371,372,373,374,375,376,377,378,379,380,381,382,383,384,385,386,387,388,389,390,391,392,393,394,395,396,397,398,399,400],"tree_info":[0,0,0,0,0,0,0,0,0,0,0,0,0,0,0,0,0,0,0,0,0,0,0,0,0,0,0,0,0,0,0,0,0,0,0,0,0,0,0,0,0,0,0,0,0,0,0,0,0,0,0,0,0,0,0,0,0,0,0,0,0,0,0,0,0,0,0,0,0,0,0,0,0,0,0,0,0,0,0,0,0,0,0,0,0,0,0,0,0,0,0,0,0,0,0,0,0,0,0,0,0,0,0,0,0,0,0,0,0,0,0,0,0,0,0,0,0,0,0,0,0,0,0,0,0,0,0,0,0,0,0,0,0,0,0,0,0,0,0,0,0,0,0,0,0,0,0,0,0,0,0,0,0,0,0,0,0,0,0,0,0,0,0,0,0,0,0,0,0,0,0,0,0,0,0,0,0,0,0,0,0,0,0,0,0,0,0,0,0,0,0,0,0,0,0,0,0,0,0,0,0,0,0,0,0,0,0,0,0,0,0,0,0,0,0,0,0,0,0,0,0,0,0,0,0,0,0,0,0,0,0,0,0,0,0,0,0,0,0,0,0,0,0,0,0,0,0,0,0,0,0,0,0,0,0,0,0,0,0,0,0,0,0,0,0,0,0,0,0,0,0,0,0,0,0,0,0,0,0,0,0,0,0,0,0,0,0,0,0,0,0,0,0,0,0,0,0,0,0,0,0,0,0,0,0,0,0,0,0,0,0,0,0,0,0,0,0,0,0,0,0,0,0,0,0,0,0,0,0,0,0,0,0,0,0,0,0,0,0,0,0,0,0,0,0,0,0,0,0,0,0,0,0,0,0,0,0,0,0,0,0,0,0,0,0,0,0,0,0,0,0,0,0,0,0,0,0,0,0,0,0,0,0,0,0,0,0,0,0,0,0,0,0,0,0,0,0,0,0,0],"trees":[{"base_weights":[1.777956E-2,-1.7519268E0,2.5030056E-1,-1.8763124E0,5.073061E-1,7.6187E-1,-1.00661285E-1,-1.00757174E-1,-2.4890564E-1,1.4623069E0,-9.809677E-2,2.963687E-1,1.1293943E0,-7.1253777E-1,1.3268407E-1,1.6853741E0,-1.1470664E0,9.684588E-2,-9.273835E-2,5.821387E-1,-3.1039798E-1,1.1823065E0,-9.942212E-2,-9.1699404E-1,6.032492E-1,7.7940575E-3,1.0134184E0,-7.3920995E-2,9.31295E-2,-9.9761106E-2,6.6487245E-2,3.3147063E-2,-9.9393144E-2,4.270832E-2,-3.438102E-2,6.485052E-2,4.8897247E-4,7.725976E-3,-5.3940773E-2,4.5496155E-2,-9.8575234E-2,-8.94768E-3,4.0061016E-2,-9.706939E-2,5.4629505E-2],"categories":[],"categories_nodes":[],"categories_segments":[],"categories_sizes":[],"default_left":[0,1,0,0,0,1,1,0,0,0,0,0,0,1,1,0,1,0,0,1,0,0,0,0,1,1,0,0,0,0,0,0,0,0,0,0,0,0,0,0,0,0,0,0,0],"id":0,"left_children":[1,3,5,7,9,11,13,-1,15,17,-1,19,21,23,25,27,29,-1,-1,31,33,35,-1,37,39,41,43,-1,-1,-1,-1,-1,-1,-1,-1,-1,-1,-1,-1,-1,-1,-1,-1,-1,-1],"loss_changes":[8.911192E3,7.076821E2,3.4366313E3,5.3809863E2,3.1419797E2,1.3321353E3,1.6211028E3,0E0,3.2944833E2,1.5437465E2,0E0,5.962378E2,7.202881E2,8.438075E2,9.041256E2,3.6497498E1,2.7435184E2,0E0,0E0,4.8668237E2,4.843789E2,5.75604E2,0E0,4.706477E2,3.351385E2,1.0669645E3,2.409281E2,0E0,0E0,0E0,0E0,0E0,0E0,0E0,0E0,0E0,0E0,0E0,0E0,0E0,0E0,0E0,0E0,0E0,0E0],"parents":[2147483647,0,0,1,1,2,2,3,3,4,4,5,5,6,6,8,8,9,9,11,11,12,12,13,13,14,14,15,15,16,16,19,19,20,20,21,21,23,23,24,24,25,25,26,26],"right_children":[2,4,6,8,10,12,14,-1,16,18,-1,20,22,24,26,28,30,-1,-1,32,34,36,-1,38,40,42,44,-1,-1,-1,-1,-1,-1,-1,-1,-1,-1,-1,-1,-1,-1,-1,-1,-1,-1],"split_conditions":[2.4347992E2,5.6099844E-1,-1E-1,1E0,1.4732617E2,5.316E-1,5.018199E3,-1.00757174E-1,-6.496815E-1,-4.3271264E-1,-9.809677E-2,-3.0384615E-1,1E0,8E-1,8.526E-1,-9.310345E-1,1.6661431E0,9.684588E-2,-9.273835E-2,1.6624635E-4,8.9705144E5,3.7544262E-1,-9.942212E-2,7.093958E5,1.4655802E5,1.1887305E4,6.0957954E3,-7.3920995E-2,9.31295E-2,-9.9761106E-2,6.6487245E-2,3.3147063E-2,-9.9393144E-2,4.270832E-2,-3.438102E-2,6.485052E-2,4.8897247E-4,7.725976E-3,-5.3940773E-2,4.5496155E-2,-9.8575234E-2,-8.94768E-3,4.0061016E-2,-9.706939E-2,5.4629505E-2],"split_indices":[17,5,10,41,3,37,31,0,10,15,0,10,62,36,37,10,8,0,0,4,29,5,0,30,30,34,31,0,0,0,0,0,0,0,0,0,0,0,0,0,0,0,0,0,0],"split_type":[0,0,0,0,0,0,0,0,0,0,0,0,0,0,0,0,0,0,0,0,0,0,0,0,0,0,0,0,0,0,0,0,0,0,0,0,0,0,0,0,0,0,0,0,0],"sum_hessian":[2.1653648E4,2.5139048E3,1.9139744E4,2.3828809E3,1.310238E2,7.787438E3,1.1352306E4,2.1953606E3,1.8752022E2,9.477611E1,3.62477E1,3.436553E3,4.3508853E3,3.1335308E3,8.218775E3,5.9184326E1,1.2833589E2,8.327684E1,1.149927E1,2.336274E3,1.1002789E3,4.2788896E3,7.199543E1,2.712367E3,4.211637E2,7.1989565E3,1.0198184E3,2.7498255E0,5.64345E1,9.574392E1,3.2591972E1,2.2657786E3,7.049552E1,2.6889124E2,8.3138763E2,3.8975056E3,3.813841E2,3.558857E2,2.3564812E3,3.769165E2,4.4247192E1,5.828002E3,1.3709545E3,2.599835E1,9.938201E2],"tree_param":{"num_deleted":"0","num_feature":"63","num_nodes":"45","size_leaf_vector":"1"}},{"base_weights":[-6.6792145E-3,2.7433467E-1,-1.7846086E0,-4.160946E-1,5.919852E-1,-1.8922439E0,-1.1529259E-1,-1.6073889E-1,-1.1373647E0,1.1257899E-1,9.2140484E-1,-9.655066E-2,1.3805978E0,1.3947934E0,-9.675423E-2,2.7521387E-1,-4.422034E-1,-1.3449454E0,3.5841545E-1,5.516537E-1,-2.1566717E-1,9.705045E-1,-9.723834E-2,9.3751766E-2,-7.8860454E-2,-8.777075E-2,1.7913698E0,-9.8567896E-2,1.8554006E-2,-9.951717E-2,-1.6368782E-2,-2.0153025E-2,-7.9416536E-2,6.327007E-2,-9.724944E-2,3.0715203E-2,-4.2760327E-2,1.7270694E-2,-3.1709794E-2,5.3788465E-2,-3.6061325E-3,9.3943395E-2,-6.5308556E-2],"categories":[],"categories_nodes":[],"categories_segments":[],"categories_sizes":[],"default_left":[0,0,1,1,1,1,0,0,1,1,0,0,0,0,0,0,0,0,0,0,0,0,0,0,0,0,0,0,0,0,0,0,0,0,0,0,0,0,0,0,0,0,0],"id":1,"left_children":[1,3,5,7,9,11,13,15,17,19,21,-1,23,25,-1,27,29,31,33,35,37,39,-1,-1,-1,-1,41,-1,-1,-1,-1,-1,-1,-1,-1,-1,-1,-1,-1,-1,-1,-1,-1],"loss_changes":[1.0727944E4,4.0666792E3,5.263457E2,1.0760017E3,2.0054595E3,3.5198535E2,4.9344553E2,5.297768E2,4.7479895E2,7.457284E2,1.0611523E3,0E0,5.0944748E1,1.2579576E2,0E0,3.6559113E2,4.6570514E2,3.0692383E2,3.9303482E2,1.9561133E2,6.9554913E2,8.1234375E2,0E0,0E0,0E0,0E0,2.622165E1,0E0,0E0,0E0,0E0,0E0,0E0,0E0,0E0,0E0,0E0,0E0,0E0,0E0,0E0,0E0,0E0],"parents":[2147483647,0,0,1,1,2,2,3,3,4,4,5,5,6,6,7,7,8,8,9,9,10,10,12,12,13,13,15,15,16,16,17,17,18,18,19,19,20,20,21,21,26,26],"right_children":[2,4,6,8,10,12,14,16,18,20,22,-1,24,26,-1,28,30,32,34,36,38,40,-1,-1,-1,-1,42,-1,-1,-1,-1,-1,-1,-1,-1,-1,-1,-1,-1,-1,-1,-1,-1],"split_conditions":[1E0,1E0,6.4624004E3,1.2E1,5.204E-1,7.6101947E-1,5.0904346E3,7.2679404E3,2.11004E-1,-3.0384615E-1,1E0,-9.655066E-2,-2.316936E0,1.1911391E0,-9.675423E-2,3.404E-1,1.3917769E4,2.656393E6,3.7441208E3,1E0,-8E-2,4.0000008E1,-9.723834E-2,9.3751766E-2,-7.8860454E-2,-8.777075E-2,8.977323E3,-9.8567896E-2,1.8554006E-2,-9.951717E-2,-1.6368782E-2,-2.0153025E-2,-7.9416536E-2,6.327007E-2,-9.724944E-2,3.0715203E-2,-4.2760327E-2,1.7270694E-2,-3.1709794E-2,5.3788465E-2,-3.6061325E-3,9.3943395E-2,-6.5308556E-2],"split_indices":[38,25,32,13,37,4,31,35,4,10,62,0,0,19,0,37,35,28,32,51,12,4,0,0,0,0,32,0,0,0,0,0,0,0,0,0,0,0,0,0,0,0,0],"split_type":[0,0,0,0,0,0,0,0,0,0,0,0,0,0,0,0,0,0,0,0,0,0,0,0,0,0,0,0,0,0,0,0,0,0,0,0,0,0,0,0,0,0,0],"sum_hessian":[2.1470105E4,1.8540498E4,2.929607E3,5.8420977E3,1.2698401E4,2.7520264E3,1.7758038E2,4.3154834E3,1.5266144E3,5.1723677E3,7.5260337E3,2.7202134E3,3.1813017E1,9.717604E1,8.040434E1,1.6931034E3,2.62238E3,1.3406615E3,1.8595288E2,2.2123555E3,2.9600122E3,7.3999287E3,1.2610493E2,2.7570333E1,4.242683E0,1.048242E1,8.669363E1,6.8491E1,1.6246124E3,1.7994722E2,2.4424326E3,2.7583896E2,1.0648225E3,1.337416E2,5.2211304E1,2.1185742E3,9.3781136E1,1.2647109E3,1.6953013E3,6.721306E3,6.7862256E2,8.469463E1,1.9989879E0],"tree_param":{"num_deleted":"0","num_feature":"63","num_nodes":"43","size_leaf_vector":"1"}},{"base_weights":[3.189406E-2,3.0018246E-1,-1.7381964E0,-3.8389727E-1,6.078187E-1,-1.8086035E0,-6.2620714E-2,-1.443842E-1,-1.110699E0,1.8441635E-1,9.1030645E-1,-9.227329E-2,1.2701972E0,1.7338561E0,-9.193847E-2,-2.5480384E-1,1.1345141E0,-1.3216579E0,1.1941728E-1,-5.552231E-1,3.769704E-1,9.542781E-1,-9.2685275E-2,8.9664206E-2,-7.7483356E-2,9.3872115E-2,-6.483885E-2,-8.817578E-3,-9.897037E-2,-9.5629394E-2,7.4950576E-2,-9.64624E-2,-3.8935434E-2,-9.456462E-2,4.0844053E-2,1.7628152E-2,-5.4519206E-2,4.517359E-2,5.340114E-3,3.6430884E-2,6.771233E-2],"categories":[],"categories_nodes":[],"categories_segments":[],"categories_sizes":[],"default_left":[0,0,1,1,1,1,0,1,0,1,0,0,0,0,0,1,1,0,1,0,0,1,0,0,0,0,0,0,0,0,0,0,0,0,0,0,0,0,0,0,0],"id":2,"left_children":[1,3,5,7,9,11,13,15,17,19,21,-1,23,25,-1,27,29,31,33,35,37,39,-1,-1,-1,-1,-1,-1,-1,-1,-1,-1,-1,-1,-1,-1,-1,-1,-1,-1,-1],"loss_changes":[1.0349332E4,3.9828408E3,3.382744E2,1.02187036E3,1.6717559E3,3.1474414E2,3.755647E2,6.240404E2,3.7775525E2,7.7514417E2,9.271836E2,0E0,5.169041E1,2.7906113E1,0E0,5.4988257E2,3.929724E2,4.0827026E2,3.0155292E2,5.4659906E2,6.1408966E2,6.755454E2,0E0,0E0,0E0,0E0,0E0,0E0,0E0,0E0,0E0,0E0,0E0,0E0,0E0,0E0,0E0,0E0,0E0,0E0,0E0],"parents":[2147483647,0,0,1,1,2,2,3,3,4,4,5,5,6,6,7,7,8,8,9,9,10,10,12,12,13,13,15,15,16,16,17,17,18,18,19,19,20,20,21,21],"right_children":[2,4,6,8,10,12,14,16,18,20,22,-1,24,26,-1,28,30,32,34,36,38,40,-1,-1,-1,-1,-1,-1,-1,-1,-1,-1,-1,-1,-1,-1,-1,-1,-1,-1,-1],"split_conditions":[1E0,1E0,7.5511577E3,1.3E1,5.288E-1,7.6101947E-1,1.724E-1,4.8471343E-2,1E0,2.1509138E3,1E0,-9.227329E-2,8.4228045E-1,8.8E1,-9.193847E-2,3.3333334E-1,5.0904346E3,1.8181819E-1,1.0956143E4,3.4490474E3,1.8952836E6,3.5852528E5,-9.2685275E-2,8.9664206E-2,-7.7483356E-2,9.3872115E-2,-6.483885E-2,-8.817578E-3,-9.897037E-2,-9.5629394E-2,7.4950576E-2,-9.64624E-2,-3.8935434E-2,-9.456462E-2,4.0844053E-2,1.7628152E-2,-5.4519206E-2,4.517359E-2,5.340114E-3,3.6430884E-2,6.771233E-2],"split_indices":[38,25,33,13,37,4,36,4,59,35,62,0,4,13,0,11,31,12,31,32,29,30,0,0,0,0,0,0,0,0,0,0,0,0,0,0,0,0,0,0,0],"split_type":[0,0,0,0,0,0,0,0,0,0,0,0,0,0,0,0,0,0,0,0,0,0,0,0,0,0,0,0,0,0,0,0,0,0,0,0,0,0,0,0,0],"sum_hessian":[2.1790799E4,1.8923447E4,2.8673516E3,5.8700903E3,1.3053357E4,2.7516487E3,1.1570282E2,4.4160176E3,1.4540729E3,5.440173E3,7.613185E3,2.7194893E3,3.2159508E1,5.7534073E1,5.8168743E1,4.0657803E3,3.5023727E2,1.2411477E3,2.1292514E2,1.123334E3,4.316839E3,7.4946104E3,1.1857431E2,2.743445E1,4.725058E0,5.5294815E1,2.2392597E0,3.8899294E3,1.7585081E2,3.6965794E1,3.1327148E2,5.8450323E2,6.566445E2,5.4395977E1,1.5852916E2,4.1674927E2,7.065847E2,1.46314E3,2.8536987E3,4.793155E3,2.7014558E3],"tree_param":{"num_deleted":"0","num_feature":"63","num_nodes":"41","size_leaf_vector":"1"}},{"base_weights":[-6.528589E-3,2.4612927E-1,-1.6299998E0,-2.9656145E-1,5.1065886E-1,-4.3538123E-1,-1.7336056E0,-2.0702535E-1,-9.493026E-2,1.1630785E-1,8.046211E-1,1.7256716E0,-8.75158E-2,-8.85884E-2,4.6175534E-1,-3.5282683E-1,7.382099E-1,4.994586E-1,-1.5407023E-1,8.50891E-1,-8.895309E-2,-6.920581E-2,1.8606062E0,8.707329E-2,-8.501173E-2,8.261639E-3,-3.0999277E-2,4.7185704E-2,-9.5344715E-2,6.220619E-2,1.5739916E-2,-6.2849276E-2,5.856619E-3,3.147405E-2,6.429242E-2,-5.1627457E-2,9.581391E-2],"categories":[],"categories_nodes":[],"categories_segments":[],"categories_sizes":[],"default_left":[0,0,0,0,1,0,1,1,0,1,0,0,0,0,0,0,1,0,1,1,0,0,0,0,0,0,0,0,0,0,0,0,0,0,0,0,0],"id":3,"left_children":[1,3,5,7,9,11,13,15,-1,17,19,21,-1,-1,23,25,27,29,31,33,-1,-1,35,-1,-1,-1,-1,-1,-1,-1,-1,-1,-1,-1,-1,-1,-1],"loss_changes":[8.719171E3,2.6407769E3,3.535542E2,8.6433704E2,1.4335061E3,6.56006E2,2.2148242E2,7.8726465E2,0E0,5.4734E2,8.485029E2,3.9263153E1,0E0,0E0,1.2966483E2,6.849346E2,4.1679672E2,3.001767E2,9.2677045E2,6.695654E2,0E0,0E0,1.5544128E1,0E0,0E0,0E0,0E0,0E0,0E0,0E0,0E0,0E0,0E0,0E0,0E0,0E0,0E0],"parents":[2147483647,0,0,1,1,2,2,3,3,4,4,5,5,6,6,7,7,9,9,10,10,11,11,14,14,15,15,16,16,17,17,18,18,19,19,22,22],"right_children":[2,4,6,8,10,12,14,16,-1,18,20,22,-1,-1,24,26,28,30,32,34,-1,-1,36,-1,-1,-1,-1,-1,-1,-1,-1,-1,-1,-1,-1,-1,-1],"split_conditions":[1E0,1E0,1.887338E-7,1E0,5.288E-1,3.7E1,2.935415E4,1.2130977E4,-9.493026E-2,-3.0384615E-1,1E0,2.1634348E3,-8.75158E-2,-8.85884E-2,1.206E-1,1E1,6.690977E1,5.3489894E-1,3.1336309E3,7.487486E5,-8.895309E-2,-6.920581E-2,2.1547458E2,8.707329E-2,-8.501173E-2,8.261639E-3,-3.0999277E-2,4.7185704E-2,-9.5344715E-2,6.220619E-2,1.5739916E-2,-6.2849276E-2,5.856619E-3,3.147405E-2,6.429242E-2,-5.1627457E-2,9.581391E-2],"split_indices":[38,25,21,41,37,13,35,34,0,10,62,31,0,0,36,13,2,21,34,30,0,0,3,0,0,0,0,0,0,0,0,0,0,0,0,0,0],"split_type":[0,0,0,0,0,0,0,0,0,0,0,0,0,0,0,0,0,0,0,0,0,0,0,0,0,0,0,0,0,0,0,0,0,0,0,0,0],"sum_hessian":[2.1254818E4,1.8393172E4,2.8616475E3,6.027482E3,1.2365689E4,2.2879149E2,2.632856E3,5.7095137E3,3.17968E2,5.281689E3,7.084001E3,8.6431595E1,1.423599E2,2.5880603E3,4.4795704E1,4.9470615E3,7.624521E2,2.1847908E3,3.0968982E3,6.960028E3,1.2397309E2,3.2093422E0,8.322225E1,2.8261724E1,1.653398E1,1.6832928E3,3.2637688E3,7.080827E2,5.4369335E1,4.3298572E2,1.751805E3,6.1050146E2,2.4863967E3,4.613849E3,2.3461787E3,1.2399048E0,8.1982346E1],"tree_param":{"num_deleted":"0","num_feature":"63","num_nodes":"37","size_leaf_vector":"1"}},{"base_weights":[1.0688851E-2,2.5356156E-1,-1.5686162E0,-3.431691E-1,5.278724E-1,-4.1364276E-1,-1.6674436E0,-9.836583E-1,-1.3250035E-1,7.440868E-1,1.1666654E-1,1.6101105E0,-8.4327035E-2,-8.530264E-2,-5.034776E-1,-2.53038E-1,-1.4064478E0,-2.128497E-3,-1.0619043E0,7.8946066E-1,-9.061373E-2,4.3749207E-1,-2.3021312E-1,-6.923721E-2,1.7571222E0,1.7523549E0,-8.512467E-2,4.1276246E-2,-3.568722E-2,2.3242317E-2,-7.521278E-2,-5.187564E-3,5.812511E-2,-6.99378E-2,7.0382364E-2,4.2407505E-2,-2.4772277E-2,3.235973E-2,-4.0285844E-2,-3.3159148E-2,2.3810819E-2,9.159459E-2,-5.7481956E-2,9.801738E-2,-5.463933E-2],"categories":[],"categories_nodes":[],"categories_segments":[],"categories_sizes":[],"default_left":[0,0,0,1,0,1,1,0,1,0,0,0,0,0,0,0,0,1,1,0,0,0,1,0,0,0,0,0,0,0,0,0,0,0,0,0,0,0,0,0,0,0,0,0,0],"id":4,"left_children":[1,3,5,7,9,11,13,15,17,19,21,23,-1,-1,25,27,29,31,33,35,-1,37,39,-1,41,43,-1,-1,-1,-1,-1,-1,-1,-1,-1,-1,-1,-1,-1,-1,-1,-1,-1,-1,-1],"loss_changes":[8.218283E3,3.039891E3,3.2527783E2,7.89042E2,1.131031E3,5.8600354E2,1.1734863E2,4.467589E2,5.3341125E2,9.6855615E2,4.881403E2,4.1151215E1,0E0,0E0,2.3523492E2,2.6483643E2,1.6847253E2,4.571648E2,4.5247516E2,6.1826807E2,0E0,5.945604E2,6.4500885E2,0E0,2.0420135E1,2.006881E1,0E0,0E0,0E0,0E0,0E0,0E0,0E0,0E0,0E0,0E0,0E0,0E0,0E0,0E0,0E0,0E0,0E0,0E0,0E0],"parents":[2147483647,0,0,1,1,2,2,3,3,4,4,5,5,6,6,7,7,8,8,9,9,10,10,11,11,14,14,15,15,16,16,17,17,18,18,19,19,21,21,22,22,24,24,25,25],"right_children":[2,4,6,8,10,12,14,16,18,20,22,24,-1,-1,26,28,30,32,34,36,-1,38,40,-1,42,44,-1,-1,-1,-1,-1,-1,-1,-1,-1,-1,-1,-1,-1,-1,-1,-1,-1,-1,-1],"split_conditions":[1E0,1E0,1.887338E-7,3.8972986E3,1.5384616E-1,3.4E1,7.58269E3,2.031187E3,2.5E1,1E0,-2.3529412E-1,2.9308245E3,-8.4327035E-2,-8.530264E-2,7.661889E3,4.1907188E5,8.922761E4,1.0407917E-1,7.5E-1,1E0,-9.061373E-2,1E0,7.112E-1,-6.923721E-2,4.3624536E3,5.0904346E3,-8.512467E-2,4.1276246E-2,-3.568722E-2,2.3242317E-2,-7.521278E-2,-5.187564E-3,5.812511E-2,-6.99378E-2,7.0382364E-2,4.2407505E-2,-2.4772277E-2,3.235973E-2,-4.0285844E-2,-3.3159148E-2,2.3810819E-2,9.159459E-2,-5.7481956E-2,9.801738E-2,-5.463933E-2],"split_indices":[38,25,21,31,12,14,32,31,14,62,10,31,0,0,32,28,29,4,11,41,0,54,36,0,31,31,0,0,0,0,0,0,0,0,0,0,0,0,0,0,0,0,0,0,0],"split_type":[0,0,0,0,0,0,0,0,0,0,0,0,0,0,0,0,0,0,0,0,0,0,0,0,0,0,0,0,0,0,0,0,0,0,0,0,0,0,0,0,0,0,0,0,0],"sum_hessian":[2.1423732E4,1.8568953E4,2.8547786E3,5.847708E3,1.2721245E4,2.2542891E2,2.6293496E3,1.4464487E3,4.40126E3,8.336864E3,4.384381E3,8.693997E1,1.3848894E2,2.5444824E3,8.486711E1,5.307906E2,9.1565814E2,3.860703E3,5.4055664E2,8.192149E3,1.4471446E2,2.277595E3,2.1067861E3,3.6740766E0,8.32659E1,2.929323E1,5.557388E1,1.5862967E2,3.721609E2,4.5295506E1,8.703626E2,3.5517012E3,3.090017E2,4.7605533E2,6.4501305E1,7.834635E3,3.5751495E2,1.9492739E3,3.28321E2,1.3062488E3,8.0053723E2,8.15383E1,1.7275964E0,2.7587448E1,1.7057822E0],"tree_param":{"num_deleted":"0","num_feature":"63","num_nodes":"45","size_leaf_vector":"1"}},{"base_weights":[2.684513E-2,1.9872253E-1,-1.5223182E0,7.825113E-1,-4.2314272E-2,1.4856915E0,-1.5669098E0,1.0852091E0,1.801303E-1,2.0166129E-1,-4.5513457E-1,9.251543E-2,-6.3033484E-2,8.045554E-1,-1.6106603E0,1.1164831E0,-8.6454615E-2,2.4386357E-1,-1.06835045E-1,2.534514E-1,-8.921456E-2,6.879136E-1,-5.555461E-1,8.6296365E-2,-7.872843E-2,-1.6541815E0,8.67602E-1,5.809612E-2,-4.2644244E-2,-1.0302241E-1,1.4984983E-2,-2.0022213E-3,2.8763084E-2,5.415518E-2,-9.445666E-2,-3.7635997E-2,1.17442375E-2,-8.239503E-2,-1.0221561E-1,-8.2976215E-2,8.310605E-2],"categories":[],"categories_nodes":[],"categories_segments":[],"categories_sizes":[],"default_left":[1,0,0,0,0,0,0,0,1,0,0,0,0,0,1,0,0,0,0,1,0,0,1,0,0,0,0,0,0,0,0,0,0,0,0,0,0,0,0,0,0],"id":5,"left_children":[1,3,5,7,9,11,13,15,17,19,21,-1,-1,23,25,27,-1,29,-1,31,-1,33,35,-1,-1,37,39,-1,-1,-1,-1,-1,-1,-1,-1,-1,-1,-1,-1,-1,-1],"loss_changes":[5.7237646E3,2.7227837E3,2.9028418E2,1.030842E3,1.3795222E3,3.4249672E1,2.2083008E2,3.3314355E2,2.7993802E2,8.8592224E2,5.843417E2,0E0,0E0,8.819925E1,2.2555615E2,3.3409912E2,0E0,2.3768639E2,0E0,7.925695E2,0E0,4.2092322E2,7.291843E2,0E0,0E0,1.6357422E0,7.6079575E1,0E0,0E0,0E0,0E0,0E0,0E0,0E0,0E0,0E0,0E0,0E0,0E0,0E0,0E0],"parents":[2147483647,0,0,1,1,2,2,3,3,4,4,5,5,6,6,7,7,8,8,9,9,10,10,13,13,14,14,15,15,17,17,19,19,21,21,22,22,25,25,26,26],"right_children":[2,4,6,8,10,12,14,16,18,20,22,-1,-1,24,26,28,-1,30,-1,32,-1,34,36,-1,-1,38,40,-1,-1,-1,-1,-1,-1,-1,-1,-1,-1,-1,-1,-1,-1],"split_conditions":[2.6018322E-2,-2.4509804E-1,6.093608E0,4.5945945E-1,4.0000008E1,5.807148E-3,2E0,1E0,8.723E-1,1E0,5.764153E-1,9.251543E-2,-6.3033484E-2,-6.496815E-1,8.347E-1,1E0,-8.6454615E-2,7.5E-1,-1.06835045E-1,6.344E-1,-8.921456E-2,6.1656196E3,1.2130977E4,8.6296365E-2,-7.872843E-2,1.1851194E0,1.9572697E4,5.809612E-2,-4.2644244E-2,-1.0302241E-1,1.4984983E-2,-2.0022213E-3,2.8763084E-2,5.415518E-2,-9.445666E-2,-3.7635997E-2,1.17442375E-2,-8.239503E-2,-1.0221561E-1,-8.2976215E-2,8.310605E-2],"split_indices":[18,10,2,11,5,6,13,62,37,62,19,0,0,10,36,54,0,11,0,36,0,34,34,0,0,15,34,0,0,0,0,0,0,0,0,0,0,0,0,0,0],"split_type":[0,0,0,0,0,0,0,0,0,0,0,0,0,0,0,0,0,0,0,0,0,0,0,0,0,0,0,0,0,0,0,0,0,0,0,0,0,0,0,0,0],"sum_hessian":[2.1494266E4,1.9348455E4,2.145811E3,5.653496E3,1.3694959E4,3.087338E1,2.1149377E3,3.7621868E3,1.8913093E3,8.608105E3,5.0868535E3,2.7542946E1,3.330434E0,3.7996075E1,2.0769417E3,3.7214358E3,4.0751076E1,1.8415454E3,4.976398E1,8.390178E3,2.1792857E2,4.102998E2,4.6765537E3,2.7586937E1,1.0409138E1,2.0414243E3,3.5517296E1,3.6379082E3,8.352768E1,4.2717705E1,1.7988276E3,4.3885913E3,4.001586E3,3.562488E2,5.4051014E1,3.7429246E3,9.33629E2,2.0142203E3,2.7203909E1,8.235125E0,2.7282173E1],"tree_param":{"num_deleted":"0","num_feature":"63","num_nodes":"41","size_leaf_vector":"1"}},{"base_weights":[-2.611732E-4,2.2019947E-1,-1.476738E0,6.802752E-1,-4.218504E-2,-1.5743518E0,2.1354528E-2,9.653409E-1,1.2772104E-1,2.1502867E-2,-1.1347334E0,-8.037486E-2,1.1182426E0,1.3353161E0,-8.1231914E-2,1.0033833E0,-8.2461916E-2,2.1060689E-1,-1.08572185E-1,6.1776858E-2,-8.8224635E-2,6.066657E-1,-1.3987333E0,7.9050235E-2,-6.809012E-2,-7.511168E-2,1.6984324E0,9.871605E-3,5.556023E-2,2.2056295E-2,-2.4817245E-2,5.6266636E-2,-1.678359E-4,-8.6941265E-2,8.772146E-2,-8.944145E-2,-1.8904015E-2,8.8396065E-2,-5.3372927E-2],"categories":[],"categories_nodes":[],"categories_segments":[],"categories_sizes":[],"default_left":[0,0,1,0,0,1,0,0,1,0,0,0,0,0,0,1,0,1,0,0,0,0,0,0,0,0,0,0,0,0,0,0,0,0,0,0,0,0,0],"id":6,"left_children":[1,3,5,7,9,11,13,15,17,19,21,-1,23,25,-1,27,-1,29,-1,31,-1,33,35,-1,-1,-1,37,-1,-1,-1,-1,-1,-1,-1,-1,-1,-1,-1,-1],"loss_changes":[6.852891E3,2.2113125E3,4.0000684E2,1.0477886E3,8.117795E2,2.309707E2,3.661713E2,4.3815747E2,4.3214978E2,7.9309436E2,2.9627716E2,0E0,3.86664E1,9.9549866E1,0E0,3.7572168E2,0E0,3.5668707E2,0E0,7.469336E2,0E0,2.3266843E2,2.2162012E2,0E0,0E0,0E0,1.8018326E1,0E0,0E0,0E0,0E0,0E0,0E0,0E0,0E0,0E0,0E0,0E0,0E0],"parents":[2147483647,0,0,1,1,2,2,3,3,4,4,5,5,6,6,7,7,8,8,9,9,10,10,12,12,13,13,15,15,17,17,19,19,21,21,22,22,26,26],"right_children":[2,4,6,8,10,12,14,16,18,20,22,-1,24,26,-1,28,-1,30,-1,32,-1,34,36,-1,-1,-1,38,-1,-1,-1,-1,-1,-1,-1,-1,-1,-1,-1,-1],"split_conditions":[1E0,-1.5625E-1,6.4624004E3,2.4489796E-1,8.94252E7,7.6101947E-1,5.0904346E3,1E0,5.35E2,1E0,2.1645398E3,-8.037486E-2,-2.316936E0,1.1274831E4,-8.1231914E-2,1.724E-1,-8.2461916E-2,5.420503E3,-1.08572185E-1,6.5842434E-4,-8.8224635E-2,1.9243563E3,1E0,7.9050235E-2,-6.809012E-2,-7.511168E-2,3.965E-1,9.871605E-3,5.556023E-2,2.2056295E-2,-2.4817245E-2,5.6266636E-2,-1.678359E-4,-8.6941265E-2,8.772146E-2,-8.944145E-2,-1.8904015E-2,8.8396065E-2,-5.3372927E-2],"split_indices":[38,10,32,11,34,4,31,62,13,62,32,0,0,34,0,36,0,34,0,8,0,32,44,0,0,0,36,0,0,0,0,0,0,0,0,0,0,0,0],"split_type":[0,0,0,0,0,0,0,0,0,0,0,0,0,0,0,0,0,0,0,0,0,0,0,0,0,0,0,0,0,0,0,0,0,0,0,0,0,0,0],"sum_hessian":[2.1051105E4,1.8316953E4,2.7341514E3,6.651808E3,1.16651455E4,2.566848E3,1.6730345E2,4.387517E3,2.2642913E3,1.1023531E4,6.4161426E2,2.5360327E3,3.081522E1,9.3140274E1,7.416318E1,4.325201E3,6.231575E1,2.1863796E3,7.791151E1,1.0781378E4,2.4215341E2,8.429415E1,5.5732007E2,2.6274973E1,4.5402474E0,1.0210888E1,8.292939E1,5.1068973E2,3.8145115E3,1.6490443E3,5.373353E2,6.212245E2,1.0160153E4,2.7526964E1,5.6767185E1,4.026672E2,1.5465288E2,8.124894E1,1.6804459E0],"tree_param":{"num_deleted":"0","num_feature":"63","num_nodes":"39","size_leaf_vector":"1"}},{"base_weights":[2.6725912E-2,2.3892282E-1,-1.4340825E0,4.5402035E-1,-2.1366909E-1,-1.5291474E0,2.3689698E-1,7.467055E-1,1.5106243E-1,1.11462764E-1,-5.334506E-1,-7.804296E-2,1.1216273E0,1.3786715E0,-7.83278E-2,9.6433353E-1,2.8507826E-1,1.5402568E-2,9.324373E-1,1.9371456E-1,-9.7240716E-2,-9.281517E-1,2.1873625E-1,7.664966E-2,-6.503516E-2,-7.0502095E-2,1.6555506E0,4.9940463E-2,-8.00463E-2,2.263293E-2,-3.3399638E-2,1.9370964E-2,-1.3644995E-2,-8.833703E-2,5.2230883E-2,-2.6549349E-2,1.7694306E-2,-3.3876162E-2,-8.5851654E-2,2.9287452E-2,-3.031652E-2,8.512926E-2,-4.3380763E-2],"categories":[],"categories_nodes":[],"categories_segments":[],"categories_sizes":[],"default_left":[0,0,1,0,1,1,0,0,0,1,1,0,0,0,0,0,0,0,1,1,0,1,1,0,0,0,0,0,0,0,0,0,0,0,0,0,0,0,0,0,0,0,0],"id":7,"left_children":[1,3,5,7,9,11,13,15,17,19,21,-1,23,25,-1,27,29,31,33,35,-1,37,39,-1,-1,-1,41,-1,-1,-1,-1,-1,-1,-1,-1,-1,-1,-1,-1,-1,-1,-1,-1],"loss_changes":[6.6017847E3,1.8104557E3,4.2946582E2,1.1176475E3,6.229985E2,2.1661182E2,3.033586E2,6.4382227E2,6.5670386E2,5.029884E2,8.970323E2,0E0,3.268365E1,7.190399E1,0E0,3.8690454E2,3.286055E2,5.663924E2,2.793526E2,3.319714E2,0E0,3.9058252E2,3.153991E2,0E0,0E0,0E0,1.1258743E1,0E0,0E0,0E0,0E0,0E0,0E0,0E0,0E0,0E0,0E0,0E0,0E0,0E0,0E0,0E0,0E0],"parents":[2147483647,0,0,1,1,2,2,3,3,4,4,5,5,6,6,7,7,8,8,9,9,10,10,12,12,13,13,15,15,16,16,17,17,18,18,19,19,21,21,22,22,26,26],"right_children":[2,4,6,8,10,12,14,16,18,20,22,-1,24,26,-1,28,30,32,34,36,-1,38,40,-1,-1,-1,42,-1,-1,-1,-1,-1,-1,-1,-1,-1,-1,-1,-1,-1,-1,-1,-1],"split_conditions":[1E0,9.452374E0,6.8327036E3,-7.4074075E-2,-2.857143E-1,7.6101947E-1,5.0904346E3,4.4444446E-2,1E0,3.0685225E6,3.2932425E-1,-7.804296E-2,-2.316936E0,1.1887305E4,-7.83278E-2,1E0,-1.875E-1,1.1E1,3.05E-1,1.9226724E2,-9.7240716E-2,2.959972E3,-6.0606062E-2,7.664966E-2,-6.503516E-2,-7.0502095E-2,-1.6393442E-2,4.9940463E-2,-8.00463E-2,2.263293E-2,-3.3399638E-2,1.9370964E-2,-1.3644995E-2,-8.833703E-2,5.2230883E-2,-2.6549349E-2,1.7694306E-2,-3.3876162E-2,-8.5851654E-2,2.9287452E-2,-3.031652E-2,8.512926E-2,-4.3380763E-2],"split_indices":[38,5,33,10,10,4,31,11,57,28,19,0,0,34,0,62,10,14,36,31,0,33,11,0,0,0,10,0,0,0,0,0,0,0,0,0,0,0,0,0,0,0,0],"split_type":[0,0,0,0,0,0,0,0,0,0,0,0,0,0,0,0,0,0,0,0,0,0,0,0,0,0,0,0,0,0,0,0,0,0,0,0,0,0,0,0,0,0,0],"sum_hessian":[2.1295416E4,1.8595125E4,2.7002898E3,1.2604665E4,5.9904604E3,2.5550156E3,1.4527434E2,6.4102812E3,6.194384E3,2.970704E3,3.0197563E3,2.525217E3,2.9798592E1,8.910015E1,5.617419E1,4.3557373E3,2.0545437E3,5.278898E3,9.15486E2,2.8573162E3,1.13387856E2,1.9803547E3,1.0394016E3,2.5786594E1,4.0119977E0,7.677734E0,8.142242E1,4.2985776E3,5.7159912E1,1.7477572E3,3.067865E2,2.3046736E3,2.9742244E3,3.5941692E1,8.795443E2,5.167858E2,2.3405303E3,1.5042966E3,4.7605804E2,7.1959546E2,3.1980615E2,8.0251656E1,1.1707635E0],"tree_param":{"num_deleted":"0","num_feature":"63","num_nodes":"43","size_leaf_vector":"1"}},{"base_weights":[2.6202561E-2,2.2646745E-1,-1.3849307E0,-2.831412E-1,4.6345696E-1,-1.4774303E0,2.0631841E-1,-1.227689E0,-1.650635E-1,6.9189215E-1,-2.6612415E-4,-7.594431E-2,1.2436675E0,1.29978E0,-7.6080985E-2,-1.5429971E0,1.072611E0,-5.1195227E-2,-1.2118332E0,7.307072E-1,-8.0996E-2,6.148747E-1,-2.1009217E-1,-6.924897E-2,1.0994196E-1,-6.763801E-2,1.5423797E0,9.141505E-2,-8.645379E-2,9.4523706E-2,-8.1689395E-2,-9.964979E-3,4.5517724E-2,-9.084873E-2,-7.6168583E-4,4.181006E-2,1.222886E-3,-2.6078055E-2,5.19012E-2,2.4690997E-4,-4.9391534E-2,8.073531E-2,-5.1830806E-2],"categories":[],"categories_nodes":[],"categories_segments":[],"categories_sizes":[],"default_left":[0,0,1,1,0,1,0,0,1,0,0,0,0,0,0,0,0,1,0,0,0,1,1,0,0,0,0,0,0,0,0,0,0,0,0,0,0,0,0,0,0,0,0],"id":8,"left_children":[1,3,5,7,9,11,13,15,17,19,21,-1,23,25,-1,27,29,31,33,35,-1,37,39,-1,-1,-1,41,-1,-1,-1,-1,-1,-1,-1,-1,-1,-1,-1,-1,-1,-1,-1,-1],"loss_changes":[5.9868784E3,2.2406882E3,3.878379E2,6.566531E2,1.3414509E3,2.8258887E2,2.7692596E2,4.7620557E2,6.24063E2,7.624895E2,5.397E2,0E0,9.8182205E1,5.9783722E1,0E0,3.6438586E2,1.7897568E2,6.7286E2,3.7192877E2,6.2170264E2,0E0,5.11964E2,5.2142737E2,0E0,0E0,0E0,1.708397E1,0E0,0E0,0E0,0E0,0E0,0E0,0E0,0E0,0E0,0E0,0E0,0E0,0E0,0E0,0E0,0E0],"parents":[2147483647,0,0,1,1,2,2,3,3,4,4,5,5,6,6,7,7,8,8,9,9,10,10,12,12,13,13,15,15,16,16,17,17,18,18,19,19,21,21,22,22,26,26],"right_children":[2,4,6,8,10,12,14,16,18,20,22,-1,24,26,-1,28,30,32,34,36,-1,38,40,-1,-1,-1,42,-1,-1,-1,-1,-1,-1,-1,-1,-1,-1,-1,-1,-1,-1,-1,-1],"split_conditions":[1E0,1E0,6.8327036E3,1.9226724E2,1.5384616E-1,1.6728539E3,5.0904346E3,1E0,7.8955825E3,1E0,1.3698605E6,-7.594431E-2,1E0,1.1887305E4,-7.6080985E-2,-9.8245615E-1,3.0344785E3,1.2130977E4,1.6086752E4,8.952368E-1,-8.0996E-2,2.568674E3,5.1908396E-2,-6.924897E-2,1.0994196E-1,-6.763801E-2,-1.6393442E-2,9.141505E-2,-8.645379E-2,9.4523706E-2,-8.1689395E-2,-9.964979E-3,4.5517724E-2,-9.084873E-2,-7.6168583E-4,4.181006E-2,1.222886E-3,-2.6078055E-2,5.19012E-2,2.4690997E-4,-4.9391534E-2,8.073531E-2,-5.1830806E-2],"split_indices":[38,25,33,31,12,3,31,46,35,62,28,0,61,34,0,11,35,34,34,5,0,35,11,0,0,0,10,0,0,0,0,0,0,0,0,0,0,0,0,0,0,0,0],"split_type":[0,0,0,0,0,0,0,0,0,0,0,0,0,0,0,0,0,0,0,0,0,0,0,0,0,0,0,0,0,0,0,0,0,0,0,0,0,0,0,0,0,0,0],"sum_hessian":[2.118285E4,1.8550975E4,2.6318735E3,5.8884966E3,1.26624795E4,2.4873545E3,1.4451881E2,6.5327856E2,5.235218E3,8.483111E3,4.179368E3,2.4504636E3,3.689092E1,8.866086E1,5.585796E1,5.748162E2,7.846236E1,4.7225454E3,5.1267255E2,8.343705E3,1.3940588E2,1.0625096E3,3.1168584E3,9.712365E0,2.7178553E1,7.0459223E0,8.161494E1,2.9605738E1,5.452105E2,6.048539E1,1.7976969E1,4.092919E3,6.2962616E2,3.4013956E2,1.7253299E2,7.259199E3,1.0845062E3,2.8821878E2,7.7429083E2,2.442536E3,6.743226E2,7.9752235E1,1.8627061E0],"tree_param":{"num_deleted":"0","num_feature":"63","num_nodes":"43","size_leaf_vector":"1"}},{"base_weights":[2.5740224E-3,1.9514595E-1,-1.3765699E0,4.140715E-1,-2.8563327E-1,-1.4147683E0,1.3834761E0,2.9134592E-1,1.1844577E0,-5.2465975E-1,3.597488E-1,-7.404966E-2,-1.5191084E-1,-6.485753E-2,1.0355484E-1,3.3240408E-1,-8.1452034E-2,-1.0569697E-1,1.2136135E0,-2.9634044E-1,-1.5936714E0,4.4731936E-1,-8.728971E-2,-7.37881E-2,7.93796E-1,5.5005527E-3,2.9523456E-2,-1.0009339E-1,6.1661333E-2,4.064592E-2,-1.9559953E-2,-4.9044445E-2,-9.374005E-2,3.1853188E-2,-3.018259E-2,7.215313E-2,-7.218947E-2],"categories":[],"categories_nodes":[],"categories_segments":[],"categories_sizes":[],"default_left":[0,0,1,0,1,1,0,0,1,1,1,0,0,0,0,1,0,0,0,0,0,1,0,0,0,0,0,0,0,0,0,0,0,0,0,0,0],"id":9,"left_children":[1,3,5,7,9,11,13,15,17,19,21,-1,23,-1,-1,25,-1,-1,27,29,31,33,-1,-1,35,-1,-1,-1,-1,-1,-1,-1,-1,-1,-1,-1,-1],"loss_changes":[5.522367E3,1.9205559E3,2.7055664E2,1.1850046E3,8.809287E2,2.099751E2,6.772283E1,8.533408E2,1.682102E2,1.0165166E3,2.8540198E2,0E0,1.5935788E2,0E0,0E0,6.0772815E2,0E0,0E0,1.10186035E2,3.6171762E2,1.2444849E2,2.960774E2,0E0,0E0,1.1009969E2,0E0,0E0,0E0,0E0,0E0,0E0,0E0,0E0,0E0,0E0,0E0,0E0],"parents":[2147483647,0,0,1,1,2,2,3,3,4,4,5,5,6,6,7,7,8,8,9,9,10,10,12,12,15,15,18,18,19,19,20,20,21,21,24,24],"right_children":[2,4,6,8,10,12,14,16,18,20,22,-1,24,-1,-1,26,-1,-1,28,30,32,34,-1,-1,36,-1,-1,-1,-1,-1,-1,-1,-1,-1,-1,-1,-1],"split_conditions":[1E0,9.452374E0,2.0975822E-1,1E0,3.6092028E-1,1.5425243E4,7.154E-1,1E0,1.6229265E3,-4.6153846E-1,2.9399207E-1,-7.404966E-2,6.395432E3,-6.485753E-2,1.0355484E-1,6.111E-1,-8.1452034E-2,-1.0569697E-1,9E0,3.181522E5,1.1E1,3.1433258E2,-8.728971E-2,-7.37881E-2,7.661889E3,5.5005527E-3,2.9523456E-2,-1.0009339E-1,6.1661333E-2,4.064592E-2,-1.9559953E-2,-4.9044445E-2,-9.374005E-2,3.1853188E-2,-3.018259E-2,7.215313E-2,-7.218947E-2],"split_indices":[38,5,22,27,19,35,37,62,35,11,17,0,32,0,0,37,0,0,13,29,13,2,0,0,32,0,0,0,0,0,0,0,0,0,0,0,0],"split_type":[0,0,0,0,0,0,0,0,0,0,0,0,0,0,0,0,0,0,0,0,0,0,0,0,0,0,0,0,0,0,0,0,0,0,0,0,0],"sum_hessian":[2.0791256E4,1.8244596E4,2.5466616E3,1.25362705E4,5.708324E3,2.5123782E3,3.4283424E1,1.0814808E4,1.7214636E3,4.1656885E3,1.5426356E3,2.3870286E3,1.253495E2,6.817924E0,2.74655E1,1.0589234E4,2.2557242E2,1.4456839E1,1.7070068E3,3.433615E3,7.3207367E2,1.4817946E3,6.0840992E1,5.1998596E1,7.335091E1,5.688487E3,4.900748E3,9.736238E0,1.6972705E3,2.698988E2,3.163716E3,2.3164424E2,5.0042944E2,1.2555153E3,2.2627934E2,5.7129166E1,1.622174E1],"tree_param":{"num_deleted":"0","num_feature":"63","num_nodes":"37","size_leaf_vector":"1"}},{"base_weights":[1.7366065E-2,1.9990742E-1,-1.3209447E0,-2.986663E-1,4.267589E-1,-1.412391E0,2.0117044E-1,-1.9404365E-1,-1.2269272E0,5.9652332E-2,6.9736636E-1,-7.233121E-2,1.1480813E0,1.2615567E0,-7.2421476E-2,-3.018241E-1,7.434708E-1,-1.5360727E0,6.289942E-1,5.1033574E-1,-3.3894596E-1,8.441196E-1,2.11122E-1,7.887088E-2,-6.1055917E-2,-6.451356E-2,1.4986453E0,-6.522911E-3,-4.3869596E-2,5.150636E-2,-8.75236E-2,-8.6806506E-2,1.7132508E-2,-8.387906E-2,7.246443E-2,3.4043405E-2,-2.1981293E-2,1.1042465E-2,-4.27877E-2,4.6781506E-2,-4.604679E-3,-1.0485069E-1,1.817689E-2,7.80231E-2,-4.782708E-2],"categories":[],"categories_nodes":[],"categories_segments":[],"categories_sizes":[],"default_left":[0,0,1,1,1,1,0,1,0,0,0,0,0,1,0,1,0,1,1,1,0,0,1,0,0,0,0,0,0,0,0,0,0,0,0,0,0,0,0,0,0,0,0,0,0],"id":10,"left_children":[1,3,5,7,9,11,13,15,17,19,21,-1,23,25,-1,27,29,31,33,35,37,39,41,-1,-1,-1,43,-1,-1,-1,-1,-1,-1,-1,-1,-1,-1,-1,-1,-1,-1,-1,-1,-1,-1],"loss_changes":[5.086737E3,2.0724624E3,3.4814844E2,5.562787E2,1.2510007E3,2.083169E2,2.511115E2,5.207228E2,3.338855E2,9.6034644E2,5.171223E2,0E0,3.4133553E1,5.4740845E1,0E0,4.5563718E2,3.8171844E2,1.8765247E2,1.6053732E2,4.067503E2,8.20943E2,4.771455E2,5.9249023E2,0E0,0E0,0E0,1.3683838E1,0E0,0E0,0E0,0E0,0E0,0E0,0E0,0E0,0E0,0E0,0E0,0E0,0E0,0E0,0E0,0E0,0E0,0E0],"parents":[2147483647,0,0,1,1,2,2,3,3,4,4,5,5,6,6,7,7,8,8,9,9,10,10,12,12,13,13,15,15,16,16,17,17,18,18,19,19,20,20,21,21,22,22,26,26],"right_children":[2,4,6,8,10,12,14,16,18,20,22,-1,24,26,-1,28,30,32,34,36,38,40,42,-1,-1,-1,44,-1,-1,-1,-1,-1,-1,-1,-1,-1,-1,-1,-1,-1,-1,-1,-1,-1,-1],"split_conditions":[1E0,1E0,6.8327036E3,7.8955825E3,5.288E-1,7.6101947E-1,5.0904346E3,6.3637847E3,1E0,-2.857143E-1,1.5384616E-1,-7.233121E-2,-2.316936E0,6.4624004E3,-7.2421476E-2,1.2E1,1.1666666E0,4.378414E4,1E0,4.5945945E-1,-4.1666668E-2,3.7544262E-1,-7.8159755E-1,7.887088E-2,-6.1055917E-2,-6.451356E-2,8.977323E3,-6.522911E-3,-4.3869596E-2,5.150636E-2,-8.75236E-2,-8.6806506E-2,1.7132508E-2,-8.387906E-2,7.246443E-2,3.4043405E-2,-2.1981293E-2,1.1042465E-2,-4.27877E-2,4.6781506E-2,-4.604679E-3,-1.0485069E-1,1.817689E-2,7.80231E-2,-4.782708E-2],"split_indices":[38,25,33,35,37,4,31,35,48,10,12,0,0,32,0,13,10,33,10,11,12,5,10,0,0,0,32,0,0,0,0,0,0,0,0,0,0,0,0,0,0,0,0,0,0],"split_type":[0,0,0,0,0,0,0,0,0,0,0,0,0,0,0,0,0,0,0,0,0,0,0,0,0,0,0,0,0,0,0,0,0,0,0,0,0,0,0,0,0,0,0,0,0],"sum_hessian":[2.0819852E4,1.8321682E4,2.498169E3,5.7293687E3,1.2592313E4,2.3566567E3,1.4151219E2,5.150117E3,5.792516E2,5.3439385E3,7.248375E3,2.3259937E3,3.0663273E1,8.6283295E1,5.52289E1,4.6196963E3,5.304209E2,4.9668912E2,8.256244E1,2.50797E3,2.8359685E3,5.5673564E3,1.6810184E3,2.6242008E1,4.4212646E0,6.957395E0,7.93259E1,3.560764E3,1.0589324E3,4.7626538E2,5.415548E1,4.4895743E2,4.7731712E1,2.1385033E1,6.1177402E1,2.1265125E3,3.8145752E2,1.3616411E3,1.4743274E3,5.0716294E3,4.9572742E2,1.03338295E2,1.57768E3,7.7733154E1,1.5927451E0],"tree_param":{"num_deleted":"0","num_feature":"63","num_nodes":"45","size_leaf_vector":"1"}},{"base_weights":[2.885167E-2,2.0269275E-1,-1.2807485E0,-2.8368542E-1,4.230374E-1,-1.3193352E0,1.362917E0,-4.300213E-1,5.42612E-1,5.569999E-1,-6.978296E-2,-1.381662E0,-5.5598468E-2,-6.1974104E-2,1.00571446E-1,-2.1981834E-1,-8.999904E-1,7.292924E-1,-8.621745E-2,8.309938E-1,3.5566026E-1,7.7461964E-1,-4.383155E-1,-7.077432E-2,1.1288679E0,1.1332451E0,-7.08476E-2,5.0676446E-2,-1.6043449E-2,1.8499536E-2,-6.0260184E-2,4.3085787E-2,-8.296992E-2,4.3940894E-2,-1.07743815E-1,1.9288767E-2,-1.061744E-1,-9.7446926E-2,4.8010133E-2,3.50709E-3,-5.2765217E-2,7.6488435E-2,-5.9223153E-2,7.3917754E-2,-6.477905E-2],"categories":[],"categories_nodes":[],"categories_segments":[],"categories_sizes":[],"default_left":[0,0,1,1,0,1,0,1,1,0,0,1,0,0,0,0,0,1,0,0,0,1,1,0,0,0,0,0,0,0,0,0,0,0,0,0,0,0,0,0,0,0,0,0,0],"id":11,"left_children":[1,3,5,7,9,11,13,15,17,19,21,23,25,-1,-1,27,29,31,-1,33,35,37,39,-1,41,43,-1,-1,-1,-1,-1,-1,-1,-1,-1,-1,-1,-1,-1,-1,-1,-1,-1,-1,-1],"loss_changes":[4.7159067E3,1.9599379E3,2.4942725E2,6.8971906E2,8.3094116E2,1.8841309E2,6.226013E1,4.7841394E2,3.6450806E2,5.456184E2,8.3770105E2,1.9525537E2,1.8533018E2,0E0,0E0,4.1769586E2,5.8067883E2,2.5250613E2,0E0,6.003406E2,4.2682544E2,4.152926E2,5.879414E2,0E0,3.0444748E1,5.317623E1,0E0,0E0,0E0,0E0,0E0,0E0,0E0,0E0,0E0,0E0,0E0,0E0,0E0,0E0,0E0,0E0,0E0,0E0,0E0],"parents":[2147483647,0,0,1,1,2,2,3,3,4,4,5,5,6,6,7,7,8,8,9,9,10,10,11,11,12,12,15,15,16,16,17,17,19,19,20,20,21,21,22,22,24,24,25,25],"right_children":[2,4,6,8,10,12,14,16,18,20,22,24,26,-1,-1,28,30,32,-1,34,36,38,40,-1,42,44,-1,-1,-1,-1,-1,-1,-1,-1,-1,-1,-1,-1,-1,-1,-1,-1,-1,-1,-1],"split_conditions":[1E0,1E0,2.0975822E-1,1.2130977E4,1.6062998E0,6.8327036E3,1.7142858E-1,1E1,6.690977E1,-1.388889E-1,3.1433258E2,7.6101947E-1,5.0904346E3,-6.1974104E-2,1.00571446E-1,1.6564124E3,1.4167315E6,2.5E1,-8.621745E-2,1E0,7.83E2,-8.125E-1,4.2583784E3,-7.077432E-2,8.4228045E-1,7.637031E3,-7.08476E-2,5.0676446E-2,-1.6043449E-2,1.8499536E-2,-6.0260184E-2,4.3085787E-2,-8.296992E-2,4.3940894E-2,-1.07743815E-1,1.9288767E-2,-1.061744E-1,-9.7446926E-2,4.8010133E-2,3.50709E-3,-5.2765217E-2,7.6488435E-2,-5.9223153E-2,7.3917754E-2,-6.477905E-2],"split_indices":[38,25,22,34,5,33,10,13,2,12,2,4,31,0,0,33,28,13,0,50,13,12,34,0,4,33,0,0,0,0,0,0,0,0,0,0,0,0,0,0,0,0,0,0,0],"split_type":[0,0,0,0,0,0,0,0,0,0,0,0,0,0,0,0,0,0,0,0,0,0,0,0,0,0,0,0,0,0,0,0,0,0,0,0,0,0,0,0,0,0,0,0,0],"sum_hessian":[2.0712344E4,1.8285857E4,2.4264858E3,5.7011426E3,1.2584715E4,2.3920723E3,3.4413563E1,4.8437944E3,8.573482E2,9.894876E3,2.6898381E3,2.2795525E3,1.12519714E2,6.683246E0,2.7730316E1,3.347864E3,1.4959305E3,7.9274524E2,6.460293E1,4.189904E3,5.7049727E3,8.169331E2,1.8729052E3,2.249679E3,2.987372E1,6.0155045E1,5.2364666E1,2.5284158E2,3.0950225E3,2.8981375E2,1.2061167E3,7.517114E2,4.103384E1,4.1245474E3,6.535641E1,5.6373384E3,6.7634285E1,5.1508522E1,7.6542456E2,1.0272445E3,8.4566064E2,2.5749962E1,4.123759E0,5.30137E1,7.141346E0],"tree_param":{"num_deleted":"0","num_feature":"63","num_nodes":"45","size_leaf_vector":"1"}},{"base_weights":[-4.604948E-3,1.5913954E-1,-1.2263824E0,4.1498038E-1,-1.0255697E-1,-1.3132347E0,2.3538344E-1,-2.5405818E-1,5.62735E-1,-1.6333415E-1,8.157769E-1,-1.3541614E0,1.3954422E0,1.2073088E0,-6.930785E-2,3.918029E-2,-8.340761E-2,5.975817E-1,-7.7440254E-2,-2.2323535E-1,6.5921396E-1,-9.02669E-2,1.0442492E0,-6.9365054E-2,1.1149226E0,-5.9383657E-2,9.674083E-2,-6.367452E-2,1.4402442E0,-4.9431883E-2,2.2261938E-2,1.8376287E-2,4.3592166E-2,-1.3266327E-2,5.7729878E-2,4.272924E-2,-1.0147208E-1,6.96274E-2,-1.05547225E-2,7.434094E-2,-5.7125594E-2,7.4942745E-2,-4.5165885E-2],"categories":[],"categories_nodes":[],"categories_segments":[],"categories_sizes":[],"default_left":[0,0,1,0,0,1,0,0,0,0,1,1,0,0,0,0,0,1,0,1,0,0,1,0,0,0,0,0,1,0,0,0,0,0,0,0,0,0,0,0,0,0,0],"id":12,"left_children":[1,3,5,7,9,11,13,15,17,19,21,23,25,27,-1,29,-1,31,-1,33,35,-1,37,-1,39,-1,-1,-1,41,-1,-1,-1,-1,-1,-1,-1,-1,-1,-1,-1,-1,-1,-1],"loss_changes":[4.049518E3,1.1951078E3,3.040171E2,8.923832E2,4.926631E2,2.522268E2,2.144539E2,6.7739655E2,5.4493677E2,4.0799747E2,3.3001968E2,1.8361328E2,4.9814857E1,5.0923378E1,0E0,5.6548157E2,0E0,4.5864502E2,0E0,4.478187E2,2.9701843E2,0E0,2.2094019E2,0E0,2.6904514E1,0E0,0E0,0E0,1.2085266E1,0E0,0E0,0E0,0E0,0E0,0E0,0E0,0E0,0E0,0E0,0E0,0E0,0E0,0E0],"parents":[2147483647,0,0,1,1,2,2,3,3,4,4,5,5,6,6,7,7,8,8,9,9,10,10,11,11,12,12,13,13,15,15,17,17,19,19,20,20,22,22,24,24,28,28],"right_children":[2,4,6,8,10,12,14,16,18,20,22,24,26,28,-1,30,-1,32,-1,34,36,-1,38,-1,40,-1,-1,-1,42,-1,-1,-1,-1,-1,-1,-1,-1,-1,-1,-1,-1,-1,-1],"split_conditions":[1E0,7.692308E-2,6.8327036E3,1E0,1E0,2.0975822E-1,5.0904346E3,7.2679404E3,1E0,1E0,4.286E-1,7.6101947E-1,7.154E-1,1.1887305E4,-6.930785E-2,-1.3043478E-1,-8.340761E-2,6.698E-1,-7.7440254E-2,1E0,3.009514E-2,-9.02669E-2,8.4883E3,-6.9365054E-2,-2.316936E0,-5.9383657E-2,9.674083E-2,-6.367452E-2,3.7571108E-1,-4.9431883E-2,2.2261938E-2,1.8376287E-2,4.3592166E-2,-1.3266327E-2,5.7729878E-2,4.272924E-2,-1.0147208E-1,6.96274E-2,-1.05547225E-2,7.434094E-2,-5.7125594E-2,7.4942745E-2,-4.5165885E-2],"split_indices":[38,12,33,25,60,22,31,35,62,27,36,4,37,34,0,12,0,37,0,36,5,0,33,0,0,0,0,0,8,0,0,0,0,0,0,0,0,0,0,0,0,0,0],"split_type":[0,0,0,0,0,0,0,0,0,0,0,0,0,0,0,0,0,0,0,0,0,0,0,0,0,0,0,0,0,0,0,0,0,0,0,0,0,0,0,0,0,0,0],"sum_hessian":[2.0239611E4,1.7848408E4,2.3912014E3,9.024882E3,8.823527E3,2.25719E3,1.3401154E2,1.6324348E3,7.392447E3,8.276589E3,5.46939E2,2.2240852E3,3.310471E1,8.394919E1,5.0062347E1,1.3528655E3,2.795693E2,7.2731353E3,1.1931133E2,7.7154478E3,5.6114087E2,4.3298744E1,5.036403E2,2.1950615E3,2.9023666E1,5.5108366E0,2.7593874E1,6.822401E0,7.7126785E1,3.8271075E2,9.701547E2,3.9566016E3,3.3165334E3,7.4875205E3,2.279275E2,5.237638E2,3.7377087E1,3.941679E2,1.0947236E2,2.5211603E1,3.8120642E0,7.559661E1,1.5301743E0],"tree_param":{"num_deleted":"0","num_feature":"63","num_nodes":"43","size_leaf_vector":"1"}},{"base_weights":[-5.1624036E-5,-1.1875314E0,1.3029903E-1,-1.2981772E0,8.303422E-1,5.301761E-1,-9.183684E-2,1.3234638E0,-1.341612E0,-8.456432E-2,1.4599959E0,-6.981242E-2,6.996162E-1,-1.9667278E-1,5.4998183E-1,-5.9499186E-2,8.327586E-2,7.6201236E-1,-1.3862423E0,8.0878966E-2,-7.797643E-2,2.0945963E-1,-1.2833595E0,9.485385E-1,4.0965566E-1,-3.6837083E-1,2.6914144E-1,7.332881E-1,-1.1411978E0,8.231302E-2,-6.403302E-2,-6.832607E-2,-8.562797E-2,2.7810892E-2,-2.4168018E-2,7.291165E-2,-8.102275E-2,-1.0764112E-1,4.8219368E-2,-9.853552E-2,2.4272742E-2,7.6636835E-3,-2.8691415E-2,2.1957962E-2,-4.4986226E-2,-9.212782E-2,4.0457122E-2,-8.9724936E-2,5.3206127E-2],"categories":[],"categories_nodes":[],"categories_segments":[],"categories_sizes":[],"default_left":[0,1,0,0,1,1,1,0,0,0,1,1,0,1,0,0,0,0,0,0,0,0,0,0,1,0,0,0,0,0,0,0,0,0,0,0,0,0,0,0,0,0,0,0,0,0,0,0,0],"id":13,"left_children":[1,3,5,7,9,11,13,15,17,-1,19,21,23,25,27,-1,-1,29,31,-1,-1,33,35,37,39,41,43,45,47,-1,-1,-1,-1,-1,-1,-1,-1,-1,-1,-1,-1,-1,-1,-1,-1,-1,-1,-1,-1],"loss_changes":[3.1116133E3,4.450232E2,1.6090563E3,2.1646777E2,1.6754985E2,6.577084E2,7.837079E2,2.8832561E1,1.7523047E2,0E0,4.2365356E1,4.8338446E2,3.637168E2,8.008076E2,5.0782663E2,0E0,0E0,7.2888794E1,9.352539E0,0E0,0E0,2.7887177E2,2.4895078E2,1.3545825E2,4.2171246E2,7.841351E2,5.3634644E2,2.8990643E2,2.32889E2,0E0,0E0,0E0,0E0,0E0,0E0,0E0,0E0,0E0,0E0,0E0,0E0,0E0,0E0,0E0,0E0,0E0,0E0,0E0,0E0],"parents":[2147483647,0,0,1,1,2,2,3,3,4,4,5,5,6,6,7,7,8,8,10,10,11,11,12,12,13,13,14,14,17,17,18,18,21,21,22,22,23,23,24,24,25,25,26,26,27,27,28,28],"right_children":[2,4,6,8,10,12,14,16,18,-1,20,22,24,26,28,-1,-1,30,32,-1,-1,34,36,38,40,42,44,46,48,-1,-1,-1,-1,-1,-1,-1,-1,-1,-1,-1,-1,-1,-1,-1,-1,-1,-1,-1,-1],"split_conditions":[4.8695984E2,1.0760678E-1,-1.6129032E-1,6.093608E0,6.182E-1,5E0,1.2130977E4,3.06394E-1,1.6368091E-1,-8.456432E-2,1.8422517E2,3.675326E5,-4.996669E-3,7.222E-1,1E0,-5.9499186E-2,8.327586E-2,2.4101697E-2,1E0,8.0878966E-2,-7.797643E-2,4.5629443E3,-9.90991E-1,-9.240506E-1,1.748315E3,2.9922912E6,4.0000008E1,8.1563777E-1,1E0,8.231302E-2,-6.403302E-2,-6.832607E-2,-8.562797E-2,2.7810892E-2,-2.4168018E-2,7.291165E-2,-8.102275E-2,-1.0764112E-1,4.8219368E-2,-9.853552E-2,2.4272742E-2,7.6636835E-3,-2.8691415E-2,2.1957962E-2,-4.4986226E-2,-9.212782E-2,4.0457122E-2,-8.9724936E-2,5.3206127E-2],"split_indices":[17,21,10,2,36,14,34,1,19,0,3,28,12,36,41,0,0,8,41,0,0,34,12,12,32,28,4,19,52,0,0,0,0,0,0,0,0,0,0,0,0,0,0,0,0,0,0,0,0],"split_type":[0,0,0,0,0,0,0,0,0,0,0,0,0,0,0,0,0,0,0,0,0,0,0,0,0,0,0,0,0,0,0,0,0,0,0,0,0,0,0,0,0,0,0,0,0,0,0,0,0],"sum_hessian":[2.010032E4,1.9873823E3,1.8112938E4,1.8844111E3,1.029712E2,6.468073E3,1.1644865E4,3.0231333E1,1.8541798E3,2.0237658E1,8.273354E1,1.4244993E3,5.043574E3,1.0010435E4,1.6344307E3,3.32439E0,2.6906942E1,3.818688E1,1.8159929E3,7.907125E1,3.6622918E0,1.1586809E3,2.6581836E2,2.7126096E3,2.3309644E3,7.314526E3,2.6959084E3,1.4751105E3,1.5932024E2,2.678573E1,1.140115E1,1.7173904E3,9.86025E1,7.7232666E2,3.863543E2,2.8741137E1,2.3707722E2,1.3106195E1,2.6995034E3,7.116389E1,2.2598005E3,2.0669397E3,5.247586E3,2.3541143E3,3.4179422E2,4.1530632E1,1.4335798E3,1.2305337E2,3.6266865E1],"tree_param":{"num_deleted":"0","num_feature":"63","num_nodes":"49","size_leaf_vector":"1"}},{"base_weights":[3.0323785E-2,1.4492337E-1,-1.2211851E0,4.715862E-1,-1.0838397E-1,-1.3012389E0,5.65992E-1,6.410061E-1,-1.3006714E-1,-5.426196E-1,4.064724E-2,8.629991E-1,-1.3515042E0,-8.849969E-2,1.2705662E0,8.3998466E-1,2.2988887E-1,-4.521428E-1,6.861828E-1,8.745544E-2,-8.397623E-1,-9.6922286E-2,7.0061885E-2,8.446192E-2,-6.86479E-2,-1.3406966E0,-9.706482E-2,7.675163E-2,-6.9125116E-2,1.7729191E-2,4.7636654E-2,2.0960672E-2,-3.3333417E-2,-6.383099E-4,-7.872751E-2,5.0571103E-2,-2.1339014E-2,2.1449072E-2,-6.0403716E-2,-4.7718123E-2,5.5568714E-2,-2.510617E-3,2.6093278E-2,-6.630834E-2,-8.143655E-2],"categories":[],"categories_nodes":[],"categories_segments":[],"categories_sizes":[],"default_left":[1,0,1,0,1,0,0,0,1,0,0,0,0,0,1,1,1,1,0,1,1,0,1,0,0,0,0,0,0,0,0,0,0,0,0,0,0,0,0,0,0,0,0,0,0],"id":14,"left_children":[1,3,5,7,9,11,13,15,17,19,21,23,25,-1,27,29,31,33,35,37,39,-1,41,-1,-1,43,-1,-1,-1,-1,-1,-1,-1,-1,-1,-1,-1,-1,-1,-1,-1,-1,-1,-1,-1],"loss_changes":[2.9251396E3,1.5460896E3,2.4551733E2,8.3191565E2,6.811098E2,1.7934326E2,1.2412413E2,5.207124E2,4.7191284E2,5.0354974E2,4.5631976E2,7.212822E1,7.6030273E0,0E0,4.2447266E1,2.3447827E2,3.5303027E2,6.346423E2,1.8430125E2,3.822271E2,4.09688E2,0E0,4.196687E2,0E0,0E0,4.4335938E0,0E0,0E0,0E0,0E0,0E0,0E0,0E0,0E0,0E0,0E0,0E0,0E0,0E0,0E0,0E0,0E0,0E0,0E0,0E0],"parents":[2147483647,0,0,1,1,2,2,3,3,4,4,5,5,6,6,7,7,8,8,9,9,10,10,11,11,12,12,14,14,15,15,16,16,17,17,18,18,19,19,20,20,22,22,25,25],"right_children":[2,4,6,8,10,12,14,16,18,20,22,24,26,-1,28,30,32,34,36,38,40,-1,42,-1,-1,44,-1,-1,-1,-1,-1,-1,-1,-1,-1,-1,-1,-1,-1,-1,-1,-1,-1,-1,-1],"split_conditions":[4.4454016E-2,-7.8947365E-2,1.7383508E4,1.3864666E0,4.579057E3,2E0,9.51806E-1,4.6747968E-2,9.54621E1,3.4313738E3,2E0,-6.496815E-1,2.4347992E2,-8.849969E-2,2.2703724E1,3.171E-1,1.5E-1,-8.681319E-1,7.193E-1,3.0347728E5,9.35E-1,-9.6922286E-2,1.0186692E4,8.446192E-2,-6.86479E-2,1E0,-9.706482E-2,7.675163E-2,-6.9125116E-2,1.7729191E-2,4.7636654E-2,2.0960672E-2,-3.3333417E-2,-6.383099E-4,-7.872751E-2,5.0571103E-2,-2.1339014E-2,2.1449072E-2,-6.0403716E-2,-4.7718123E-2,5.5568714E-2,-2.510617E-3,2.6093278E-2,-6.630834E-2,-8.143655E-2],"split_indices":[18,10,31,5,31,13,18,11,2,35,13,10,17,0,16,37,12,11,36,29,36,0,34,0,0,41,0,0,0,0,0,0,0,0,0,0,0,0,0,0,0,0,0,0,0],"split_type":[0,0,0,0,0,0,0,0,0,0,0,0,0,0,0,0,0,0,0,0,0,0,0,0,0,0,0,0,0,0,0,0,0,0,0,0,0,0,0,0,0,0,0,0,0],"sum_hessian":[2.0393041E4,1.8683127E4,1.7099137E3,8.159653E3,1.0523475E4,1.6368649E3,7.304888E1,6.3667656E3,1.7928871E3,2.6881907E3,7.8352837E3,3.6786953E1,1.6000779E3,1.657686E1,5.647202E1,4.2895864E3,2.0771794E3,1.2859309E3,5.0695618E2,8.617025E2,1.8264882E3,1.1379747E2,7.7214863E3,2.7039665E1,9.747289E0,1.5744993E3,2.5578583E1,5.1736202E1,4.7358155E0,8.0934875E2,3.4802375E3,1.7154607E3,3.617187E2,9.248869E2,3.61044E2,3.9238226E2,1.1457392E2,6.824617E2,1.7924084E2,1.7256433E3,1.0084495E2,6.0988154E3,1.6226709E3,1.5042234E3,7.027597E1],"tree_param":{"num_deleted":"0","num_feature":"63","num_nodes":"45","size_leaf_vector":"1"}},{"base_weights":[-1.3823833E-2,1.2964684E-1,-1.1595813E0,-2.874719E-1,3.233208E-1,-1.2445195E0,2.0282085E-1,-1.5742366E-1,-1.0271957E0,1.1478485E-1,6.083095E-1,-1.288559E0,1.3783015E0,1.1524166E0,-6.691264E-2,-3.0646104E-1,6.160358E-1,-1.4098471E-1,-1.4342825E0,8.793991E-1,-2.5523508E-2,-3.7675363E-1,6.7157984E-1,-6.61756E-2,1.0950156E0,-5.759853E-2,9.768545E-2,-5.93321E-2,1.3585626E0,-1.1093563E-2,-8.086713E-2,-1.0250735E-1,3.8374744E-2,-5.596741E-2,7.901083E-2,-8.054652E-2,-8.177019E-3,6.898708E-3,5.8119662E-2,-2.8174622E-2,8.10686E-3,-1.0887273E-1,1.466542E-2,3.5134193E-2,-7.4202016E-2,7.357048E-2,-5.4990154E-2,7.088819E-2,-4.4921666E-2],"categories":[],"categories_nodes":[],"categories_segments":[],"categories_sizes":[],"default_left":[0,0,1,1,1,1,0,1,0,0,1,1,0,0,0,1,0,0,1,1,1,1,0,0,0,0,0,0,0,0,0,0,0,0,0,0,0,0,0,0,0,0,0,0,0,0,0,0,0],"id":15,"left_children":[1,3,5,7,9,11,13,15,17,19,21,23,25,27,-1,29,31,33,35,37,39,41,43,-1,45,-1,-1,-1,47,-1,-1,-1,-1,-1,-1,-1,-1,-1,-1,-1,-1,-1,-1,-1,-1,-1,-1,-1,-1],"loss_changes":[3.2452476E3,1.4174783E3,2.5448608E2,5.350797E2,7.120426E2,2.4066699E2,1.9147768E2,5.457971E2,2.998553E2,7.424636E2,3.1579395E2,1.7095337E2,5.267897E1,4.0594032E1,0E0,4.397654E2,3.1049796E2,4.444963E2,1.2764575E2,2.249856E2,5.905232E2,3.7009113E2,3.2003394E2,0E0,2.6361176E1,0E0,0E0,0E0,1.126329E1,0E0,0E0,0E0,0E0,0E0,0E0,0E0,0E0,0E0,0E0,0E0,0E0,0E0,0E0,0E0,0E0,0E0,0E0,0E0,0E0],"parents":[2147483647,0,0,1,1,2,2,3,3,4,4,5,5,6,6,7,7,8,8,9,9,10,10,11,11,12,12,13,13,15,15,16,16,17,17,18,18,19,19,20,20,21,21,22,22,24,24,28,28],"right_children":[2,4,6,8,10,12,14,16,18,20,22,24,26,28,-1,30,32,34,36,38,40,42,44,-1,46,-1,-1,-1,48,-1,-1,-1,-1,-1,-1,-1,-1,-1,-1,-1,-1,-1,-1,-1,-1,-1,-1,-1,-1],"split_conditions":[1E0,1E0,6.8327036E3,2.5E1,6.489E-1,2.0975822E-1,5.0904346E3,1.2130977E4,4.9839975E6,5.524665E5,-7.8159755E-1,7.6101947E-1,7.273E-1,1.1887305E4,-6.691264E-2,7.718559E3,1.3334284E6,1.0431926E7,8.625E-1,2.568674E3,2.034E-1,8.0535728E3,1E0,-6.61756E-2,-2.316936E0,-5.759853E-2,9.768545E-2,-5.93321E-2,9.1627295E3,-1.1093563E-2,-8.086713E-2,-1.0250735E-1,3.8374744E-2,-5.596741E-2,7.901083E-2,-8.054652E-2,-8.177019E-3,6.898708E-3,5.8119662E-2,-2.8174622E-2,8.10686E-3,-1.0887273E-1,1.466542E-2,3.5134193E-2,-7.4202016E-2,7.357048E-2,-5.4990154E-2,7.088819E-2,-4.4921666E-2],"split_indices":[38,25,33,13,37,22,31,34,28,28,10,4,37,34,0,35,28,29,37,35,36,33,62,0,0,0,0,0,33,0,0,0,0,0,0,0,0,0,0,0,0,0,0,0,0,0,0,0,0],"split_type":[0,0,0,0,0,0,0,0,0,0,0,0,0,0,0,0,0,0,0,0,0,0,0,0,0,0,0,0,0,0,0,0,0,0,0,0,0,0,0,0,0,0,0,0,0,0,0,0,0],"sum_hessian":[1.9740121E4,1.7544146E4,2.1959746E3,5.562854E3,1.1981293E4,2.0671838E3,1.2879079E2,4.732128E3,8.3072595E2,6.9194785E3,5.0618145E3,2.0335476E3,3.3636353E1,7.9843895E1,4.894689E1,3.968118E3,7.6401013E2,2.619085E2,5.6881744E2,1.0720492E3,5.847429E3,3.0519772E2,4.756617E3,2.0045967E3,2.895087E1,6.0463543E0,2.7589996E1,6.081632E0,7.376226E1,3.7286794E3,2.3943843E2,4.0394615E1,7.236155E2,1.672118E2,9.469669E1,4.991606E2,6.965682E1,2.9656274E2,7.7548645E2,1.5117312E3,4.335698E3,8.215843E1,2.2303929E2,4.689623E3,6.699383E1,2.4994167E1,3.956704E0,7.223925E1,1.5230078E0],"tree_param":{"num_deleted":"0","num_feature":"63","num_nodes":"49","size_leaf_vector":"1"}},{"base_weights":[2.5419226E-2,1.6465278E-1,-1.1691524E0,1.9463223E-1,-7.795376E-2,-7.897716E-2,-1.2710636E0,-1.1454799E-2,4.5918643E-1,1.4601729E0,-6.4170584E-2,-6.519894E-2,3.4533295E-1,-2.8284732E-1,1.5636544E-1,5.2053916E-1,-1.0144817E0,-5.0889213E-2,1.563353E0,-6.381477E-2,1.2629485E0,-6.5786513E-3,-8.166836E-2,1.1930079E-2,-4.461269E-2,4.054932E-2,1.854687E-2,-8.5038334E-2,-2.4599629E-3,9.308089E-2,6.786492E-2,6.877225E-2,-3.5580397E-2],"categories":[],"categories_nodes":[],"categories_segments":[],"categories_sizes":[],"default_left":[0,0,0,1,0,1,1,1,0,0,0,0,0,1,0,0,1,0,0,0,0,0,0,0,0,0,0,0,0,0,0,0,0],"id":16,"left_children":[1,3,5,7,-1,9,11,13,15,17,-1,-1,19,21,23,25,27,-1,29,-1,31,-1,-1,-1,-1,-1,-1,-1,-1,-1,-1,-1,-1],"loss_changes":[3.3249612E3,9.255101E2,2.3174634E2,9.5950586E2,0E0,3.3457108E2,1.0198169E2,4.5064258E2,6.9727563E2,2.1854462E1,0E0,0E0,5.9459465E1,7.7215234E2,5.274387E2,3.2119116E2,2.0418338E2,0E0,2.1735992E0,0E0,6.6052055E0,0E0,0E0,0E0,0E0,0E0,0E0,0E0,0E0,0E0,0E0,0E0,0E0],"parents":[2147483647,0,0,1,1,2,2,3,3,5,5,6,6,7,7,8,8,9,9,12,12,13,13,14,14,15,15,16,16,18,18,20,20],"right_children":[2,4,6,8,-1,10,12,14,16,18,-1,-1,20,22,24,26,28,-1,30,-1,32,-1,-1,-1,-1,-1,-1,-1,-1,-1,-1,-1,-1],"split_conditions":[1E0,1E0,1.887338E-7,5.288E-1,-7.795376E-2,3.4E1,2.935415E4,2.1509138E3,9.746E-1,3.401146E3,-6.4170584E-2,-6.519894E-2,1E0,3.7556872E5,1E0,3.194087E8,1E0,-5.0889213E-2,8.581723E-1,-6.381477E-2,-2.98333E-1,-6.5786513E-3,-8.166836E-2,1.1930079E-2,-4.461269E-2,4.054932E-2,1.854687E-2,-8.5038334E-2,-2.4599629E-3,9.308089E-2,6.786492E-2,6.877225E-2,-3.5580397E-2],"split_indices":[38,62,21,37,0,14,35,35,36,31,0,0,51,29,41,29,36,0,1,0,1,0,0,0,0,0,0,0,0,0,0,0,0],"split_type":[0,0,0,0,0,0,0,0,0,0,0,0,0,0,0,0,0,0,0,0,0,0,0,0,0,0,0,0,0,0,0,0,0],"sum_hessian":[1.9988656E4,1.7902848E4,2.0858083E3,1.7597672E4,3.0517538E2,1.7846712E2,1.9073412E3,9.892442E3,7.70523E3,7.825391E1,1.0021321E2,1.8694661E3,3.7875237E1,3.779574E3,6.1128687E3,7.3978833E3,3.0734683E2,2.773828E0,7.548007E1,1.3545855E1,2.4329384E1,3.399848E3,3.7972598E2,5.669055E3,4.438133E2,2.513527E3,4.884356E3,1.7918796E2,1.2815887E2,2.7556849E1,4.7923225E1,2.330504E1,1.024343E0],"tree_param":{"num_deleted":"0","num_feature":"63","num_nodes":"33","size_leaf_vector":"1"}},{"base_weights":[2.4336724E-2,1.5761496E-1,-1.1590647E0,4.8835886E-1,-2.8578253E-2,-1.2488365E0,2.102817E-1,7.006754E-1,-1.6600158E-3,1.6895198E-3,-7.5799756E-2,-6.4174905E-2,1.0744194E0,1.1176993E0,-6.4769246E-2,7.925925E-1,-1.6418274E-1,1.3896273E-1,-1.0568731E0,8.412818E-1,-4.4638593E-2,7.0075914E-2,-5.152231E-2,1.3171203E0,-5.8664132E-2,4.1254204E-2,-7.427161E-2,-4.968653E-2,2.7735168E-2,-1.9283114E-2,2.5239438E-2,-9.394861E-2,3.8679376E-2,-8.580765E-2,4.9096823E-2,-5.896973E-3,2.067684E-2,-4.4148877E-2,6.944492E-2],"categories":[],"categories_nodes":[],"categories_segments":[],"categories_sizes":[],"default_left":[0,0,1,0,0,1,0,0,0,0,0,0,0,0,0,0,1,0,1,1,1,0,0,0,0,0,0,0,0,0,0,0,0,0,0,0,0,0,0],"id":17,"left_children":[1,3,5,7,9,11,13,15,17,19,-1,-1,21,23,-1,25,27,29,31,33,35,-1,-1,37,-1,-1,-1,-1,-1,-1,-1,-1,-1,-1,-1,-1,-1,-1,-1],"loss_changes":[3.1226887E3,1.0958386E3,2.4662305E2,6.6682654E2,5.1261444E2,1.528457E2,1.7107959E2,3.5561816E2,2.8780322E2,4.3412637E2,0E0,0E0,2.0855839E1,3.7183838E1,0E0,3.0042847E2,2.5724075E2,3.2866397E2,3.4466998E2,2.1163321E2,3.5528656E2,0E0,0E0,1.2632889E1,0E0,0E0,0E0,0E0,0E0,0E0,0E0,0E0,0E0,0E0,0E0,0E0,0E0,0E0,0E0],"parents":[2147483647,0,0,1,1,2,2,3,3,4,4,5,5,6,6,7,7,8,8,9,9,12,12,13,13,15,15,16,16,17,17,18,18,19,19,20,20,23,23],"right_children":[2,4,6,8,10,12,14,16,18,20,-1,-1,22,24,-1,26,28,30,32,34,36,-1,-1,38,-1,-1,-1,-1,-1,-1,-1,-1,-1,-1,-1,-1,-1,-1,-1],"split_conditions":[1E0,-1.5625E-1,6.8327036E3,4.5945945E-1,1E0,7.6101947E-1,5.0904346E3,1.6062998E0,-3.0384615E-1,6.5842434E-4,-7.5799756E-2,-6.4174905E-2,-2.316936E0,-1.6393442E-2,-6.4769246E-2,1E0,1.22662295E4,-8.039216E-1,9.5E1,2.0473702E3,1.2130977E4,7.0075914E-2,-5.152231E-2,9.515129E3,-5.8664132E-2,4.1254204E-2,-7.427161E-2,-4.968653E-2,2.7735168E-2,-1.9283114E-2,2.5239438E-2,-9.394861E-2,3.8679376E-2,-8.580765E-2,4.9096823E-2,-5.896973E-3,2.067684E-2,-4.4148877E-2,6.944492E-2],"split_indices":[38,10,33,11,62,4,31,5,10,8,0,0,0,10,0,62,31,10,13,34,34,0,0,34,0,0,0,0,0,0,0,0,0,0,0,0,0,0,0],"split_type":[0,0,0,0,0,0,0,0,0,0,0,0,0,0,0,0,0,0,0,0,0,0,0,0,0,0,0,0,0,0,0,0,0,0,0,0,0,0,0],"sum_hessian":[1.9796574E4,1.7793484E4,2.0030894E3,6.4083696E3,1.1385115E4,1.8799324E3,1.2315698E2,4.4708145E3,1.9375555E3,1.1159036E4,2.2607884E2,1.8527383E3,2.7194157E1,7.700573E1,4.6151245E1,4.0413801E3,4.2943408E2,1.7104774E3,2.270781E2,5.826507E2,1.0576386E4,2.3825756E1,3.3684013E0,7.1230484E1,5.775252E0,3.9851772E3,5.6202877E1,1.9919438E2,2.302397E2,7.026971E2,1.00778033E3,1.5668225E2,7.039585E1,2.9790363E1,5.5286035E2,9.118337E3,1.4580482E3,1.8934027E0,6.933708E1],"tree_param":{"num_deleted":"0","num_feature":"63","num_nodes":"39","size_leaf_vector":"1"}},{"base_weights":[7.9930425E-3,1.3521135E-1,-1.132409E0,5.485426E-1,-3.71076E-2,-1.2190745E0,1.8956976E-1,6.899412E-1,-1.6958165E-1,1.7986836E-1,-2.643835E-1,-6.331403E-2,1.3081942E0,1.0923572E0,-6.368512E-2,4.1894773E-1,9.9818206E-1,-1.3759654E0,8.6640224E-2,3.8076988E-1,-1.4605892E-1,-3.6740094E-1,6.827454E-1,9.1799445E-2,-5.4727584E-2,-5.633278E-2,1.3013126E0,-2.9523734E-2,2.7314708E-2,5.1005345E-2,-1.22336246E-1,-1.0609343E-1,7.168225E-2,5.2925605E-2,-1.584965E-2,2.0967392E-2,-7.219586E-2,-5.0797123E-2,1.7515222E-3,-1.3336303E-2,-6.324292E-2,-1.0088638E-1,4.2921927E-2,6.756785E-2,-4.002959E-2],"categories":[],"categories_nodes":[],"categories_segments":[],"categories_sizes":[],"default_left":[0,0,1,0,0,1,0,1,1,0,1,0,0,0,0,0,1,1,0,0,1,1,1,0,0,0,0,0,0,0,0,0,0,0,0,0,0,0,0,0,0,0,0,0,0],"id":18,"left_children":[1,3,5,7,9,11,13,15,17,19,21,-1,23,25,-1,27,29,31,33,35,37,39,41,-1,-1,-1,43,-1,-1,-1,-1,-1,-1,-1,-1,-1,-1,-1,-1,-1,-1,-1,-1,-1,-1],"loss_changes":[2.8425588E3,1.2554738E3,2.255166E2,5.2675757E2,6.1356506E2,2.2183105E2,1.6234976E2,3.6155835E2,2.6409686E2,4.1685846E2,5.9316675E2,0E0,4.5547348E1,3.665518E1,0E0,2.9697726E2,1.5556787E2,3.1669894E2,2.7702927E2,2.7783276E2,3.8252878E2,4.9490656E2,2.8473022E2,0E0,0E0,0E0,8.426605E0,0E0,0E0,0E0,0E0,0E0,0E0,0E0,0E0,0E0,0E0,0E0,0E0,0E0,0E0,0E0,0E0,0E0,0E0],"parents":[2147483647,0,0,1,1,2,2,3,3,4,4,5,5,6,6,7,7,8,8,9,9,10,10,12,12,13,13,15,15,16,16,17,17,18,18,19,19,20,20,21,21,22,22,26,26],"right_children":[2,4,6,8,10,12,14,16,18,20,22,-1,24,26,-1,28,30,32,34,36,38,40,42,-1,-1,-1,44,-1,-1,-1,-1,-1,-1,-1,-1,-1,-1,-1,-1,-1,-1,-1,-1,-1,-1],"split_conditions":[1E0,-2.4509804E-1,6.8327036E3,1E0,2.3255814E-3,2.0975822E-1,5.0904346E3,5.614E-1,-4.318182E-1,5.172414E-2,8.571E-1,-6.331403E-2,3.3E1,1.1887305E4,-6.368512E-2,5E0,2.0261063E2,2.4507727E4,-2.4367817E-1,1E0,2.085061E3,2.906413E6,7.8947365E-2,9.1799445E-2,-5.4727584E-2,-5.633278E-2,9.1627295E3,-2.9523734E-2,2.7314708E-2,5.1005345E-2,-1.22336246E-1,-1.0609343E-1,7.168225E-2,5.2925605E-2,-1.584965E-2,2.0967392E-2,-7.219586E-2,-5.0797123E-2,1.7515222E-3,-1.3336303E-2,-6.324292E-2,-1.0088638E-1,4.2921927E-2,6.756785E-2,-4.002959E-2],"split_indices":[38,10,33,54,11,22,31,37,12,10,37,0,14,34,0,14,16,31,12,62,34,28,11,0,0,0,33,0,0,0,0,0,0,0,0,0,0,0,0,0,0,0,0,0,0],"split_type":[0,0,0,0,0,0,0,0,0,0,0,0,0,0,0,0,0,0,0,0,0,0,0,0,0,0,0,0,0,0,0,0,0,0,0,0,0,0,0,0,0,0,0,0,0],"sum_hessian":[1.9590988E4,1.762563E4,1.9653575E3,5.18544E3,1.2440191E4,1.8445138E3,1.2084373E2,4.332425E3,8.53015E2,6.3644146E3,6.0757764E3,1.8111823E3,3.3331543E1,7.489168E1,4.5952045E1,2.3067646E3,2.0256602E3,1.4866711E2,7.043479E2,3.9372969E3,2.4271174E3,5.480306E3,5.954705E2,2.752188E1,5.809663E0,6.0673456E0,6.882433E1,2.5800775E2,2.048757E3,2.0135488E3,1.2111223E1,1.17672005E2,3.099511E1,2.062103E2,4.9813757E2,3.8565315E3,8.076548E1,4.1741354E2,2.009704E3,4.928711E3,5.515952E2,3.5734394E1,5.5973615E2,6.757257E1,1.2517588E0],"tree_param":{"num_deleted":"0","num_feature":"63","num_nodes":"45","size_leaf_vector":"1"}},{"base_weights":[1.1485273E-2,1.0167807E-1,-1.1084583E0,5.0296396E-1,-6.321814E-2,-1.2132365E0,1.2875766E0,5.461832E-1,-1.10536434E-1,1.8601741E-1,-3.3569956E-1,8.4018594E-1,-1.2670964E0,-7.88617E-2,1.8492295E0,6.923467E-1,-1.1289018E-1,3.2035807E-1,-5.7266575E-1,-4.31217E-1,6.3798857E-1,7.85261E-2,-6.698366E-2,-1.2539115E0,-9.637323E-2,6.728452E-2,1.1108563E-1,1.3289988E-2,4.3079127E-2,-1.0869449E-1,2.2247366E-3,3.964713E-3,2.776284E-2,2.2033125E-2,-6.009097E-2,1.8827397E-3,-3.1783853E-2,4.0426753E-2,-9.124413E-2,-6.179548E-2,-7.738405E-2],"categories":[],"categories_nodes":[],"categories_segments":[],"categories_sizes":[],"default_left":[1,0,1,0,0,0,0,0,0,0,1,0,0,0,0,1,0,1,0,0,0,0,0,0,0,0,0,0,0,0,0,0,0,0,0,0,0,0,0,0,0],"id":19,"left_children":[1,3,5,7,9,11,13,15,-1,17,19,21,23,-1,25,27,29,31,33,35,37,-1,-1,39,-1,-1,-1,-1,-1,-1,-1,-1,-1,-1,-1,-1,-1,-1,-1,-1,-1],"loss_changes":[1.9622588E3,1.1896615E3,3.650498E2,6.1532153E2,8.654729E2,1.5454163E2,1.01303894E2,4.9665796E2,0E0,6.785854E2,5.6648627E2,5.95281E1,9.360352E0,0E0,6.6853943E0,3.0435022E2,3.038853E2,3.20198E2,6.3912537E2,5.3157324E2,2.3008981E2,0E0,0E0,5.1157227E0,0E0,0E0,0E0,0E0,0E0,0E0,0E0,0E0,0E0,0E0,0E0,0E0,0E0,0E0,0E0,0E0,0E0],"parents":[2147483647,0,0,1,1,2,2,3,3,4,4,5,5,6,6,7,7,9,9,10,10,11,11,12,12,14,14,15,15,16,16,17,17,18,18,19,19,20,20,23,23],"right_children":[2,4,6,8,10,12,14,16,-1,18,20,22,24,-1,26,28,30,32,34,36,38,-1,-1,40,-1,-1,-1,-1,-1,-1,-1,-1,-1,-1,-1,-1,-1,-1,-1,-1,-1],"split_conditions":[4.4454016E-2,-2.3529412E-1,2.3376955E4,1E0,2.3255814E-3,2E0,1E0,1E0,-1.10536434E-1,4.0000008E1,8.571E-1,6.325806E-3,1.1851194E0,-7.88617E-2,2.7505455E-5,5.56E-2,2E0,6.344E-1,3.0617932E2,2.9922912E6,1.6981615E4,7.85261E-2,-6.698366E-2,1E0,-9.637323E-2,6.728452E-2,1.1108563E-1,1.3289988E-2,4.3079127E-2,-1.0869449E-1,2.2247366E-3,3.964713E-3,2.776284E-2,2.2033125E-2,-6.009097E-2,1.8827397E-3,-3.1783853E-2,4.0426753E-2,-9.124413E-2,-6.179548E-2,-7.738405E-2],"split_indices":[18,10,32,51,11,13,57,54,0,4,37,17,15,0,5,36,11,36,2,28,31,0,0,41,0,0,0,0,0,0,0,0,0,0,0,0,0,0,0,0,0],"split_type":[0,0,0,0,0,0,0,0,0,0,0,0,0,0,0,0,0,0,0,0,0,0,0,0,0,0,0,0,0,0,0,0,0,0,0,0,0,0,0,0,0],"sum_hessian":[1.94241E4,1.7977242E4,1.4468582E3,5.235137E3,1.27421045E4,1.3867112E3,6.014695E1,5.153854E3,8.128344E1,6.65509E3,6.087015E3,3.506975E1,1.3516415E3,9.562667E0,5.0584282E1,4.218305E3,9.355489E2,5.654432E3,1.0006573E3,5.543739E3,5.43276E2,2.6478104E1,8.591645E0,1.3280249E3,2.3616545E1,2.3469677E1,2.7114607E1,1.1989662E3,3.0193389E3,6.54642E1,8.700847E2,2.7912556E3,2.8631768E3,3.834171E2,6.172402E2,1.6836271E3,3.8601118E3,5.0872037E2,3.4555645E1,1.25625E3,7.177488E1],"tree_param":{"num_deleted":"0","num_feature":"63","num_nodes":"41","size_leaf_vector":"1"}},{"base_weights":[3.3798065E-2,1.5208714E-1,-1.131668E0,3.186729E-1,-1.4769916E-1,-1.1769642E0,1.2797238E0,1.3376796E-2,4.9848044E-1,2.742443E-1,-3.1626615E-1,-6.1906725E-2,8.8148415E-2,8.788308E-2,-5.298186E-2,3.447387E-1,-2.626972E-1,5.396449E-1,-7.192313E-2,-8.8508725E-2,3.399155E-1,-4.3864164E-1,5.930543E-1,1.1313788E0,-6.234776E-2,-3.6372434E-2,2.4023354E-2,8.9451065E-3,-3.9062046E-2,3.044507E-2,-7.2509567E-3,4.0848356E-2,4.5696488E-3,-1.922066E-2,-8.868947E-2,4.5510642E-2,-9.5098E-2,6.57479E-2,-5.006E-2],"categories":[],"categories_nodes":[],"categories_segments":[],"categories_sizes":[],"default_left":[0,0,1,1,0,1,0,0,0,0,0,0,0,0,0,0,1,0,0,0,0,0,0,0,0,0,0,0,0,0,0,0,0,0,0,0,0,0,0],"id":20,"left_children":[1,3,5,7,9,11,13,15,17,19,21,-1,23,-1,-1,25,27,29,-1,-1,31,33,35,37,-1,-1,-1,-1,-1,-1,-1,-1,-1,-1,-1,-1,-1,-1,-1],"loss_changes":[2.6929658E3,8.856673E2,1.9810449E2,6.2576855E2,4.5067188E2,1.3687134E2,3.9502987E1,3.8672122E2,5.7279895E2,2.4346864E2,5.040305E2,0E0,1.16237076E2,0E0,0E0,2.7994635E2,5.2820917E2,3.3322644E2,0E0,0E0,2.0781427E2,2.8825684E2,4.2699365E2,1.9640076E1,0E0,0E0,0E0,0E0,0E0,0E0,0E0,0E0,0E0,0E0,0E0,0E0,0E0,0E0,0E0],"parents":[2147483647,0,0,1,1,2,2,3,3,4,4,5,5,6,6,7,7,8,8,9,9,10,10,12,12,15,15,16,16,17,17,20,20,21,21,22,22,23,23],"right_children":[2,4,6,8,10,12,14,16,18,20,22,-1,24,-1,-1,26,28,30,-1,-1,32,34,36,38,-1,-1,-1,-1,-1,-1,-1,-1,-1,-1,-1,-1,-1,-1,-1],"split_conditions":[1E0,6.25E-2,2.0975822E-1,3.951E-1,3.0685225E6,7.5511577E3,3.3E1,-3.1578946E-1,1E0,7.3E3,1E0,-6.1906725E-2,-3.3333334E-1,8.788308E-2,-5.298186E-2,5E0,8E0,1E0,-7.192313E-2,-8.8508725E-2,1.4E1,1E0,3E1,4.3624536E3,-6.234776E-2,-3.6372434E-2,2.4023354E-2,8.9451065E-3,-3.9062046E-2,3.044507E-2,-7.2509567E-3,4.0848356E-2,4.5696488E-3,-1.922066E-2,-8.868947E-2,4.5510642E-2,-9.5098E-2,6.57479E-2,-5.006E-2],"split_indices":[38,10,22,37,28,33,14,10,62,16,57,0,10,0,0,14,13,54,0,0,14,53,13,31,0,0,0,0,0,0,0,0,0,0,0,0,0,0,0],"split_type":[0,0,0,0,0,0,0,0,0,0,0,0,0,0,0,0,0,0,0,0,0,0,0,0,0,0,0,0,0,0,0,0,0,0,0,0,0,0,0],"sum_hessian":[1.9531545E4,1.7732639E4,1.7989064E3,1.139859E4,6.33405E3,1.7662407E3,3.266564E1,4.2253765E3,7.173213E3,1.8079376E3,4.5261123E3,1.6847991E3,8.144156E1,2.7330587E1,5.335055E0,1.9202815E3,2.3050952E3,7.0246445E3,1.4856825E2,5.5459682E1,1.7524779E3,3.9897E3,5.364124E2,4.580376E1,3.56378E1,2.1528403E2,1.7049976E3,1.2452646E3,1.0598304E3,6.379448E3,6.451963E2,5.994726E2,1.1530054E3,3.8352166E3,1.5448354E2,4.7647906E2,5.9933357E1,4.2526352E1,3.2774098E0],"tree_param":{"num_deleted":"0","num_feature":"63","num_nodes":"39","size_leaf_vector":"1"}},{"base_weights":[5.3570913E-3,8.824736E-2,-1.0687431E0,-7.12073E-2,4.348367E-1,-1.134014E0,1.6913555E0,-1.22074224E-1,7.414052E-1,-1.4998726E0,4.750503E-1,1.4460456E0,-1.1925199E0,1.042638E-1,-5.809647E-2,-5.739499E-1,-2.0117693E-2,8.303161E-1,-1.0057973E-1,-1.0026206E-1,-7.0824966E-2,5.060145E-1,-7.003324E-2,-4.1896347E-2,8.283644E-2,7.794115E-1,-1.2467782E0,6.691649E-2,-3.4902308E-2,5.1117496E-4,-7.6661445E-2,4.4268083E-2,-9.764778E-2,2.9497737E-2,-8.079256E-4,7.307717E-2,-6.3712105E-2,-6.1400663E-2,-9.831887E-2],"categories":[],"categories_nodes":[],"categories_segments":[],"categories_sizes":[],"default_left":[1,1,1,0,1,0,0,0,0,0,0,0,0,0,0,0,1,1,0,0,0,0,0,0,0,0,0,0,0,0,0,0,0,0,0,0,0,0,0],"id":21,"left_children":[1,3,5,7,9,11,13,15,17,19,21,23,25,-1,-1,27,29,31,-1,-1,-1,33,-1,-1,-1,35,37,-1,-1,-1,-1,-1,-1,-1,-1,-1,-1,-1,-1],"loss_changes":[1.6976309E3,9.783057E2,2.480188E2,5.0126062E2,4.3468018E2,2.0325574E2,3.834449E1,5.257203E2,1.7653278E2,1.9552002E0,3.181194E2,1.5850803E1,1.4070984E2,0E0,0E0,4.994395E2,4.275027E2,1.0786282E2,0E0,0E0,0E0,2.3569202E2,0E0,0E0,0E0,5.1717857E1,1.4753906E1,0E0,0E0,0E0,0E0,0E0,0E0,0E0,0E0,0E0,0E0,0E0,0E0],"parents":[2147483647,0,0,1,1,2,2,3,3,4,4,5,5,6,6,7,7,8,8,9,9,10,10,11,11,12,12,15,15,16,16,17,17,21,21,25,25,26,26],"right_children":[2,4,6,8,10,12,14,16,18,20,22,24,26,-1,-1,28,30,32,-1,-1,-1,34,-1,-1,-1,36,38,-1,-1,-1,-1,-1,-1,-1,-1,-1,-1,-1,-1],"split_conditions":[2.6018322E-2,6.588E-1,4.401317E4,1E0,1.435E-1,6.093608E0,7.115688E3,2.995178E3,9.615732E3,4.00001E0,1E0,8.581723E-1,2E0,1.042638E-1,-5.809647E-2,2.511447E2,4.38E2,4.0466705E-1,-1.0057973E-1,-1.0026206E-1,-7.0824966E-2,1.09318964E-1,-7.003324E-2,-4.1896347E-2,8.283644E-2,-6.496815E-1,1.1851194E0,6.691649E-2,-3.4902308E-2,5.1117496E-4,-7.6661445E-2,4.4268083E-2,-9.764778E-2,2.9497737E-2,-8.079256E-4,7.307717E-2,-6.3712105E-2,-6.1400663E-2,-9.831887E-2],"split_indices":[18,37,32,27,36,2,35,35,35,10,62,1,13,0,0,2,13,19,0,0,0,4,0,0,0,10,15,0,0,0,0,0,0,0,0,0,0,0,0],"split_type":[0,0,0,0,0,0,0,0,0,0,0,0,0,0,0,0,0,0,0,0,0,0,0,0,0,0,0,0,0,0,0,0,0,0,0,0,0,0,0],"sum_hessian":[1.906549E4,1.7700434E4,1.3650569E3,1.2123564E4,5.5768696E3,1.3340973E3,3.095962E1,1.1410174E4,7.133904E2,1.1281785E2,5.464052E3,2.905559E1,1.3050417E3,2.7440405E1,3.5192153E0,2.099679E3,9.310495E3,6.9174805E2,2.16423E1,1.2712069E1,1.00105774E2,5.3760347E3,8.8017166E1,2.20242E0,2.685317E1,3.458914E1,1.2704525E3,1.2735765E2,1.9723213E3,9.128443E3,1.8205202E2,6.7900116E2,1.2746911E1,4.6314E3,7.446348E2,2.6181227E1,8.407913E0,1.2408027E3,2.9649834E1],"tree_param":{"num_deleted":"0","num_feature":"63","num_nodes":"39","size_leaf_vector":"1"}},{"base_weights":[2.9936306E-2,1.1540139E-1,-1.091071E0,4.6995953E-1,-2.4240365E-2,-1.185074E0,8.999247E-1,6.9213605E-1,8.744058E-2,4.944974E-3,-7.0253216E-2,6.6122544E-1,-1.2424986E0,1.3823456E0,-8.1250966E-2,7.2747296E-1,-1.0178354E-1,3.861781E-1,-6.2141913E-1,7.80042E-1,-4.7458414E-2,7.703479E-2,-5.673631E-2,-1.2153926E0,-8.687394E-2,-5.548298E-2,7.4711405E-2,-1.0327585E-2,3.977629E-2,-1.6289568E-2,2.9206205E-2,9.476093E-3,-8.432172E-2,-1.5134326E-2,5.3930324E-2,1.2870709E-2,-1.0811539E-2,-5.981895E-2,-7.390218E-2],"categories":[],"categories_nodes":[],"categories_segments":[],"categories_sizes":[],"default_left":[1,0,1,0,0,0,0,0,0,0,0,0,0,1,0,0,0,0,0,1,0,0,0,0,0,0,0,0,0,0,0,0,0,0,0,0,0,0,0],"id":22,"left_children":[1,3,5,7,9,11,13,15,17,19,-1,21,23,25,-1,27,-1,29,31,33,35,-1,-1,37,-1,-1,-1,-1,-1,-1,-1,-1,-1,-1,-1,-1,-1,-1,-1],"loss_changes":[1.8422731E3,8.8460333E2,2.5600842E2,4.2898975E2,5.16614E2,1.3877673E2,7.7745804E1,3.093004E2,3.9327985E2,5.0998224E2,0E0,6.477286E1,1.4824097E1,1.6317932E1,0E0,2.0059778E2,0E0,1.8429837E2,4.75914E2,2.573591E2,6.051882E2,0E0,0E0,4.2248535E0,0E0,0E0,0E0,0E0,0E0,0E0,0E0,0E0,0E0,0E0,0E0,0E0,0E0,0E0,0E0],"parents":[2147483647,0,0,1,1,2,2,3,3,4,4,5,5,6,6,7,7,8,8,9,9,11,11,12,12,13,13,15,15,17,17,18,18,19,19,20,20,23,23],"right_children":[2,4,6,8,10,12,14,16,18,20,-1,22,24,26,-1,28,-1,30,32,34,36,-1,-1,38,-1,-1,-1,-1,-1,-1,-1,-1,-1,-1,-1,-1,-1,-1,-1],"split_conditions":[6.325806E-3,-2.4509804E-1,2.4786857E-1,4E-1,1E0,2.5987279E-2,1.3246968E2,1E0,4.7665737E3,5.475373E-2,-7.0253216E-2,-8.5142857E-1,2.1525E2,-9.229533E-1,-8.1250966E-2,4E0,-1.0178354E-1,2.4623967E3,9.058264E3,6.344E-1,1.2E1,7.703479E-2,-5.673631E-2,1E0,-8.687394E-2,-5.548298E-2,7.4711405E-2,-1.0327585E-2,3.977629E-2,-1.6289568E-2,2.9206205E-2,9.476093E-3,-8.432172E-2,-1.5134326E-2,5.3930324E-2,1.2870709E-2,-1.0811539E-2,-5.981895E-2,-7.390218E-2],"split_indices":[17,10,21,11,62,9,2,41,34,8,0,10,18,15,0,13,0,35,32,36,13,0,0,41,0,0,0,0,0,0,0,0,0,0,0,0,0,0,0],"split_type":[0,0,0,0,0,0,0,0,0,0,0,0,0,0,0,0,0,0,0,0,0,0,0,0,0,0,0,0,0,0,0,0,0,0,0,0,0,0,0],"sum_hessian":[1.9226693E4,1.7865531E4,1.3611628E3,5.047439E3,1.2818092E4,1.3001808E3,6.0982067E1,3.1924026E3,1.8550363E3,1.255375E4,2.6434186E2,3.8901955E1,1.2612788E3,5.1579674E1,9.402391E0,3.1523E3,4.0102634E1,1.305366E3,5.496703E2,7.941161E2,1.1759634E4,2.620943E1,1.2692524E1,1.199071E3,6.220778E1,1.8330634E0,4.9746613E1,2.139402E2,2.9383599E3,2.838331E2,1.0215329E3,3.1252472E2,2.3714555E2,1.7164406E2,6.2247205E2,4.190085E3,7.5695493E3,1.123308E3,7.576305E1],"tree_param":{"num_deleted":"0","num_feature":"63","num_nodes":"39","size_leaf_vector":"1"}},{"base_weights":[1.6198078E-2,1.1975346E-1,-1.0539138E0,1.4474738E-1,-7.090696E-2,-1.099157E0,1.0976075E0,1.8011515E-1,-9.39971E-1,-1.164559E0,1.9331227E-1,8.316095E-2,-5.3287532E-2,3.5735297E-1,-1.9651199E-2,-1.1960417E0,6.116413E-1,-3.115857E-1,-1.2052169E0,9.130636E-1,-6.1096843E-2,-6.484953E-2,2.0089807E-2,4.6390135E-2,-3.8835634E-3,6.567024E-2,-6.874657E-2,6.1026603E-2,-9.0961374E-2,5.8819115E-2,-6.009967E-2,-6.26882E-2,-5.9199817E-2,6.0978007E-2,-5.4687407E-2],"categories":[],"categories_nodes":[],"categories_segments":[],"categories_sizes":[],"default_left":[0,0,1,0,0,1,0,0,1,0,0,0,0,1,0,0,0,0,1,0,0,0,0,0,0,0,0,0,0,0,0,0,0,0,0],"id":23,"left_children":[1,3,5,7,-1,9,11,13,15,17,19,-1,-1,21,23,25,27,29,31,33,-1,-1,-1,-1,-1,-1,-1,-1,-1,-1,-1,-1,-1,-1,-1],"loss_changes":[2.101403E3,6.647871E2,1.6407397E2,6.52901E2,0E0,1.3878625E2,4.454979E1,5.834203E2,2.1425192E2,5.373877E1,8.2411896E1,0E0,0E0,6.4247986E2,4.2596188E2,2.0902924E2,1.1587658E2,9.725992E1,4.9560547E-2,3.422626E1,0E0,0E0,0E0,0E0,0E0,0E0,0E0,0E0,0E0,0E0,0E0,0E0,0E0,0E0,0E0],"parents":[2147483647,0,0,1,1,2,2,3,3,5,5,6,6,7,7,8,8,9,9,10,10,13,13,14,14,15,15,16,16,17,17,18,18,19,19],"right_children":[2,4,6,8,-1,10,12,14,16,18,20,-1,-1,22,24,26,28,30,32,34,-1,-1,-1,-1,-1,-1,-1,-1,-1,-1,-1,-1,-1,-1,-1],"split_conditions":[1E0,1E0,1.6728539E3,1E0,-7.090696E-2,1.8476943E4,3.3E1,1.5384616E-1,1.3995991E4,4.077162E-2,3.965E-1,8.316095E-2,-5.3287532E-2,8.5255585E2,5.764153E-1,9.6884384E1,1.6868564E4,-2.4509804E-1,2.6018322E-2,5.9E1,-6.1096843E-2,-6.484953E-2,2.0089807E-2,4.6390135E-2,-3.8835634E-3,6.567024E-2,-6.874657E-2,6.1026603E-2,-9.0961374E-2,5.8819115E-2,-6.009967E-2,-6.26882E-2,-5.9199817E-2,6.0978007E-2,-5.4687407E-2],"split_indices":[38,62,3,51,0,34,14,12,34,6,36,0,0,34,19,31,34,10,18,14,0,0,0,0,0,0,0,0,0,0,0,0,0,0,0],"split_type":[0,0,0,0,0,0,0,0,0,0,0,0,0,0,0,0,0,0,0,0,0,0,0,0,0,0,0,0,0,0,0,0,0,0,0],"sum_hessian":[1.896088E4,1.7288729E4,1.6721527E3,1.7013137E4,2.7559253E2,1.6381931E3,3.3959545E1,1.6476738E4,5.3639825E2,1.5593835E3,7.880955E1,2.7104294E1,6.8552513E0,8.730249E3,7.746489E3,4.6061047E2,7.5787766E1,7.13421E1,1.4880415E3,5.247649E1,2.633306E1,2.276609E2,8.502588E3,4.461399E2,7.300349E3,3.022835E1,4.3038214E2,6.1004974E1,1.4782794E1,2.658856E1,4.4753544E1,4.3493796E2,1.0531035E3,4.586405E1,6.6124406E0],"tree_param":{"num_deleted":"0","num_feature":"63","num_nodes":"35","size_leaf_vector":"1"}},{"base_weights":[4.6844225E-2,1.5092187E-1,-1.1583351E0,5.047078E-1,2.2408804E-3,-5.972848E-2,4.1228002E-1,7.00338E-1,1.6404517E-1,-1.5006252E-1,3.613364E-1,6.255193E-2,-5.8376845E-2,7.2434586E-1,-1.0634243E-1,3.4388885E-1,-4.2270482E-1,-2.6226345E-1,4.3430012E-1,5.024193E-1,-2.9817072E-1,4.4981E-2,2.1161474E-2,2.5309948E-2,-3.2626398E-2,3.5570636E-2,-7.9717405E-2,1.2950949E-2,-1.9724892E-2,-8.7910436E-2,2.7544374E-2,-1.04638115E-1,2.7444616E-2,9.0009935E-2,-3.0764235E-2],"categories":[],"categories_nodes":[],"categories_segments":[],"categories_sizes":[],"default_left":[0,0,1,0,1,0,0,0,1,1,0,0,0,1,0,1,0,0,0,0,0,0,0,0,0,0,0,0,0,0,0,0,0,0,0],"id":24,"left_children":[1,3,5,7,9,-1,11,13,15,17,19,-1,-1,21,-1,23,25,27,29,31,33,-1,-1,-1,-1,-1,-1,-1,-1,-1,-1,-1,-1,-1,-1],"loss_changes":[2.4240303E3,9.357105E2,8.792139E1,3.5068054E2,6.85122E2,0E0,4.835009E1,2.284668E2,2.029001E2,5.768511E2,3.4727942E2,0E0,0E0,1.7462573E2,0E0,2.3826625E2,6.007019E2,5.0881754E2,3.6324725E2,3.7185394E2,4.3900638E2,0E0,0E0,0E0,0E0,0E0,0E0,0E0,0E0,0E0,0E0,0E0,0E0,0E0,0E0],"parents":[2147483647,0,0,1,1,2,2,3,3,4,4,6,6,7,7,8,8,9,9,10,10,13,13,15,15,16,16,17,17,18,18,19,19,20,20],"right_children":[2,4,6,8,10,-1,12,14,16,18,20,-1,-1,22,-1,24,26,28,30,32,34,-1,-1,-1,-1,-1,-1,-1,-1,-1,-1,-1,-1,-1,-1],"split_conditions":[1E0,-2.4509804E-1,2.935415E4,4.5945945E-1,7.081E-1,-5.972848E-2,-3.3333334E-1,2.1251008E4,4.5633775E5,1.2130977E4,2.84188E-1,6.255193E-2,-5.8376845E-2,-1.5384615E-2,-1.0634243E-1,9E0,6.865E-1,-2.2727273E-1,3.4000078E3,1.2473713E3,4.024625E2,4.4981E-2,2.1161474E-2,2.5309948E-2,-3.2626398E-2,3.5570636E-2,-7.9717405E-2,1.2950949E-2,-1.9724892E-2,-8.7910436E-2,2.7544374E-2,-1.04638115E-1,2.7444616E-2,9.0009935E-2,-3.0764235E-2],"split_indices":[38,10,35,11,36,0,10,35,28,34,5,0,0,12,0,14,36,12,33,34,34,0,0,0,0,0,0,0,0,0,0,0,0,0,0],"split_type":[0,0,0,0,0,0,0,0,0,0,0,0,0,0,0,0,0,0,0,0,0,0,0,0,0,0,0,0,0,0,0,0,0,0,0],"sum_hessian":[1.9323027E4,1.7787775E4,1.5352532E3,5.26273E3,1.2525044E4,1.5008672E3,3.4386E1,3.342308E3,1.920422E3,8.795279E3,3.729765E3,2.2596926E1,1.1789078E1,3.3149023E3,2.740566E1,1.4702058E3,4.5021622E2,7.3790176E3,1.416262E3,3.0726885E3,6.5707654E2,2.0940237E3,1.2208787E3,1.264688E3,2.0551784E2,2.2897128E2,2.2124492E2,1.4928966E3,5.886121E3,7.079678E1,1.3454652E3,5.3281322E1,3.019407E3,8.564954E1,5.71427E2],"tree_param":{"num_deleted":"0","num_feature":"63","num_nodes":"35","size_leaf_vector":"1"}},{"base_weights":[-4.2539113E-3,8.6657435E-2,-9.8761916E-1,3.4326974E-1,-1.1107028E-1,-1.0855585E0,3.6494523E-1,3.7574098E-1,-1.3603829E0,2.49248E-1,-2.4024762E-1,-1.1379206E0,1.3038903E0,9.2810786E-1,-5.880406E-2,6.2170553E-1,1.727142E-1,1.3451397E0,-1.0170175E-1,-9.247537E-2,3.03244E-1,-9.231227E-1,-1.3162322E-1,-5.912922E-2,1.1829251E0,8.2999915E-2,-4.7903415E-2,1.1754072E0,-5.5666983E-2,5.030924E-3,3.7598725E-2,1.3506176E-2,-2.4804918E-2,-5.6381226E-2,7.6246716E-2,-8.854071E-2,1.785983E-2,1.3424269E-2,-5.8970213E-2,4.6369857E-3,-2.4863755E-2,7.084564E-2,-4.37428E-2,-4.75139E-2,6.4331934E-2],"categories":[],"categories_nodes":[],"categories_segments":[],"categories_sizes":[],"default_left":[0,0,1,0,0,1,0,0,0,0,0,1,0,0,0,1,0,1,0,0,0,0,0,0,0,0,0,0,0,0,0,0,0,0,0,0,0,0,0,0,0,0,0,0,0],"id":25,"left_children":[1,3,5,7,9,11,13,15,17,19,21,23,25,27,-1,29,31,33,-1,-1,35,37,39,-1,41,-1,-1,43,-1,-1,-1,-1,-1,-1,-1,-1,-1,-1,-1,-1,-1,-1,-1,-1,-1],"loss_changes":[1.657131E3,8.609699E2,2.0819409E2,4.0902325E2,4.4615457E2,1.8452698E2,9.366065E1,3.6180023E2,2.5485748E2,2.8724225E2,5.2322815E2,1.4985168E2,2.723605E1,4.1028244E1,0E0,2.2235132E2,2.588736E2,1.42476425E1,0E0,0E0,2.7670868E2,2.959655E2,4.9952377E2,0E0,1.4500275E1,0E0,0E0,1.7930145E1,0E0,0E0,0E0,0E0,0E0,0E0,0E0,0E0,0E0,0E0,0E0,0E0,0E0,0E0,0E0,0E0,0E0],"parents":[2147483647,0,0,1,1,2,2,3,3,4,4,5,5,6,6,7,7,8,8,9,9,10,10,11,11,12,12,13,13,15,15,16,16,17,17,20,20,21,21,22,22,24,24,27,27],"right_children":[2,4,6,8,10,12,14,16,18,20,22,24,26,28,-1,30,32,34,-1,-1,36,38,40,-1,42,-1,-1,44,-1,-1,-1,-1,-1,-1,-1,-1,-1,-1,-1,-1,-1,-1,-1,-1,-1],"split_conditions":[1E0,-8.2408875E-2,6.8327036E3,1E0,2.9922912E6,2.0975822E-1,7.6E1,-4.996669E-3,8.659355E1,2E0,1.1584777E7,7.6101947E-1,3.3E1,-1.6393442E-2,-5.880406E-2,3.4336855E3,1E0,9.54621E1,-1.0170175E-1,-9.247537E-2,8.80513E4,-6.363636E-1,7.7250996E0,-5.912922E-2,8.4228045E-1,8.2999915E-2,-4.7903415E-2,1.0808102E4,-5.5666983E-2,5.030924E-3,3.7598725E-2,1.3506176E-2,-2.4804918E-2,-5.6381226E-2,7.6246716E-2,-8.854071E-2,1.785983E-2,1.3424269E-2,-5.8970213E-2,4.6369857E-3,-2.4863755E-2,7.084564E-2,-4.37428E-2,-4.75139E-2,6.4331934E-2],"split_indices":[38,10,33,51,28,22,14,12,16,13,30,4,14,10,0,34,54,2,0,0,28,12,4,0,4,0,0,35,0,0,0,0,0,0,0,0,0,0,0,0,0,0,0,0,0],"split_type":[0,0,0,0,0,0,0,0,0,0,0,0,0,0,0,0,0,0,0,0,0,0,0,0,0,0,0,0,0,0,0,0,0,0,0,0,0,0,0,0,0,0,0,0,0],"sum_hessian":[1.8534379E4,1.696673E4,1.567649E3,7.383561E3,9.583169E3,1.4619839E3,1.0566508E2,7.246229E3,1.373321E2,2.528742E3,7.054427E3,1.4311458E3,3.0838129E1,7.767629E1,2.7988789E1,3.275698E3,3.970531E3,2.7178995E1,1.1015312E2,6.259265E1,2.4661494E3,9.671116E2,6.087315E3,1.4046052E3,2.6540619E1,2.687347E1,3.9646585E0,6.966175E1,8.014541E0,6.5548285E2,2.620215E3,3.4662803E3,5.042509E2,1.4849075E0,2.5694088E1,6.171883E1,2.4044304E3,1.7117374E2,7.959378E2,3.7729749E3,2.31434E3,2.4110483E1,2.4301357E0,3.0888638E0,6.657288E1],"tree_param":{"num_deleted":"0","num_feature":"63","num_nodes":"45","size_leaf_vector":"1"}},{"base_weights":[3.749842E-2,1.2779462E-1,-1.0101061E0,2.9087034E-1,-1.01509474E-1,1.0454056E-1,-1.1271511E0,3.2449502E-1,-6.842978E-2,-1.7317343E0,-6.755231E-2,1.3290384E0,-5.751702E-2,-5.863104E-2,-1.7543087E-2,3.5548577E-1,-1.4534605E0,-8.8869035E-2,-6.7838475E-2,-1.3819311E0,-3.6625028E-2,-4.4190556E-2,1.4158303E0,-5.913365E-2,6.5520935E-2,2.375991E-2,2.7738756E-3,-6.954413E-2,-9.322562E-2,-9.6991755E-2,3.7055384E-2,-3.8641996E-3,4.701137E-2,-3.4901157E-2,7.296734E-2],"categories":[],"categories_nodes":[],"categories_segments":[],"categories_sizes":[],"default_left":[0,0,0,0,0,0,1,0,0,1,0,0,0,0,0,0,0,0,0,1,0,0,0,0,0,0,0,0,0,0,0,0,0,0,0],"id":26,"left_children":[1,3,5,7,9,11,13,15,-1,17,19,21,-1,-1,23,25,27,-1,-1,29,31,-1,33,-1,-1,-1,-1,-1,-1,-1,-1,-1,-1,-1,-1],"loss_changes":[1.7752777E3,6.4610657E2,1.9441028E2,5.6385583E2,3.9743097E2,2.2039388E2,6.798096E1,5.458679E2,0E0,9.5825195E-2,2.8596106E2,1.5185852E1,0E0,0E0,8.521201E1,3.493766E2,1.7733765E0,0E0,0E0,1.9298956E2,2.7314093E2,0E0,7.4761963E0,0E0,0E0,0E0,0E0,0E0,0E0,0E0,0E0,0E0,0E0,0E0,0E0],"parents":[2147483647,0,0,1,1,2,2,3,3,4,4,5,5,6,6,7,7,9,9,10,10,11,11,14,14,15,15,16,16,19,19,20,20,22,22],"right_children":[2,4,6,8,10,12,14,16,-1,18,20,22,-1,-1,24,26,28,-1,-1,30,32,-1,34,-1,-1,-1,-1,-1,-1,-1,-1,-1,-1,-1,-1],"split_conditions":[1E0,2.7272728E-1,1.887338E-7,1E0,2.695078E2,3.7E1,1.8476943E4,1.2211867E7,-6.842978E-2,2.6018322E-2,3.3870968E-1,2.9308245E3,-5.751702E-2,-5.863104E-2,1E0,2.7777778E-2,1E0,-8.8869035E-2,-6.7838475E-2,9.211E-1,1E0,-4.4190556E-2,2.1547458E2,-5.913365E-2,6.5520935E-2,2.375991E-2,2.7738756E-3,-6.954413E-2,-9.322562E-2,-9.6991755E-2,3.7055384E-2,-3.8641996E-3,4.701137E-2,-3.4901157E-2,7.296734E-2],"split_indices":[38,12,21,62,2,13,34,31,0,18,12,31,0,0,61,10,25,0,0,36,60,0,3,0,0,0,0,0,0,0,0,0,0,0,0],"split_type":[0,0,0,0,0,0,0,0,0,0,0,0,0,0,0,0,0,0,0,0,0,0,0,0,0,0,0,0,0,0,0,0,0,0,0],"sum_hessian":[1.8764834E4,1.727659E4,1.4882435E3,1.0096165E4,7.1804243E3,1.4143471E2,1.3468088E3,9.896444E3,1.9972076E2,1.4549434E2,7.03493E3,7.155404E1,6.988068E1,1.2937372E3,5.3071632E1,9.727686E3,1.68759E2,1.2637048E2,1.9123861E1,1.60722E2,6.874208E3,2.3539693E0,6.9200066E1,2.832723E1,2.47444E1,6.9527446E3,2.774941E3,1.5026634E2,1.8492659E1,1.2734409E2,3.3377903E1,6.6004043E3,2.7380392E2,1.0924611E0,6.8107605E1],"tree_param":{"num_deleted":"0","num_feature":"63","num_nodes":"35","size_leaf_vector":"1"}},{"base_weights":[-9.418982E-3,7.762464E-2,-1.040217E0,2.399671E-1,-1.5993957E-1,-1.0897995E0,1.1870999E0,2.6931673E-1,-6.837069E-2,5.687133E-1,-3.341211E-1,-5.812168E-2,2.870658E-1,7.788706E-2,-4.7806934E-2,4.8653126E-1,6.422431E-2,6.64802E-1,-8.2010254E-2,-9.1321655E-2,-2.8640443E-1,9.600954E-1,-5.7637908E-2,3.2228615E-2,8.346779E-3,1.4107413E-2,-2.0139387E-2,3.9427415E-2,-4.300516E-2,-1.00531094E-1,-1.2593053E-2,6.0313135E-2,-5.1754005E-2],"categories":[],"categories_nodes":[],"categories_segments":[],"categories_sizes":[],"default_left":[0,0,1,0,0,1,0,0,0,0,0,0,0,0,0,0,0,1,0,0,0,0,0,0,0,0,0,0,0,0,0,0,0],"id":27,"left_children":[1,3,5,7,9,11,13,15,-1,17,19,-1,21,-1,-1,23,25,27,-1,-1,29,31,-1,-1,-1,-1,-1,-1,-1,-1,-1,-1,-1],"loss_changes":[1.6299944E3,6.461159E2,1.5751587E2,4.6986542E2,8.6337946E2,1.3877515E2,2.6340038E1,4.3540887E2,0E0,2.796715E2,3.9038574E2,0E0,6.9104095E1,0E0,0E0,2.3964783E2,5.1189346E2,2.3815863E2,0E0,0E0,3.1639926E2,2.5002045E1,0E0,0E0,0E0,0E0,0E0,0E0,0E0,0E0,0E0,0E0,0E0],"parents":[2147483647,0,0,1,1,2,2,3,3,4,4,5,5,6,6,7,7,9,9,10,10,12,12,15,15,16,16,17,17,20,20,21,21],"right_children":[2,4,6,8,10,12,14,16,-1,18,20,-1,22,-1,-1,24,26,28,-1,-1,30,32,-1,-1,-1,-1,-1,-1,-1,-1,-1,-1,-1],"split_conditions":[1E0,2.7505455E-5,2.0975822E-1,1E0,3.1433258E2,1.8476943E4,3.3E1,-9.52381E-2,-6.837069E-2,1.8695693E0,4.8673288E2,-5.812168E-2,5.9E1,7.788706E-2,-4.7806934E-2,4.6747968E-2,2.8E1,5.807148E-3,-8.2010254E-2,-9.1321655E-2,-8.2051283E-1,3.965E-1,-5.7637908E-2,3.2228615E-2,8.346779E-3,1.4107413E-2,-2.0139387E-2,3.9427415E-2,-4.300516E-2,-1.00531094E-1,-1.2593053E-2,6.0313135E-2,-5.1754005E-2],"split_indices":[38,5,22,62,2,34,14,10,0,19,3,0,14,0,0,11,14,6,0,0,11,36,0,0,0,0,0,0,0,0,0,0,0],"split_type":[0,0,0,0,0,0,0,0,0,0,0,0,0,0,0,0,0,0,0,0,0,0,0,0,0,0,0,0,0,0,0,0,0],"sum_hessian":[1.8164781E4,1.6751186E4,1.4135948E3,9.951021E3,6.800164E3,1.3833115E3,3.0283325E1,9.773398E3,1.7762292E2,1.3115012E3,5.4886626E3,1.314142E3,6.9169495E1,2.605132E1,4.2320056E0,4.745763E3,5.0276357E3,1.2574987E3,5.400258E1,1.689073E2,5.3197554E3,4.7363255E1,2.1806238E1,3.1747988E3,1.570964E3,3.4282786E3,1.5993573E3,1.1635586E3,9.394005E1,1.03360405E2,5.216395E3,4.2513317E1,4.849938E0],"tree_param":{"num_deleted":"0","num_feature":"63","num_nodes":"33","size_leaf_vector":"1"}},{"base_weights":[-5.0408166E-2,2.5598004E-2,-9.492703E-1,2.036901E-1,-2.2869484E-1,-1.0519104E0,3.674582E-1,-1.4633714E0,2.3730743E-1,6.8834674E-1,-2.9782712E-1,2.1716192E-1,-5.7629045E-2,1.1206306E0,-5.7629194E-2,-6.831272E-2,-9.402352E-2,2.6817235E-1,-6.64054E-2,-6.049574E-1,1.4180969E0,-4.453738E-1,1.03701405E-1,-5.7537843E-2,7.217797E-2,-4.796572E-2,1.2669818E0,2.4855362E-2,4.489876E-3,4.456112E-2,-8.5522585E-2,7.73516E-2,-7.753005E-2,-2.5852565E-2,5.1674522E-2,1.0583909E-2,-9.028171E-2,6.588949E-2,-3.4988914E-2],"categories":[],"categories_nodes":[],"categories_segments":[],"categories_sizes":[],"default_left":[0,0,1,1,0,0,0,0,0,1,1,0,0,1,0,0,0,0,0,0,0,1,1,0,0,0,0,0,0,0,0,0,0,0,0,0,0,0,0],"id":28,"left_children":[1,3,5,7,9,11,13,15,17,19,21,23,-1,25,-1,-1,-1,27,-1,29,31,33,35,-1,-1,-1,37,-1,-1,-1,-1,-1,-1,-1,-1,-1,-1,-1,-1],"loss_changes":[1.2095662E3,7.393637E2,1.8694006E2,5.3843665E2,4.2651596E2,1.6388171E2,1.1641793E2,5.124481E0,4.551383E2,4.460393E2,3.7054468E2,1.6099135E2,0E0,2.1838371E1,0E0,0E0,0E0,3.7693146E2,0E0,2.8411295E2,1.1793622E2,4.8532477E2,3.4700754E2,0E0,0E0,0E0,7.290123E0,0E0,0E0,0E0,0E0,0E0,0E0,0E0,0E0,0E0,0E0,0E0,0E0],"parents":[2147483647,0,0,1,1,2,2,3,3,4,4,5,5,6,6,7,7,8,8,9,9,10,10,11,11,13,13,17,17,19,19,20,20,21,21,22,22,26,26],"right_children":[2,4,6,8,10,12,14,16,18,20,22,24,-1,26,-1,-1,-1,28,-1,30,32,34,36,-1,-1,-1,38,-1,-1,-1,-1,-1,-1,-1,-1,-1,-1,-1,-1],"split_conditions":[1E0,2.7272728E-1,6.8327036E3,4.024625E2,6.325596E2,7.1652406E5,5.0904346E3,1E0,1E0,5E-1,1.1826276E4,5.743119E5,-5.7629045E-2,6.4624004E3,-5.7629194E-2,-6.831272E-2,-9.402352E-2,-7.42019E-2,-6.64054E-2,2.7797225E5,1.1111111E-1,2.84188E-1,8.125E-1,-5.7537843E-2,7.217797E-2,-4.796572E-2,8.977323E3,2.4855362E-2,4.489876E-3,4.456112E-2,-8.5522585E-2,7.73516E-2,-7.753005E-2,-2.5852565E-2,5.1674522E-2,1.0583909E-2,-9.028171E-2,6.588949E-2,-3.4988914E-2],"split_indices":[38,12,33,34,31,29,31,25,62,36,32,29,0,32,0,0,0,11,0,28,10,5,11,0,0,0,32,0,0,0,0,0,0,0,0,0,0,0,0],"split_type":[0,0,0,0,0,0,0,0,0,0,0,0,0,0,0,0,0,0,0,0,0,0,0,0,0,0,0,0,0,0,0,0,0,0,0,0,0,0,0],"sum_hessian":[1.7703309E4,1.6323956E4,1.3793528E3,9.60051E3,6.7234463E3,1.279793E3,9.9559845E1,1.8893266E2,9.411577E3,4.7069592E2,6.25275E3,9.397438E1,1.1858186E3,6.674889E1,3.2810947E1,1.5671811E2,3.2214546E1,9.230412E3,1.8116519E2,1.6984973E2,3.008462E2,4.5724404E3,1.6803097E3,4.4453167E1,4.952121E1,4.022746E0,6.272615E1,4.04153E3,5.188882E3,7.225432E1,9.759542E1,2.887828E2,1.2063386E1,4.361689E3,2.1075162E2,1.5912125E3,8.9097145E1,6.1468193E1,1.2579573E0],"tree_param":{"num_deleted":"0","num_feature":"63","num_nodes":"39","size_leaf_vector":"1"}},{"base_weights":[7.5337286E-3,8.460833E-2,-9.69277E-1,3.0630287E-2,6.9795287E-1,-3.579218E-1,-5.711704E-2,6.968901E-2,-6.3513464E-1,7.712116E-1,-4.9145618E-1,1.0974302E0,-6.9833183E-1,3.7017772E-1,-1.0510749E-2,1.2942975E0,-7.826901E-1,-1.1124438E-1,7.940865E-1,1.5661666E0,-9.6217744E-2,7.064977E-2,-5.1657617E-2,-5.7629973E-2,8.220772E-1,-7.564539E-2,2.2513455E-2,4.7436435E-4,-6.984428E-2,8.124965E-2,-6.85266E-2,4.9538914E-2,-4.8306447E-2,4.057057E-2,-1.118469E-1,1.0615897E-1,-7.2594814E-2,6.3051574E-2,-5.472895E-2],"categories":[],"categories_nodes":[],"categories_segments":[],"categories_sizes":[],"default_left":[0,0,0,0,0,0,0,0,0,0,0,0,1,1,1,0,0,0,0,0,0,0,0,0,0,0,0,0,0,0,0,0,0,0,0,0,0,0,0],"id":29,"left_children":[1,3,5,7,9,11,-1,13,15,17,19,21,23,25,27,29,31,-1,33,35,-1,-1,-1,-1,37,-1,-1,-1,-1,-1,-1,-1,-1,-1,-1,-1,-1,-1,-1],"loss_changes":[1.3625901E3,5.553454E2,1.3963416E2,4.0099905E2,1.1860571E2,1.4616168E2,0E0,3.5101828E2,2.4430582E2,8.938873E1,2.3691539E2,3.9125534E1,1.656446E2,4.6347446E2,3.187902E2,5.6060364E1,2.594184E2,0E0,6.848157E1,5.875773E1,0E0,0E0,0E0,0E0,4.8023617E1,0E0,0E0,0E0,0E0,0E0,0E0,0E0,0E0,0E0,0E0,0E0,0E0,0E0,0E0],"parents":[2147483647,0,0,1,1,2,2,3,3,4,4,5,5,7,7,8,8,9,9,10,10,11,11,12,12,13,13,14,14,15,15,16,16,18,18,19,19,24,24],"right_children":[2,4,6,8,10,12,-1,14,16,18,20,22,24,26,28,30,32,-1,34,36,-1,-1,-1,-1,38,-1,-1,-1,-1,-1,-1,-1,-1,-1,-1,-1,-1,-1,-1],"split_conditions":[1E0,1E0,8.8E1,1E0,4.6707706E0,7.1652406E5,-5.711704E-2,5.1241343E3,8.980125E1,8E0,3.315E-1,1.887338E-7,6.8327036E3,-8.2051283E-1,4.98E2,1.27007225E2,-8.278146E-1,-1.1124438E-1,7.83E2,2.5299104E3,-9.6217744E-2,7.064977E-2,-5.1657617E-2,-5.7629973E-2,7.637031E3,-7.564539E-2,2.2513455E-2,4.7436435E-4,-6.984428E-2,8.124965E-2,-6.85266E-2,4.9538914E-2,-4.8306447E-2,4.057057E-2,-1.118469E-1,1.0615897E-1,-7.2594814E-2,6.3051574E-2,-5.472895E-2],"split_indices":[38,27,13,41,5,29,0,33,32,13,37,21,33,11,13,2,12,0,13,35,0,0,0,0,33,0,0,0,0,0,0,0,0,0,0,0,0,0,0],"split_type":[0,0,0,0,0,0,0,0,0,0,0,0,0,0,0,0,0,0,0,0,0,0,0,0,0,0,0,0,0,0,0,0,0,0,0,0,0,0,0],"sum_hessian":[1.809645E4,1.6773834E4,1.3226149E3,1.5418007E4,1.3558281E3,2.9248096E2,1.0301339E3,1.4564443E4,8.535634E2,1.2774955E3,7.833263E1,5.5022003E1,2.3745895E2,3.0675344E3,1.1496908E4,6.0087616E1,7.934758E2,8.950223E0,1.2685453E3,3.211825E1,4.621437E1,4.8217247E1,6.804757E0,1.8301859E2,5.4440357E1,1.2441587E2,2.9431187E3,1.1334406E4,1.6250221E2,5.380129E1,6.2863297E0,7.396719E1,7.195086E2,1.2620638E3,6.481453E0,2.7364397E1,4.753855E0,4.457404E1,9.866317E0],"tree_param":{"num_deleted":"0","num_feature":"63","num_nodes":"39","size_leaf_vector":"1"}},{"base_weights":[4.469968E-2,1.1774003E-1,-9.319949E-1,1.3888505E-1,-6.687117E-2,-1.0356703E0,3.6283687E-1,8.8311784E-2,7.02924E-1,2.3205638E-1,-5.680081E-2,1.0531006E0,-5.6498747E-2,3.6248006E-2,5.574737E-1,-1.1289143E-1,7.297742E-1,-5.644353E-2,6.811147E-2,-4.843826E-2,1.2156336E0,3.710155E-2,-4.2276044E-4,-1.0661107E-1,3.1004658E-2,-9.7688265E-2,3.765215E-2,6.375908E-2,-3.7382554E-2],"categories":[],"categories_nodes":[],"categories_segments":[],"categories_sizes":[],"default_left":[0,0,1,0,0,0,0,0,0,0,0,0,0,0,0,0,1,0,0,0,0,0,0,0,0,0,0,0,0],"id":30,"left_children":[1,3,5,7,-1,9,11,13,15,17,-1,19,-1,21,23,-1,25,-1,-1,-1,27,-1,-1,-1,-1,-1,-1,-1,-1],"loss_changes":[1.3099272E3,5.2585315E2,1.7188965E2,4.8031137E2,0E0,1.5077869E2,9.955125E1,3.7750632E2,1.1179486E2,1.3629749E2,0E0,2.2798111E1,0E0,4.3897055E2,2.6133313E2,0E0,8.725891E1,0E0,0E0,0E0,8.124588E0,0E0,0E0,0E0,0E0,0E0,0E0,0E0,0E0],"parents":[2147483647,0,0,1,1,2,2,3,3,5,5,6,6,7,7,8,8,9,9,11,11,13,13,14,14,16,16,20,20],"right_children":[2,4,6,8,-1,10,12,14,16,18,-1,20,-1,22,24,-1,26,-1,-1,-1,28,-1,-1,-1,-1,-1,-1,-1,-1],"split_conditions":[1E0,1E0,6.8327036E3,1E0,-6.687117E-2,7.1652406E5,5.0904346E3,1E0,-7.8159755E-1,5.743119E5,-5.680081E-2,1.1887305E4,-5.6498747E-2,5.475373E-2,1.6716961E0,-1.1289143E-1,1.0226681E3,-5.644353E-2,6.811147E-2,-4.843826E-2,-1.6393442E-2,3.710155E-2,-4.2276044E-4,-1.0661107E-1,3.1004658E-2,-9.7688265E-2,3.765215E-2,6.375908E-2,-3.7382554E-2],"split_indices":[38,62,33,27,0,29,31,57,10,29,0,34,0,8,19,0,33,0,0,0,10,0,0,0,0,0,0,0,0],"split_type":[0,0,0,0,0,0,0,0,0,0,0,0,0,0,0,0,0,0,0,0,0,0,0,0,0,0,0,0,0],"sum_hessian":[1.8359697E4,1.7083053E4,1.2766458E3,1.6839266E4,2.4378738E2,1.1821897E3,9.445617E1,1.545471E4,1.3845549E3,8.661539E1,1.0955742E3,6.479162E1,2.966455E1,1.3911952E4,1.5427582E3,1.1696528E1,1.3728584E3,3.9296562E1,4.731882E1,4.4518185E0,6.0339798E1,8.277456E2,1.3084206E4,3.4348206E1,1.50841E3,1.1088451E1,1.3617699E3,5.8903694E1,1.4361067E0],"tree_param":{"num_deleted":"0","num_feature":"63","num_nodes":"29","size_leaf_vector":"1"}},{"base_weights":[3.311174E-2,1.02125406E-1,-9.246446E-1,1.2220632E-1,-6.585648E-2,-2.6193303E-1,-5.6352597E-2,8.1734127E-1,7.8652285E-2,-5.6572534E-2,3.7082174E-1,9.3634397E-1,-7.713467E-1,2.8923288E-2,6.600551E-1,6.9165933E-1,-5.4297127E-2,5.0831456E-2,-3.0188793E-2,-9.371311E-2,6.3331135E-2,4.3977285E-3,-3.0750751E-2,-9.547626E-2,3.4965485E-2,-5.5027124E-2,4.6210315E-2],"categories":[],"categories_nodes":[],"categories_segments":[],"categories_sizes":[],"default_left":[0,0,0,0,0,1,0,0,0,0,1,0,1,1,0,0,0,0,0,0,0,0,0,0,0,0,0],"id":31,"left_children":[1,3,5,7,-1,9,-1,11,13,-1,15,17,19,21,23,25,-1,-1,-1,-1,-1,-1,-1,-1,-1,-1,-1],"loss_changes":[1.2047479E3,4.8469122E2,1.6403601E2,5.0750623E2,0E0,1.5883699E2,0E0,1.8758136E2,4.5614764E2,0E0,7.89952E1,1.1436365E2,1.58419E2,5.525787E2,1.2672528E2,5.8449814E1,0E0,0E0,0E0,0E0,0E0,0E0,0E0,0E0,0E0,0E0,0E0],"parents":[2147483647,0,0,1,1,2,2,3,3,5,5,7,7,8,8,10,10,11,11,12,12,13,13,14,14,15,15],"right_children":[2,4,6,8,-1,10,-1,12,14,-1,16,18,20,22,24,26,-1,-1,-1,-1,-1,-1,-1,-1,-1,-1,-1],"split_conditions":[1E0,1E0,8.8E1,5.475373E-2,-6.585648E-2,8.0652207E3,-5.6352597E-2,1.3043478E-1,1E0,-5.6572534E-2,-1.8706462E-1,1E0,9.35E-1,3.0685225E6,5.2110376E2,2.2485347E3,-5.4297127E-2,5.0831456E-2,-3.0188793E-2,-9.371311E-2,6.3331135E-2,4.3977285E-3,-3.0750751E-2,-9.547626E-2,3.4965485E-2,-5.5027124E-2,4.6210315E-2],"split_indices":[38,62,13,8,0,34,0,10,27,0,17,61,36,28,3,31,0,0,0,0,0,0,0,0,0,0,0],"split_type":[0,0,0,0,0,0,0,0,0,0,0,0,0,0,0,0,0,0,0,0,0,0,0,0,0,0,0],"sum_hessian":[1.8224186E4,1.7000094E4,1.2240933E3,1.6763816E4,2.3627594E2,2.869315E2,9.371618E2,9.8736835E2,1.5776449E4,1.2052313E2,1.6640836E2,9.189443E2,6.8424065E1,1.4534337E4,1.2421124E3,1.368039E2,2.9604464E1,8.7373706E2,4.5207237E1,4.444921E1,2.3974854E1,1.3314619E4,1.2197178E3,1.7972889E1,1.2241395E3,1.5283542E1,1.2152035E2],"tree_param":{"num_deleted":"0","num_feature":"63","num_nodes":"27","size_leaf_vector":"1"}},{"base_weights":[2.8654737E-2,4.399878E-1,-1.1358004E-1,-2.898615E-1,5.261126E-1,-6.0288303E-2,-1.1719875E0,2.4202213E-1,-2.122861E0,5.704466E-1,-9.005687E-1,7.724629E-2,-3.6404198E-1,-5.595977E-2,-7.727561E-2,-1.1248119E-1,3.9374644E-1,-3.605545E-2,-1.0674331E-1,-7.3799855E-1,6.116813E-1,1.1287767E0,-1.5210335E0,1.7363037E-1,-4.240904E-1,8.915962E-1,-4.554345E-1,6.218071E-2,-4.9789227E-3,9.92673E-3,-1.12394154E-1,2.5352044E-2,5.038431E-2,-6.8578415E-2,7.348698E-2,-5.823191E-2,-9.6258245E-2,-1.923825E-2,1.3173086E-2,6.0890574E-2,-2.6913956E-2,-8.23345E-2,6.637544E-2,-4.2553794E-2,-8.320648E-3],"categories":[],"categories_nodes":[],"categories_segments":[],"categories_sizes":[],"default_left":[0,0,1,0,1,0,0,0,0,0,0,1,0,0,0,0,0,0,0,0,1,1,0,1,0,0,0,0,0,0,0,0,0,0,0,0,0,0,0,0,0,0,0,0,0],"id":32,"left_children":[1,3,5,7,9,11,13,15,17,19,21,23,25,-1,-1,-1,27,-1,-1,29,31,33,35,37,39,41,43,-1,-1,-1,-1,-1,-1,-1,-1,-1,-1,-1,-1,-1,-1,-1,-1,-1,-1],"loss_changes":[1.0548301E3,2.913437E2,7.555847E2,4.7784497E2,2.6261792E2,5.3292847E2,1.093335E1,1.4468654E2,3.1530762E-1,2.1732422E2,1.5945969E2,4.243875E2,4.5664917E2,0E0,0E0,0E0,1.5080605E2,0E0,0E0,1.747414E2,1.6098889E2,2.75136E1,1.1638092E1,3.6958493E2,2.6618878E2,3.010257E2,4.2371375E2,0E0,0E0,0E0,0E0,0E0,0E0,0E0,0E0,0E0,0E0,0E0,0E0,0E0,0E0,0E0,0E0,0E0,0E0],"parents":[2147483647,0,0,1,1,2,2,3,3,4,4,5,5,6,6,7,7,8,8,9,9,10,10,11,11,12,12,16,16,19,19,20,20,21,21,22,22,23,23,24,24,25,25,26,26],"right_children":[2,4,6,8,10,12,14,16,18,20,22,24,26,-1,-1,-1,28,-1,-1,30,32,34,36,38,40,42,44,-1,-1,-1,-1,-1,-1,-1,-1,-1,-1,-1,-1,-1,-1,-1,-1,-1,-1],"split_conditions":[-2.777778E-1,5E0,3.4802777E-1,4.6229014E3,7.16E2,9.441539E0,2.1525E2,5.6703456E5,7.970098E-1,1.3620079E3,-9.6825397E-1,2.4561404E-1,4.2361438E-1,-5.595977E-2,-7.727561E-2,-1.1248119E-1,8.56046E5,-3.605545E-2,-1.0674331E-1,7.439906E2,4.413953E6,6.263E-1,6.5058965E3,2.0473702E3,5.338103E2,3.2932425E-1,3.3870968E-1,6.218071E-2,-4.9789227E-3,9.92673E-3,-1.12394154E-1,2.5352044E-2,5.038431E-2,-6.8578415E-2,7.348698E-2,-5.823191E-2,-9.6258245E-2,-1.923825E-2,1.3173086E-2,6.0890574E-2,-2.6913956E-2,-8.23345E-2,6.637544E-2,-4.2553794E-2,-8.320648E-3],"split_indices":[10,14,6,34,13,4,18,30,18,35,10,12,19,0,0,0,30,0,0,35,30,36,31,34,35,19,10,0,0,0,0,0,0,0,0,0,0,0,0,0,0,0,0,0,0],"split_type":[0,0,0,0,0,0,0,0,0,0,0,0,0,0,0,0,0,0,0,0,0,0,0,0,0,0,0,0,0,0,0,0,0,0,0,0,0,0,0,0,0,0,0,0,0],"sum_hessian":[1.802762E4,4.631513E3,1.3396107E4,4.885994E2,4.1429136E3,1.2754941E4,6.4116547E2,3.793817E2,1.0921768E2,4.0186353E3,1.2427844E2,8.780172E3,3.9747695E3,5.652693E2,7.589616E1,2.0982126E1,3.583996E2,1.4460001E0,1.0777168E2,1.222589E2,3.8963762E3,2.8908518E1,9.536993E1,7.364894E3,1.4152781E3,2.6908368E2,3.705686E3,1.3107364E2,2.2732596E2,7.5992004E1,4.62669E1,3.0837942E3,8.125821E2,3.106361E0,2.5802156E1,5.2740753E1,4.262917E1,1.0201729E3,6.344721E3,9.139913E1,1.3238789E3,3.903108E1,2.3005261E2,1.5634861E3,2.1422E3],"tree_param":{"num_deleted":"0","num_feature":"63","num_nodes":"45","size_leaf_vector":"1"}},{"base_weights":[3.6964715E-2,1.0259657E-1,-9.493841E-1,1.2182852E-1,-6.485215E-2,1.5932037E-1,-1.0745122E0,2.899175E-1,-3.557465E-2,1.2129505E0,-5.47037E-2,-5.594301E-2,4.6372858E-1,3.7596503E-1,-2.8262067E-1,3.1053761E-2,-6.420155E-1,-4.062387E-2,6.490992E-2,5.7166923E-2,-5.2576512E-2,2.0125018E-2,-7.0157334E-2,-8.583918E-2,-3.3589476E-3,4.230413E-2,-9.3370164E-4,-7.391734E-2,-4.3996265E-3],"categories":[],"categories_nodes":[],"categories_segments":[],"categories_sizes":[],"default_left":[0,0,0,0,0,0,1,0,1,0,0,0,0,0,1,0,1,0,0,0,0,0,0,0,0,0,0,0,0],"id":33,"left_children":[1,3,5,7,-1,9,11,13,15,17,-1,-1,19,21,23,25,27,-1,-1,-1,-1,-1,-1,-1,-1,-1,-1,-1,-1],"loss_changes":[1.1657158E3,4.546189E2,1.5602832E2,4.4067365E2,0E0,1.5294044E2,6.93949E1,3.9691003E2,3.4759268E2,1.1906189E1,0E0,0E0,3.1065777E1,3.311469E2,3.2521384E2,3.1417673E2,3.9444272E2,0E0,0E0,0E0,0E0,0E0,0E0,0E0,0E0,0E0,0E0,0E0,0E0],"parents":[2147483647,0,0,1,1,2,2,3,3,5,5,6,6,7,7,8,8,9,9,12,12,13,13,14,14,15,15,16,16],"right_children":[2,4,6,8,-1,10,12,14,16,18,-1,-1,20,22,24,26,28,-1,-1,-1,-1,-1,-1,-1,-1,-1,-1,-1,-1],"split_conditions":[1E0,1E0,1.887338E-7,5.7971016E-2,-6.485215E-2,3.7E1,2.935415E4,4.6707706E0,1.9613935E6,2.9308245E3,-5.47037E-2,-5.594301E-2,-3.3333334E-1,1.2211867E7,3.756294E3,6.7093225E2,4.397E-1,-4.062387E-2,6.490992E-2,5.7166923E-2,-5.2576512E-2,2.0125018E-2,-7.0157334E-2,-8.583918E-2,-3.3589476E-3,4.230413E-2,-9.3370164E-4,-7.391734E-2,-4.3996265E-3],"split_indices":[38,62,21,12,0,13,35,5,29,31,0,0,10,31,34,34,36,0,0,0,0,0,0,0,0,0,0,0,0],"split_type":[0,0,0,0,0,0,0,0,0,0,0,0,0,0,0,0,0,0,0,0,0,0,0,0,0,0,0,0,0],"sum_hessian":[1.8004748E4,1.6882293E4,1.1224554E3,1.6654365E4,2.2792867E2,1.1380522E2,1.00865027E3,8.053396E3,8.600969E3,6.184731E1,5.195791E1,9.806505E2,2.7999773E1,7.001478E3,1.0519183E3,7.750397E3,8.505714E2,2.1533966E0,5.9693913E1,1.949949E1,8.500281E0,6.899348E3,1.02129524E2,1.3647253E2,9.154458E2,4.4476538E2,7.305632E3,3.382676E2,5.123038E2],"tree_param":{"num_deleted":"0","num_feature":"63","num_nodes":"29","size_leaf_vector":"1"}},{"base_weights":[4.634455E-2,1.1090477E-1,-9.9374014E-1,4.182989E-1,4.5325872E-3,-1.0381641E0,1.0158592E0,-1.1755633E-3,5.631349E-1,3.923052E-1,-8.4798E-2,-5.55945E-2,2.1054392E-1,6.2490553E-2,-3.987449E-2,2.0743155E-1,-1.0016221E0,-1.0377028E-1,5.9700936E-1,5.050147E-1,-8.014596E-1,-1.595114E-1,4.08929E-1,1.0474665E0,-5.4730874E-2,-4.6064455E-2,2.176445E-2,1.4236328E-2,-1.0608727E-1,3.085274E-2,-1.0985654E-1,-6.762573E-3,3.7433382E-2,-8.091532E-2,3.3170216E-2,-1.5268213E-2,6.3035996E-3,-4.0945046E-2,2.8391166E-2,-3.5059348E-2,5.700087E-2],"categories":[],"categories_nodes":[],"categories_segments":[],"categories_sizes":[],"default_left":[0,0,1,1,0,1,0,0,0,0,1,0,0,0,0,0,1,0,1,0,1,1,0,0,0,0,0,0,0,0,0,0,0,0,0,0,0,0,0,0,0],"id":34,"left_children":[1,3,5,7,9,11,13,15,17,19,21,-1,23,-1,-1,25,27,-1,29,31,33,35,37,39,-1,-1,-1,-1,-1,-1,-1,-1,-1,-1,-1,-1,-1,-1,-1,-1,-1],"loss_changes":[1.2101643E3,5.5483295E2,9.5088135E1,2.6503015E2,4.367428E2,9.515173E1,1.0875534E1,2.3408086E2,2.910641E2,3.1803012E2,3.780727E2,0E0,6.485087E1,0E0,0E0,2.3909595E2,2.794412E2,0E0,1.8071704E2,3.3669763E2,2.4522368E2,3.7080457E2,2.6328937E2,6.6328964E0,0E0,0E0,0E0,0E0,0E0,0E0,0E0,0E0,0E0,0E0,0E0,0E0,0E0,0E0,0E0,0E0,0E0],"parents":[2147483647,0,0,1,1,2,2,3,3,4,4,5,5,6,6,7,7,8,8,9,9,10,10,12,12,15,15,16,16,18,18,19,19,20,20,21,21,22,22,23,23],"right_children":[2,4,6,8,10,12,14,16,18,20,22,-1,24,-1,-1,26,28,-1,30,32,34,36,38,40,-1,-1,-1,-1,-1,-1,-1,-1,-1,-1,-1,-1,-1,-1,-1,-1,-1],"split_conditions":[1E0,-2.777778E-1,7.6101947E-1,2.568674E3,4.338232E3,7.5511577E3,-2.316936E0,1E0,2.519E-1,8.269994E3,1.2130977E4,-5.55945E-2,-3.3333334E-1,6.2490553E-2,-3.987449E-2,4.732416E3,1.8439015E2,-1.0377028E-1,1.14100195E-1,2.5350583E3,2.5168426E4,6.489E-1,9.565594E3,-6.496815E-1,-5.4730874E-2,-4.6064455E-2,2.176445E-2,1.4236328E-2,-1.0608727E-1,3.085274E-2,-1.0985654E-1,-6.762573E-3,3.7433382E-2,-8.091532E-2,3.3170216E-2,-1.5268213E-2,6.3035996E-3,-4.0945046E-2,2.8391166E-2,-3.5059348E-2,5.700087E-2],"split_indices":[38,10,4,35,32,33,0,54,37,35,34,0,10,0,0,32,35,0,21,34,34,37,32,10,0,0,0,0,0,0,0,0,0,0,0,0,0,0,0,0,0],"split_type":[0,0,0,0,0,0,0,0,0,0,0,0,0,0,0,0,0,0,0,0,0,0,0,0,0,0,0,0,0,0,0,0,0,0,0,0,0,0,0,0,0],"sum_hessian":[1.8019676E4,1.696737E4,1.0523065E3,4.361264E3,1.2606105E4,1.0300204E3,2.2286137E1,1.1196172E3,3.2416467E3,2.3596736E3,1.0246432E4,9.7270013E2,5.7320225E1,2.0014687E1,2.271451E0,9.2709717E2,1.925201E2,4.0325893E1,3.2013208E3,2.1566318E3,2.0304176E2,8.900271E3,1.3461598E3,3.5045235E1,2.2274988E1,1.5520857E2,7.7188855E2,8.99581E1,1.02562E2,3.1792915E3,2.202941E1,5.9459973E2,1.562032E3,1.3028607E2,7.275569E1,5.8913687E3,3.008903E3,1.537704E2,1.1923894E3,1.4310352E0,3.36142E1],"tree_param":{"num_deleted":"0","num_feature":"63","num_nodes":"41","size_leaf_vector":"1"}},{"base_weights":[6.50459E-3,5.8079753E-2,-1.1572723E0,1.7683432E-1,-1.793709E-1,-1.5305978E0,-5.461616E-2,2.647599E-1,-1.8158689E-1,-3.0960274E-1,3.7300524E-1,-6.9419846E-2,-9.3419075E-2,2.907734E-1,-1.4026408E0,6.252913E-2,-9.0528345E-1,-1.5217274E-1,-1.2591437E0,6.157906E-1,-5.608246E-1,-1.0627427E-1,1.5280706E-2,-6.7073695E-2,-8.653043E-2,-1.8755876E-2,1.6395878E-2,-7.491586E-2,-4.188082E-3,-1.255579E-2,3.4458134E-2,-7.0927955E-2,1.9482264E-2,3.5174746E-2,-8.815304E-2,-8.731799E-2,6.514537E-2],"categories":[],"categories_nodes":[],"categories_segments":[],"categories_sizes":[],"default_left":[1,0,0,1,1,0,0,0,0,1,1,0,0,1,0,0,1,1,0,0,0,0,0,0,0,0,0,0,0,0,0,0,0,0,0,0,0],"id":35,"left_children":[1,3,5,7,9,11,-1,13,15,17,19,-1,-1,21,23,25,27,29,31,33,35,-1,-1,-1,-1,-1,-1,-1,-1,-1,-1,-1,-1,-1,-1,-1,-1],"loss_changes":[1.0549022E3,4.7459045E2,1.6412354E1,3.53612E2,4.0376727E2,2.595169E0,0E0,3.91193E2,3.9060168E2,6.7865515E2,2.4316E2,0E0,0E0,3.1878815E2,4.58313E-1,1.9222632E2,2.7156354E2,3.245347E2,1.7026953E2,1.7867941E2,4.9171362E2,0E0,0E0,0E0,0E0,0E0,0E0,0E0,0E0,0E0,0E0,0E0,0E0,0E0,0E0,0E0,0E0],"parents":[2147483647,0,0,1,1,2,2,3,3,4,4,5,5,7,7,8,8,9,9,10,10,13,13,14,14,15,15,16,16,17,17,18,18,19,19,20,20],"right_children":[2,4,6,8,10,12,-1,14,16,18,20,-1,-1,22,24,26,28,30,32,34,36,-1,-1,-1,-1,-1,-1,-1,-1,-1,-1,-1,-1,-1,-1,-1,-1],"split_conditions":[4.4454016E-2,9.452374E0,1E0,2.2093023E-1,1.6397017E2,7.3E3,-5.461616E-2,1.2211867E7,5.1908396E-2,3.542599E3,3.1433258E2,-6.9419846E-2,-9.3419075E-2,-9.444444E-1,1E0,9.3333334E-1,7.184E-1,2.284717E4,1E0,1E0,1E0,-1.0627427E-1,1.5280706E-2,-6.7073695E-2,-8.653043E-2,-1.8755876E-2,1.6395878E-2,-7.491586E-2,-4.188082E-3,-1.255579E-2,3.4458134E-2,-7.0927955E-2,1.9482264E-2,3.5174746E-2,-8.815304E-2,-8.731799E-2,6.514537E-2],"split_indices":[18,5,38,12,16,16,0,31,