{"learner":{"attributes":{"best_iteration":"399","best_score":"0.3987947932398366"},"feature_names":["operating_margin_l2","operating_margin_l3","dcoh_l2","dcoh_l3","debt_to_assets_l2","debt_to_assets_l3","unrestricted_na_ratio_l2","unrestricted_na_ratio_l3","rev_share_tuition_l2","rev_share_tuition_l3","enroll_yoy","enroll_yoy_l2","enroll_yoy_l3","enroll_l2","enroll_l3","operating_margin","dcoh","unrestricted_na_ratio","rev_share_tuition","exp_share_instruction","exp_share_scholarships","exp_share_interest","exp_share_depreciation","debt_to_ebida","rev_decline_10pct","enroll_decline_10pct","persistent_neg_margin","consec_enroll_decline_3yr","total_rev_real","total_rev_real_l2","total_rev_real_l3","enroll_l2","enroll_l3","sec_4","sec_5","sec_6","sec_7","sec_8","sec_9","yr_2002","yr_2003","yr_2004","yr_2005","yr_2006","yr_2007","yr_2008","yr_2009","yr_2010","yr_2011","yr_2012","yr_2013","yr_2014","yr_2015","yr_2016","yr_2017","yr_2018","yr_2019","yr_2020"],"feature_types":[],"gradient_booster":{"model":{"cats":{"enc":[],"feature_segments":[],"sorted_idx":[]},"gbtree_model_param":{"num_parallel_tree":"1","num_trees":"400"},"iteration_indptr":[0,1,2,3,4,5,6,7,8,9,10,11,12,13,14,15,16,17,18,19,20,21,22,23,24,25,26,27,28,29,30,31,32,33,34,35,36,37,38,39,40,41,42,43,44,45,46,47,48,49,50,51,52,53,54,55,56,57,58,59,60,61,62,63,64,65,66,67,68,69,70,71,72,73,74,75,76,77,78,79,80,81,82,83,84,85,86,87,88,89,90,91,92,93,94,95,96,97,98,99,100,101,102,103,104,105,106,107,108,109,110,111,112,113,114,115,116,117,118,119,120,121,122,123,124,125,126,127,128,129,130,131,132,133,134,135,136,137,138,139,140,141,142,143,144,145,146,147,148,149,150,151,152,153,154,155,156,157,158,159,160,161,162,163,164,165,166,167,168,169,170,171,172,173,174,175,176,177,178,179,180,181,182,183,184,185,186,187,188,189,190,191,192,193,194,195,196,197,198,199,200,201,202,203,204,205,206,207,208,209,210,211,212,213,214,215,216,217,218,219,220,221,222,223,224,225,226,227,228,229,230,231,232,233,234,235,236,237,238,239,240,241,242,243,244,245,246,247,248,249,250,251,252,253,254,255,256,257,258,259,260,261,262,263,264,265,266,267,268,269,270,271,272,273,274,275,276,277,278,279,280,281,282,283,284,285,286,287,288,289,290,291,292,293,294,295,296,297,298,299,300,301,302,303,304,305,306,307,308,309,310,311,312,313,314,315,316,317,318,319,320,321,322,323,324,325,326,327,328,329,330,331,332,333,334,335,336,337,338,339,340,341,342,343,344,345,346,347,348,349,350,351,352,353,354,355,356,357,358,359,360,361,362,363,364,365,366,367,368,369,370,371,372,373,374,375,376,377,378,379,380,381,382,383,384,385,386,387,388,389,390,391,392,393,394,395,396,397,398,399,400],"tree_info":[0,0,0,0,0,0,0,0,0,0,0,0,0,0,0,0,0,0,0,0,0,0,0,0,0,0,0,0,0,0,0,0,0,0,0,0,0,0,0,0,0,0,0,0,0,0,0,0,0,0,0,0,0,0,0,0,0,0,0,0,0,0,0,0,0,0,0,0,0,0,0,0,0,0,0,0,0,0,0,0,0,0,0,0,0,0,0,0,0,0,0,0,0,0,0,0,0,0,0,0,0,0,0,0,0,0,0,0,0,0,0,0,0,0,0,0,0,0,0,0,0,0,0,0,0,0,0,0,0,0,0,0,0,0,0,0,0,0,0,0,0,0,0,0,0,0,0,0,0,0,0,0,0,0,0,0,0,0,0,0,0,0,0,0,0,0,0,0,0,0,0,0,0,0,0,0,0,0,0,0,0,0,0,0,0,0,0,0,0,0,0,0,0,0,0,0,0,0,0,0,0,0,0,0,0,0,0,0,0,0,0,0,0,0,0,0,0,0,0,0,0,0,0,0,0,0,0,0,0,0,0,0,0,0,0,0,0,0,0,0,0,0,0,0,0,0,0,0,0,0,0,0,0,0,0,0,0,0,0,0,0,0,0,0,0,0,0,0,0,0,0,0,0,0,0,0,0,0,0,0,0,0,0,0,0,0,0,0,0,0,0,0,0,0,0,0,0,0,0,0,0,0,0,0,0,0,0,0,0,0,0,0,0,0,0,0,0,0,0,0,0,0,0,0,0,0,0,0,0,0,0,0,0,0,0,0,0,0,0,0,0,0,0,0,0,0,0,0,0,0,0,0,0,0,0,0,0,0,0,0,0,0,0,0,0,0,0,0,0,0,0,0,0,0,0,0,0,0,0,0,0,0,0,0,0,0,0,0,0,0,0,0,0,0,0,0,0,0,0,0],"trees":[{"base_weights":[-9.996426E-3,2.9655692E-1,-1.8930095E0,-2.4116254E-1,6.5105957E-1,-1.903324E0,4.047228E-1,-2.043097E-1,-9.881802E-2,8.4083253E-1,-9.967372E-2,-1.5670075E0,-1.952197E0,8.89676E-2,-8.2914956E-2,6.9654936E-1,-2.6524875E-1,8.937126E-1,-9.886561E-2,8.752173E-1,-3.2839605E-1,-9.513702E-2,-1.7912476E0,-4.4204336E-1,-1.9643148E0,-5.6536205E-2,4.3472722E-2,-3.2501768E-3,-2.6046647E-2,4.5973994E-2,-5.5282872E-2,-4.813474E-2,5.139919E-2,1.1084432E-2,-3.0812655E-2,-9.526429E-2,7.309614E-2,-9.4093226E-2,-6.8067485E-3,8.89676E-2,-9.212794E-2,-9.944817E-2,-9.314268E-2],"categories":[],"categories_nodes":[],"categories_segments":[],"categories_sizes":[],"default_left":[0,0,1,0,0,0,0,0,0,0,0,0,0,0,0,0,0,0,0,0,1,0,0,0,0,0,0,0,0,0,0,0,0,0,0,0,0,0,0,0,0,0,0],"id":0,"left_children":[1,3,5,7,9,11,13,15,-1,17,19,21,23,-1,-1,25,27,29,-1,31,33,35,37,39,41,-1,-1,-1,-1,-1,-1,-1,-1,-1,-1,-1,-1,-1,-1,-1,-1,-1,-1],"loss_changes":[1.1887878E4,3.3762637E3,6.910547E1,4.4963742E2,1.5208223E3,4.4125977E1,4.1830654E1,3.785647E2,0E0,1.2715205E3,4.807418E2,1.2171533E2,4.492383E1,0E0,0E0,1.3904466E2,3.3053592E2,4.3192773E2,0E0,1.16030304E2,2.76604E2,1.433716E2,4.7799683E1,6.926427E1,2.5009766E0,0E0,0E0,0E0,0E0,0E0,0E0,0E0,0E0,0E0,0E0,0E0,0E0,0E0,0E0,0E0,0E0,0E0,0E0],"parents":[2147483647,0,0,1,1,2,2,3,3,4,4,5,5,6,6,7,7,9,9,10,10,11,11,12,12,15,15,16,16,17,17,19,19,20,20,21,21,22,22,23,23,24,24],"right_children":[2,4,6,8,10,12,14,16,-1,18,20,22,24,-1,-1,26,28,30,-1,32,34,36,38,40,42,-1,-1,-1,-1,-1,-1,-1,-1,-1,-1,-1,-1,-1,-1,-1,-1,-1,-1],"split_conditions":[1E0,1E0,7.2652346E-1,1E0,5.414759E-1,7.8E1,2.7560432E-2,1.7244355E5,-9.881802E-2,1E0,6.434647E-1,4.2873013E1,-1.4721769E0,8.89676E-2,-8.2914956E-2,8.303816E3,1.2238824E1,1E0,-9.886561E-2,1.2E1,5E0,6.6E1,1E0,5.8936344E5,1.000001E1,-5.6536205E-2,4.3472722E-2,-3.2501768E-3,-2.6046647E-2,4.5973994E-2,-5.5282872E-2,-4.813474E-2,5.139919E-2,1.1084432E-2,-3.0812655E-2,-9.526429E-2,7.309614E-2,-9.4093226E-2,-6.8067485E-3,8.89676E-2,-9.212794E-2,-9.944817E-2,-9.314268E-2],"split_indices":[33,25,4,57,5,14,6,28,0,57,19,2,23,0,0,28,4,36,0,31,31,14,54,28,15,0,0,0,0,0,0,0,0,0,0,0,0,0,0,0,0,0,0],"split_type":[0,0,0,0,0,0,0,0,0,0,0,0,0,0,0,0,0,0,0,0,0,0,0,0,0,0,0,0,0,0,0,0,0,0,0,0,0,0,0,0,0,0,0],"sum_hessian":[2.0592229E4,1.770991E4,2.8823196E3,7.0367266E3,1.0673183E4,2.8696096E3,1.2709966E1,6.8914805E3,1.4524632E2,8.5194795E3,2.1537034E3,3.682921E2,2.5013174E3,7.7100925E0,4.999873E0,4.359799E2,6.4555005E3,8.363233E3,1.5624605E2,4.087306E2,1.7449729E3,4.8879627E1,3.1941248E2,2.0209776E1,2.4811077E3,3.7209347E1,3.9877054E2,3.6209333E3,2.8345671E3,8.257355E3,1.0587818E2,3.0959503E1,3.777711E2,5.9952716E2,1.1454457E3,2.249943E1,2.6380196E1,3.027026E2,1.6709864E1,7.7100925E0,1.2499683E1,1.9811998E3,4.999079E2],"tree_param":{"num_deleted":"0","num_feature":"58","num_nodes":"43","size_leaf_vector":"1"}},{"base_weights":[-1.7899498E-2,2.7109152E-1,-1.7827038E0,-2.4540207E-1,6.1010045E-1,-1.3642195E0,-1.8595343E0,1.3502957E-1,-4.2036802E-1,7.683528E-1,-2.069928E-1,-1.7795727E0,-7.6882213E-1,-4.21108E-1,-1.8713195E0,4.0494698E-1,-2.8876948E-1,-5.5850893E-1,2.9530928E-1,8.16822E-1,-9.4333895E-2,-7.4631476E-1,4.9521914E-1,6.316367E-1,-9.4757214E-2,-9.1006726E-2,-9.385299E-2,8.514687E-2,-8.808514E-2,-9.477506E-2,-1.7678024E0,-9.884846E-3,2.7945315E-2,-4.7867247E-3,-4.8840117E-2,-4.601632E-2,-1.692791E-2,2.469377E-2,-7.6694965E-2,1.3598869E-2,4.4987094E-2,3.3139117E-2,-4.2701837E-2,-2.2888465E-2,3.401461E-2,-7.690557E-2,9.334977E-2,7.349678E-2,-2.7312214E-2,-9.1579765E-2,7.83731E-2],"categories":[],"categories_nodes":[],"categories_segments":[],"categories_sizes":[],"default_left":[0,0,0,0,0,1,0,0,1,0,1,0,1,0,0,0,1,0,1,1,0,0,0,1,0,0,0,0,0,0,1,0,0,0,0,0,0,0,0,0,0,0,0,0,0,0,0,0,0,0,0],"id":1,"left_children":[1,3,5,7,9,11,13,15,17,19,21,23,25,27,29,31,33,35,37,39,-1,41,43,45,-1,47,-1,-1,-1,-1,49,-1,-1,-1,-1,-1,-1,-1,-1,-1,-1,-1,-1,-1,-1,-1,-1,-1,-1,-1,-1],"loss_changes":[1.0503962E4,3.0989172E3,9.0640625E1,4.669065E2,1.3817839E3,1.10727234E2,4.0671875E1,2.5295135E2,4.7515143E2,1.1534727E3,6.572307E2,7.539191E1,1.4107222E2,6.326942E1,2.7207031E0,1.2543152E2,1.1420328E2,3.202013E2,2.8333154E2,3.9694727E2,0E0,1.4953247E2,1.3330292E2,3.7523766E1,0E0,8.4455795E1,0E0,0E0,0E0,0E0,1.0375574E2,0E0,0E0,0E0,0E0,0E0,0E0,0E0,0E0,0E0,0E0,0E0,0E0,0E0,0E0,0E0,0E0,0E0,0E0,0E0,0E0],"parents":[2147483647,0,0,1,1,2,2,3,3,4,4,5,5,6,6,7,7,8,8,9,9,10,10,11,11,12,12,13,13,14,14,15,15,16,16,17,17,18,18,19,19,21,21,22,22,23,23,25,25,30,30],"right_children":[2,4,6,8,10,12,14,16,18,20,22,24,26,28,30,32,34,36,38,40,-1,42,44,46,-1,48,-1,-1,-1,-1,50,-1,-1,-1,-1,-1,-1,-1,-1,-1,-1,-1,-1,-1,-1,-1,-1,-1,-1,-1,-1],"split_conditions":[1E0,1E0,8.9E1,3.0079862E6,7.2652346E-1,5.3E1,-1.4721769E0,5.743906E0,0E0,1E0,7.197032E1,-8.52459E-1,2.0351364E-1,5.8936344E5,8.37965E1,4E0,-5.5555556E-2,1E0,2.6137762E2,4E0,-9.4333895E-2,6.05133E5,1.3E1,2.1170927E2,-9.4757214E-2,4.2873013E1,-9.385299E-2,8.514687E-2,-8.808514E-2,-9.477506E-2,1.2788522E0,-9.884846E-3,2.7945315E-2,-4.7867247E-3,-4.8840117E-2,-4.601632E-2,-1.692791E-2,2.469377E-2,-7.6694965E-2,1.3598869E-2,4.4987094E-2,3.3139117E-2,-4.2701837E-2,-2.2888465E-2,3.401461E-2,-7.690557E-2,9.334977E-2,7.349678E-2,-2.7312214E-2,-9.1579765E-2,7.83731E-2],"split_indices":[33,25,13,28,4,14,23,4,21,57,16,12,18,28,17,13,10,38,3,14,0,28,13,2,0,2,0,0,0,0,19,0,0,0,0,0,0,0,0,0,0,0,0,0,0,0,0,0,0,0,0],"split_type":[0,0,0,0,0,0,0,0,0,0,0,0,0,0,0,0,0,0,0,0,0,0,0,0,0,0,0,0,0,0,0,0,0,0,0,0,0,0,0,0,0,0,0,0,0,0,0,0,0,0,0],"sum_hessian":[2.0593547E4,1.7696541E4,2.8970056E3,7.0126963E3,1.0683846E4,4.5227682E2,2.4447288E3,2.2092698E3,4.803427E3,8.950414E3,1.7334319E3,2.6524872E2,1.870281E2,2.0165827E1,2.424563E3,1.3496945E3,8.5957526E2,4.0264548E3,7.769718E2,8.790628E3,1.5978578E2,9.8039404E2,7.530378E2,1.1927881E1,2.5332082E2,1.1672152E2,7.030659E1,7.6983056E0,1.2467522E1,1.9514047E3,4.731584E2,2.745882E2,1.0751062E3,6.721387E2,1.8743658E2,1.5210894E3,2.5053655E3,7.0154675E2,7.542501E1,1.1616974E3,7.6289307E3,6.925998E1,9.1113403E2,1.2222037E2,6.3081744E2,4.238475E0,7.6894064E0,2.5851524E1,9.0869995E1,4.647206E2,8.437778E0],"tree_param":{"num_deleted":"0","num_feature":"58","num_nodes":"51","size_leaf_vector":"1"}},{"base_weights":[4.810865E-4,2.7613416E-1,-1.7255667E0,-2.0980878E-1,5.98397E-1,-1.7355264E0,3.8966545E-1,1.780928E-1,-3.9200616E-1,7.55601E-1,-2.3667276E-1,-1.414417E0,-1.7810043E0,8.9226805E-2,-7.762724E-2,-1.4253012E0,2.234098E-1,2.471678E-1,-5.304418E-1,8.0017483E-1,-9.029234E-2,-7.9583323E-1,5.0950474E-1,-7.973352E-2,-1.5467064E0,-5.667558E-1,-1.7920288E0,6.155653E-2,-9.531193E-2,2.116045E-2,-4.2482596E-3,2.127505E-2,-9.4505996E-2,-4.709071E-2,-1.4917803E-2,1.954012E-2,4.5702774E-2,-2.6420915E-2,-6.2048256E-2,-3.3059057E-2,3.446194E-2,6.413927E-2,-8.711792E-2,1.3720644E-2,-8.1459664E-2,8.176025E-2,-8.5736364E-2,-9.016404E-2,-8.0299266E-2],"categories":[],"categories_nodes":[],"categories_segments":[],"categories_sizes":[],"default_left":[0,0,1,0,0,0,0,0,0,0,1,0,0,0,0,0,0,1,0,0,0,1,0,0,0,0,1,0,0,0,0,0,0,0,0,0,0,0,0,0,0,0,0,0,0,0,0,0,0],"id":2,"left_children":[1,3,5,7,9,11,13,15,17,19,21,23,25,-1,-1,27,29,31,33,35,-1,37,39,41,43,45,47,-1,-1,-1,-1,-1,-1,-1,-1,-1,-1,-1,-1,-1,-1,-1,-1,-1,-1,-1,-1,-1,-1],"loss_changes":[9.841384E3,2.793246E3,6.068457E1,5.0274942E2,1.4080217E3,3.8884766E1,4.114733E1,1.655345E2,4.283778E2,1.031917E3,7.0961273E2,6.2838257E1,3.2178223E1,0E0,0E0,8.2366264E1,1.3633386E2,3.2946835E2,3.7956067E2,4.1324268E2,0E0,1.15052E2,1.5379112E2,7.747073E1,4.9175354E1,6.2898045E1,2.2475586E0,0E0,0E0,0E0,0E0,0E0,0E0,0E0,0E0,0E0,0E0,0E0,0E0,0E0,0E0,0E0,0E0,0E0,0E0,0E0,0E0,0E0,0E0],"parents":[2147483647,0,0,1,1,2,2,3,3,4,4,5,5,6,6,7,7,8,8,9,9,10,10,11,11,12,12,15,15,16,16,17,17,18,18,19,19,21,21,22,22,23,23,24,24,25,25,26,26],"right_children":[2,4,6,8,10,12,14,16,18,20,22,24,26,-1,-1,28,30,32,34,36,-1,38,40,42,44,46,48,-1,-1,-1,-1,-1,-1,-1,-1,-1,-1,-1,-1,-1,-1,-1,-1,-1,-1,-1,-1,-1,-1],"split_conditions":[1E0,1E0,7.2652346E-1,3.0079862E6,5.2381873E-1,7.8E1,2.7560432E-2,8.4342365E-4,1.8186147E0,1E0,9.313233E1,3.7475216E1,-1.4721769E0,8.9226805E-2,-7.762724E-2,5.120778E4,5.743906E0,3.0849478E2,1E0,1.0434391E7,-9.029234E-2,-1.8032786E-1,1.2E1,-2.5E-1,-8.52459E-1,5.8936344E5,2E0,6.155653E-2,-9.531193E-2,2.116045E-2,-4.2482596E-3,2.127505E-2,-9.4505996E-2,-4.709071E-2,-1.4917803E-2,1.954012E-2,4.5702774E-2,-2.6420915E-2,-6.2048256E-2,-3.3059057E-2,3.446194E-2,6.413927E-2,-8.711792E-2,1.3720644E-2,-8.1459664E-2,8.176025E-2,-8.5736364E-2,-9.016404E-2,-8.0299266E-2],"split_indices":[33,25,4,28,4,14,6,23,19,57,16,3,23,0,0,30,4,2,38,29,0,12,13,10,12,28,12,0,0,0,0,0,0,0,0,0,0,0,0,0,0,0,0,0,0,0,0,0,0],"split_type":[0,0,0,0,0,0,0,0,0,0,0,0,0,0,0,0,0,0,0,0,0,0,0,0,0,0,0,0,0,0,0,0,0,0,0,0,0,0,0,0,0,0,0,0,0,0,0,0,0],"sum_hessian":[2.0682283E4,1.7834863E4,2.8474211E3,7.1115874E3,1.0723275E4,2.8342554E3,1.3165702E1,2.2727925E3,4.838795E3,9.024488E3,1.6987872E3,3.5559308E2,2.4786624E3,7.7098026E0,5.4558992E0,6.1633705E1,2.211159E3,8.6129736E2,3.9774976E3,8.870808E3,1.5368051E2,9.7104895E2,7.277382E2,3.2211384E1,3.233817E2,2.2773397E1,2.455889E3,9.208915E0,5.242479E1,1.3415701E3,8.695888E2,7.9570544E2,6.5591965E1,1.4335212E3,2.5439763E3,1.9316044E3,6.939203E3,6.0798584E2,3.630631E2,9.650179E1,6.3123645E2,1.7829E1,1.4382384E1,1.3911935E1,3.0946976E2,7.658656E0,1.5114741E1,2.3076287E3,1.4826016E2],"tree_param":{"num_deleted":"0","num_feature":"58","num_nodes":"49","size_leaf_vector":"1"}},{"base_weights":[-1.1452954E-3,2.6124132E-1,-1.6363736E0,4.9648342E-1,-2.3125426E-1,-1.2302809E0,-1.7102331E0,5.4466736E-1,-8.93459E-2,3.7900615E-1,-4.175943E-1,9.061782E-1,-1.4028972E0,-1.5951259E0,-8.7252624E-2,1.6249426E-1,7.2671825E-1,4.2361102E-1,-9.304619E-2,-8.314146E-1,-1.531673E-1,-7.810308E-2,1.6891308E0,-8.747416E-2,-8.895798E-1,-1.6406801E0,7.4143305E-2,2.0126788E-2,-5.256837E-3,3.9271504E-2,-8.0687255E-2,3.8596623E-2,8.301363E-3,-2.218047E-2,-4.9261566E-2,4.6014618E-2,-1.2217416E-2,-5.2315064E-2,9.4797544E-2,7.966182E-2,-5.958118E-2,-3.784982E-2,-8.451434E-2],"categories":[],"categories_nodes":[],"categories_segments":[],"categories_sizes":[],"default_left":[0,0,0,0,0,0,1,0,0,0,0,0,1,1,0,0,0,0,0,0,0,0,0,0,0,0,0,0,0,0,0,0,0,0,0,0,0,0,0,0,0,0,0],"id":3,"left_children":[1,3,5,7,9,11,13,15,-1,17,19,21,23,25,-1,27,29,31,-1,33,35,-1,37,-1,39,41,-1,-1,-1,-1,-1,-1,-1,-1,-1,-1,-1,-1,-1,-1,-1,-1,-1],"loss_changes":[8.828175E3,2.0542954E3,8.3229004E1,1.3211897E3,6.519885E2,1.6404681E2,6.854004E0,8.175415E2,0E0,1.34807E2,4.8043793E2,6.757716E1,7.116858E1,8.236951E1,0E0,2.4372853E2,1.0950718E3,1.1794545E2,0E0,1.0168323E2,2.6261493E2,0E0,1.6688133E1,0E0,1.26979675E2,2.3368042E1,0E0,0E0,0E0,0E0,0E0,0E0,0E0,0E0,0E0,0E0,0E0,0E0,0E0,0E0,0E0,0E0,0E0],"parents":[2147483647,0,0,1,1,2,2,3,3,4,4,5,5,6,6,7,7,9,9,10,10,11,11,12,12,13,13,15,15,16,16,17,17,19,19,20,20,22,22,24,24,25,25],"right_children":[2,4,6,8,10,12,14,16,-1,18,20,22,24,26,-1,28,30,32,-1,34,36,-1,38,-1,40,42,-1,-1,-1,-1,-1,-1,-1,-1,-1,-1,-1,-1,-1,-1,-1,-1,-1],"split_conditions":[1E0,1.337984E4,8.9E1,1E0,2E0,1.3390247E-7,6.716681E5,8.594918E6,-8.93459E-2,1E0,1E0,1.2238824E1,5.3E1,5.680369E5,-8.7252624E-2,3.0079862E6,4.00001E0,6.434647E-1,-9.304619E-2,4.5305375E6,1.4265466E5,-7.810308E-2,2E1,-8.747416E-2,5.4E1,1.3390247E-7,7.4143305E-2,2.0126788E-2,-5.256837E-3,3.9271504E-2,-8.0687255E-2,3.8596623E-2,8.301363E-3,-2.218047E-2,-4.9261566E-2,4.6014618E-2,-1.2217416E-2,-5.2315064E-2,9.4797544E-2,7.966182E-2,-5.958118E-2,-3.784982E-2,-8.451434E-2],"split_indices":[33,5,13,57,21,21,28,30,0,57,38,5,32,28,0,28,10,19,0,28,28,0,32,0,32,21,0,0,0,0,0,0,0,0,0,0,0,0,0,0,0,0,0],"split_type":[0,0,0,0,0,0,0,0,0,0,0,0,0,0,0,0,0,0,0,0,0,0,0,0,0,0,0,0,0,0,0,0,0,0,0,0,0,0,0,0,0,0,0],"sum_hessian":[2.0573525E4,1.7729512E4,2.8440142E3,1.199842E4,5.7310913E3,4.4037973E2,2.4036345E3,1.1751209E4,2.4721065E2,1.3403699E3,4.3907217E3,3.260318E1,4.0777655E2,5.691E2,1.8345344E3,3.792222E3,7.9589873E3,1.3149945E3,2.5375288E1,1.7109666E3,2.679755E3,7.611865E0,2.4991316E1,2.4198375E2,1.657928E2,5.612603E2,7.8396573E0,1.9988896E3,1.7933323E3,7.7648657E3,1.9412155E2,5.581845E2,7.5681E2,4.8700513E2,1.2239614E3,2.0908913E2,2.4706658E3,1.4713988E0,2.3519917E1,1.7518116E1,1.4827469E2,3.069666E1,5.3056366E2],"tree_param":{"num_deleted":"0","num_feature":"58","num_nodes":"43","size_leaf_vector":"1"}},{"base_weights":[-6.112657E-3,-1.5195304E0,1.9332619E-1,-1.6180681E0,-2.4505067E-1,4.44482E-1,-4.4337094E-1,8.192365E-1,-1.6306871E0,1.2988687E0,-9.5328754E-1,-1.04359046E-1,6.7974997E-1,-6.733754E-1,2.733742E-1,8.966667E-2,-6.520536E-2,8.343391E-1,-1.643528E0,1.6403658E0,-8.2251616E-2,-9.6479915E-2,6.403092E-1,7.075293E-2,-8.4465474E-1,7.0972776E-1,-5.994148E-1,-4.059475E-1,-1.2186124E0,4.537257E-1,-5.268026E-1,9.204953E-2,-6.724292E-2,-9.606193E-3,-8.280924E-2,-6.3446514E-2,8.786051E-2,-9.0369344E-2,6.1065424E-2,-9.4641045E-2,4.6980684E-3,-5.2221168E-2,1.4277167E-2,3.7012782E-2,-2.0136898E-2,-5.3195175E-2,2.9637506E-2,-3.7718926E-2,-9.797942E-3,-5.478527E-2,-8.667052E-2,2.7398294E-2,-4.980506E-2,-9.0603314E-2,-3.7560135E-3],"categories":[],"categories_nodes":[],"categories_segments":[],"categories_sizes":[],"default_left":[0,0,0,0,0,0,1,0,0,0,1,1,0,1,1,0,0,0,0,0,0,0,0,0,1,0,0,0,1,1,0,0,0,0,0,0,0,0,0,0,0,0,0,0,0,0,0,0,0,0,0,0,0,0,0],"id":4,"left_children":[1,3,5,7,9,11,13,15,17,19,21,23,25,27,29,-1,-1,31,33,35,-1,-1,37,39,41,43,45,47,49,51,53,-1,-1,-1,-1,-1,-1,-1,-1,-1,-1,-1,-1,-1,-1,-1,-1,-1,-1,-1,-1,-1,-1,-1,-1],"loss_changes":[6.1947197E3,2.9971143E2,2.8999944E3,6.95542E1,1.90057E2,1.6792983E3,8.4592474E2,2.7345293E1,7.122705E1,5.771646E1,1.8630951E2,5.0600555E2,3.494878E2,5.658622E2,1.8020514E2,0E0,0E0,2.9019627E1,4.001953E1,1.9069565E1,0E0,0E0,6.754135E1,1.4405562E2,1.6888013E2,3.0237695E2,1.1635612E2,1.9063278E2,7.894275E1,1.396667E2,1.3329135E2,0E0,0E0,0E0,0E0,0E0,0E0,0E0,0E0,0E0,0E0,0E0,0E0,0E0,0E0,0E0,0E0,0E0,0E0,0E0,0E0,0E0,0E0,0E0,0E0],"parents":[2147483647,0,0,1,1,2,2,3,3,4,4,5,5,6,6,7,7,8,8,9,9,10,10,11,11,12,12,13,13,14,14,17,17,18,18,19,19,22,22,23,23,24,24,25,25,26,26,27,27,28,28,29,29,30,30],"right_children":[2,4,6,8,10,12,14,16,18,20,22,24,26,28,30,-1,-1,32,34,36,-1,-1,38,40,42,44,46,48,50,52,54,-1,-1,-1,-1,-1,-1,-1,-1,-1,-1,-1,-1,-1,-1,-1,-1,-1,-1,-1,-1,-1,-1,-1,-1],"split_conditions":[3.2579238E0,4.305E2,1.2238824E1,6.366482E0,7.2652346E-1,1E0,5.7264145E1,3.7E1,6.1898985E0,3.885789E-1,9.259453E-1,2.1E1,1E0,2E0,3.0849478E2,8.966667E-2,-6.520536E-2,1.1638699E-2,1.6550542E-1,9.130152E-1,-8.2251616E-2,-9.6479915E-2,4.2699316E-1,-5.833333E-1,1.3179904E7,1E0,6.4E1,1E0,1.56E2,2.6E-1,1E0,9.204953E-2,-6.724292E-2,-9.606193E-3,-8.280924E-2,-6.3446514E-2,8.786051E-2,-9.0369344E-2,6.1065424E-2,-9.4641045E-2,4.6980684E-3,-5.2221168E-2,1.4277167E-2,3.7012782E-2,-2.0136898E-2,-5.3195175E-2,2.9637506E-2,-3.7718926E-2,-9.797942E-3,-5.478527E-2,-8.667052E-2,2.7398294E-2,-4.980506E-2,-9.0603314E-2,-3.7560135E-3],"split_indices":[17,18,4,2,4,25,16,13,16,19,7,13,46,13,2,0,0,17,19,7,0,0,19,11,30,45,14,38,14,11,25,0,0,0,0,0,0,0,0,0,0,0,0,0,0,0,0,0,0,0,0,0,0,0,0],"split_type":[0,0,0,0,0,0,0,0,0,0,0,0,0,0,0,0,0,0,0,0,0,0,0,0,0,0,0,0,0,0,0,0,0,0,0,0,0,0,0,0,0,0,0,0,0,0,0,0,0,0,0,0,0,0,0],"sum_hessian":[2.0521605E4,2.388691E3,1.8132914E4,2.217011E3,1.7168005E2,1.3003692E4,5.1292217E3,1.1090162E1,2.2059207E3,5.3726074E1,1.1795397E2,3.9018596E3,9.101833E3,3.8831682E3,1.2460532E3,7.7090216E0,3.3811407E0,1.1100035E1,2.1948208E3,4.8538338E1,5.1877337E0,7.301238E1,4.494159E1,3.156189E3,7.4567084E2,8.893847E3,2.0798616E2,2.6064841E3,1.276684E3,1.0172163E3,2.2883699E2,7.69885E0,3.4011843E0,1.9114063E1,2.1757068E3,1.4934342E0,4.7044907E1,8.21629E0,3.67253E1,3.5927742E1,3.120261E3,6.337313E2,1.1193956E2,8.65663E3,2.3721727E2,1.4974892E2,5.8237247E1,9.791699E2,1.6273143E3,1.0331497E3,2.4353427E2,9.557159E2,6.1500435E1,5.8724472E1,1.7011252E2],"tree_param":{"num_deleted":"0","num_feature":"58","num_nodes":"55","size_leaf_vector":"1"}},{"base_weights":[3.5428714E-3,2.4493076E-1,-1.5482054E0,-1.864627E-1,5.3219557E-1,-9.913377E-1,-1.5850074E0,2.2400644E-1,-3.4654912E-1,5.735976E-1,-8.646282E-2,-8.126007E-2,1.5821908E0,-4.201306E-1,-1.5946727E0,3.3377194E-1,-1.2467197E0,2.4514662E-1,-4.5552048E-1,7.648867E-1,6.886832E-2,1.7798955E0,-5.78806E-2,7.9047605E-2,-7.676988E-2,-1.4088312E0,-8.108105E-2,1.810175E-2,-9.022205E-2,6.556449E-3,-8.090182E-2,2.2714019E-2,-8.924389E-2,-3.8210038E-2,-1.3600393E-2,3.9776467E-2,-4.5787748E-2,3.8718756E-2,-3.945122E-3,5.9028E-2,9.757849E-2,2.7187255E-3,-7.8050904E-2],"categories":[],"categories_nodes":[],"categories_segments":[],"categories_sizes":[],"default_left":[0,0,0,0,0,0,0,1,0,0,0,0,0,0,0,1,0,1,0,0,0,1,0,0,0,0,0,0,0,0,0,0,0,0,0,0,0,0,0,0,0,0,0],"id":5,"left_children":[1,3,5,7,9,11,13,15,17,19,-1,-1,21,23,25,27,29,31,33,35,37,39,-1,-1,-1,41,-1,-1,-1,-1,-1,-1,-1,-1,-1,-1,-1,-1,-1,-1,-1,-1,-1],"loss_changes":[7.6848247E3,2.2002927E3,5.5029297E1,4.6646332E2,9.9886694E2,2.8621436E2,2.8478516E1,3.220019E2,3.2937018E2,1.01051953E3,0E0,0E0,2.094838E1,5.3003315E1,1.0572754E1,1.1272446E2,7.110156E1,3.3825937E2,2.4409186E2,3.916172E2,3.0007657E2,1.0828934E0,0E0,0E0,0E0,7.418219E1,0E0,0E0,0E0,0E0,0E0,0E0,0E0,0E0,0E0,0E0,0E0,0E0,0E0,0E0,0E0,0E0,0E0],"parents":[2147483647,0,0,1,1,2,2,3,3,4,4,5,5,6,6,7,7,8,8,9,9,12,12,13,13,14,14,15,15,16,16,17,17,18,18,19,19,20,20,21,21,25,25],"right_children":[2,4,6,8,10,12,14,16,18,20,-1,-1,22,24,26,28,30,32,34,36,38,40,-1,-1,-1,42,-1,-1,-1,-1,-1,-1,-1,-1,-1,-1,-1,-1,-1,-1,-1,-1,-1],"split_conditions":[1E0,1E0,1.3390247E-7,2.8751022E6,1E0,1.2238824E1,-1.4721769E0,1.8E1,9.8844826E-1,6.3004316E-4,-8.646282E-2,-8.126007E-2,-4.761905E-2,5.8936344E5,7.8E1,7.1839066E1,2.1641274E-5,2.887728E2,1E0,1E0,7.2298783E-1,1.8276587E2,-5.78806E-2,7.9047605E-2,-7.676988E-2,3.7475216E1,-8.108105E-2,1.810175E-2,-9.022205E-2,6.556449E-3,-8.090182E-2,2.2714019E-2,-8.924389E-2,-3.8210038E-2,-1.3600393E-2,3.9776467E-2,-4.5787748E-2,3.8718756E-2,-3.945122E-3,5.9028E-2,9.757849E-2,2.7187255E-3,-7.8050904E-2],"split_indices":[33,25,21,29,57,5,23,13,21,5,0,0,10,28,14,2,18,2,38,46,19,3,0,0,0,3,0,0,0,0,0,0,0,0,0,0,0,0,0,0,0,0,0],"split_type":[0,0,0,0,0,0,0,0,0,0,0,0,0,0,0,0,0,0,0,0,0,0,0,0,0,0,0,0,0,0,0,0,0,0,0,0,0,0,0,0,0,0,0],"sum_hessian":[2.0514201E4,1.7753355E4,2.760846E3,7.096578E3,1.0656776E4,1.7287906E2,2.587967E3,1.9910452E3,5.105533E3,1.0465915E4,1.90861E2,1.3900935E2,3.3869705E1,2.1662092E1,2.566305E3,1.853486E3,1.3755917E2,7.938445E2,4.3116885E3,7.5891597E3,2.8767559E3,3.191693E1,1.9527769E0,7.602911E0,1.405918E1,3.3175128E2,2.2345537E3,1.830126E3,2.3360075E1,2.9338675E1,1.082205E2,7.204044E2,7.344007E1,1.6064203E3,2.7052683E3,7.4537837E3,1.3537608E2,4.974627E2,2.3792932E3,8.860524E0,2.3056404E1,3.1315002E1,3.0043628E2],"tree_param":{"num_deleted":"0","num_feature":"58","num_nodes":"43","size_leaf_vector":"1"}},{"base_weights":[8.351961E-4,-1.3790022E0,1.814339E-1,-1.4711033E0,3.6257975E-2,4.1533533E-1,-4.1739085E-1,-1.4931908E0,1.3718559E0,-1.1145202E0,1.0199986E0,-3.1918228E-2,6.1432815E-1,2.7411893E-1,-6.529133E-1,-1.5569853E0,-5.7861215E-1,8.237987E-2,-5.1034946E-2,-9.769865E-2,1.1751077E0,1.2385937E0,-8.5877046E-2,1.06092736E-1,-7.4798703E-1,6.53623E-1,-8.213628E-2,4.5533228E-1,-2.7430683E-1,3.1773803E-1,-7.881247E-1,-4.1831296E-2,-7.915347E-2,6.1302286E-2,-6.2200423E-2,8.032885E-2,-6.8730764E-2,-7.810239E-2,6.9520466E-2,6.9415844E-3,-9.259079E-2,-8.850597E-2,-2.8576553E-2,3.4202028E-2,-3.2023605E-2,-3.389741E-2,2.7385918E-2,-3.1724002E-2,7.602764E-2,2.0338371E-2,-8.932708E-2,-3.282963E-2,-6.639063E-2],"categories":[],"categories_nodes":[],"categories_segments":[],"categories_sizes":[],"default_left":[0,0,0,1,1,0,0,0,0,1,1,1,0,0,0,0,0,0,0,0,0,0,0,1,1,0,0,0,0,1,1,0,0,0,0,0,0,0,0,0,0,0,0,0,0,0,0,0,0,0,0,0,0],"id":6,"left_children":[1,3,5,7,9,11,13,15,17,19,21,23,25,27,29,31,33,-1,-1,-1,35,37,-1,39,41,43,-1,45,47,49,51,-1,-1,-1,-1,-1,-1,-1,-1,-1,-1,-1,-1,-1,-1,-1,-1,-1,-1,-1,-1,-1,-1],"loss_changes":[5.06699E3,3.0679785E2,2.5185571E3,1.4079346E2,1.6501959E2,1.1508062E3,8.227882E2,1.2704834E2,1.3263256E1,1.3144853E2,4.9143745E1,3.9364294E2,7.947434E2,1.2772373E2,4.947627E2,3.7183105E1,1.75143E2,0E0,0E0,0E0,2.2727278E1,3.3354538E1,0E0,2.14336E2,1.1507672E2,3.466892E2,0E0,1.01450455E2,2.0750833E2,8.716789E1,2.3391528E2,0E0,0E0,0E0,0E0,0E0,0E0,0E0,0E0,0E0,0E0,0E0,0E0,0E0,0E0,0E0,0E0,0E0,0E0,0E0,0E0,0E0,0E0],"parents":[2147483647,0,0,1,1,2,2,3,3,4,4,5,5,6,6,7,7,8,8,9,9,10,10,11,11,12,12,13,13,14,14,15,15,16,16,20,20,21,21,23,23,24,24,25,25,27,27,28,28,29,29,30,30],"right_children":[2,4,6,8,10,12,14,16,18,20,22,24,26,28,30,32,34,-1,-1,-1,36,38,-1,40,42,44,-1,46,48,50,52,-1,-1,-1,-1,-1,-1,-1,-1,-1,-1,-1,-1,-1,-1,-1,-1,-1,-1,-1,-1,-1,-1],"split_conditions":[8.37965E1,1E0,1.2238824E1,2.9604945E-1,8.695652E-2,1E0,2E0,1E0,1.2306529E-1,1.3556919E7,-3.9943638E-1,2.4E1,1E0,3.070789E2,4.4233334E5,-3.4316495E-1,2.287389E1,8.237987E-2,-5.1034946E-2,-9.769865E-2,8E1,5.0856885E6,-8.5877046E-2,1.3713372E7,-9.615385E-2,1E0,-8.213628E-2,5.7963787E1,1.6973225E0,2.5E-1,2.9E1,-4.1831296E-2,-7.915347E-2,6.1302286E-2,-6.2200423E-2,8.032885E-2,-6.8730764E-2,-7.810239E-2,6.9520466E-2,6.9415844E-3,-9.259079E-2,-8.850597E-2,-2.8576553E-2,3.4202028E-2,-3.2023605E-2,-3.389741E-2,2.7385918E-2,-3.1724002E-2,7.602764E-2,2.0338371E-2,-8.932708E-2,-3.282963E-2,-6.639063E-2],"split_indices":[17,34,4,21,12,25,21,36,4,30,15,13,57,16,28,23,16,0,0,0,13,29,0,28,10,46,0,16,19,10,13,0,0,0,0,0,0,0,0,0,0,0,0,0,0,0,0,0,0,0,0,0,0],"split_type":[0,0,0,0,0,0,0,0,0,0,0,0,0,0,0,0,0,0,0,0,0,0,0,0,0,0,0,0,0,0,0,0,0,0,0,0,0,0,0,0,0,0,0,0,0,0,0,0,0,0,0,0,0],"sum_hessian":[2.033128E4,2.3522937E3,1.7978984E4,2.2085295E3,1.4376418E2,1.2929153E4,5.0498315E3,2.1919744E3,1.6555082E1,6.619566E1,7.756852E1,3.9814155E3,8.947738E3,1.282922E3,3.7669094E3,2.0483909E3,1.4358357E2,1.512347E1,1.4316121E0,4.8544315E1,1.7651344E1,7.2339676E1,5.2288394E0,3.3387717E3,6.426438E2,8.795323E3,1.5241457E2,9.644228E2,3.1849924E2,4.6040665E2,3.3065027E3,7.273595E1,1.9756549E3,3.8452328E1,1.0513125E2,1.5413023E1,2.2383215E0,3.242067E0,6.909761E1,3.284775E3,5.3996906E1,9.328028E1,5.493635E2,8.593799E3,2.0152466E2,7.2216774E1,8.92206E2,2.6580652E2,5.2692707E1,4.4249207E2,1.7914583E1,2.6603438E3,6.46159E2],"tree_param":{"num_deleted":"0","num_feature":"58","num_nodes":"53","size_leaf_vector":"1"}},{"base_weights":[1.952267E-2,-1.3416702E0,1.903315E-1,-5.456339E-1,-1.4538813E0,4.1344887E-1,-3.7591004E-1,-2.930979E-2,-7.844989E-2,7.9992115E-1,-1.4666201E0,-6.389925E-2,6.171887E-1,3.5366252E-1,-6.3861555E-1,4.2740074E-1,-8.155183E-2,8.342446E-2,-5.9140544E-2,6.693372E-1,-1.4793097E0,2.2354003E-2,-1.4714149E0,6.542636E-1,-7.958537E-2,8.9374614E-1,1.9652563E-1,-1.149392E0,-3.704213E-1,-5.1422145E-2,4.368494E-2,8.367934E-2,-6.534857E-2,-7.58413E-2,-4.6857487E-2,3.14998E-3,-8.71267E-2,8.5375905E-2,-7.992061E-2,3.424865E-2,-3.5954814E-2,-9.561729E-2,5.4891586E-2,1.767869E-2,-2.8501961E-2,-4.7515467E-2,-6.875428E-2,-3.7373465E-2,-8.049869E-3],"categories":[],"categories_nodes":[],"categories_segments":[],"categories_sizes":[],"default_left":[0,1,0,1,0,0,0,0,0,0,0,1,0,0,0,0,0,0,0,0,0,0,0,0,0,0,1,0,0,0,0,0,0,0,0,0,0,0,0,0,0,0,0,0,0,0,0,0,0],"id":7,"left_children":[1,3,5,7,9,11,13,15,-1,17,19,21,23,25,27,29,-1,-1,-1,31,33,35,37,39,-1,41,43,45,47,-1,-1,-1,-1,-1,-1,-1,-1,-1,-1,-1,-1,-1,-1,-1,-1,-1,-1,-1,-1],"loss_changes":[4.7603613E3,2.031123E2,2.298436E3,1.4982004E2,5.859912E1,1.2692161E3,9.8584393E2,1.3934677E2,0E0,2.2447426E1,5.4907715E1,4.7407098E2,7.500786E2,1.1542259E2,5.175713E2,9.723863E1,0E0,0E0,0E0,2.687051E1,3.880664E1,2.6410815E2,9.375864E1,3.799021E2,0E0,1.7774425E2,1.2737955E2,5.7168213E1,1.9578134E2,0E0,0E0,0E0,0E0,0E0,0E0,0E0,0E0,0E0,0E0,0E0,0E0,0E0,0E0,0E0,0E0,0E0,0E0,0E0,0E0],"parents":[2147483647,0,0,1,1,2,2,3,3,4,4,5,5,6,6,7,7,9,9,10,10,11,11,12,12,13,13,14,14,15,15,19,19,20,20,21,21,22,22,23,23,25,25,26,26,27,27,28,28],"right_children":[2,4,6,8,10,12,14,16,-1,18,20,22,24,26,28,30,-1,-1,-1,32,34,36,38,40,-1,42,44,46,48,-1,-1,-1,-1,-1,-1,-1,-1,-1,-1,-1,-1,-1,-1,-1,-1,-1,-1,-1,-1],"split_conditions":[3.2579238E0,3.1027379E-2,1.2238824E1,1.19E2,6.366482E0,1E0,2E0,1.337984E4,-7.844989E-2,3.7E1,6.1898985E0,4.9E1,1E0,-2.5E-1,6.3029E4,7.692308E-2,-8.155183E-2,8.342446E-2,-5.9140544E-2,-1.4066985E-1,4.00001E0,1E0,-9.271523E-2,1E0,-7.958537E-2,1.5620059E2,3.0849478E2,5.8E1,1E0,-5.1422145E-2,4.368494E-2,8.367934E-2,-6.534857E-2,-7.58413E-2,-4.6857487E-2,3.14998E-3,-8.71267E-2,8.5375905E-2,-7.992061E-2,3.424865E-2,-3.5954814E-2,-9.561729E-2,5.4891586E-2,1.767869E-2,-2.8501961E-2,-4.7515467E-2,-6.875428E-2,-3.7373465E-2,-8.049869E-3],"split_indices":[17,18,4,13,2,25,21,4,0,13,16,13,57,10,13,12,0,0,0,10,10,57,10,46,0,2,2,14,38,0,0,0,0,0,0,0,0,0,0,0,0,0,0,0,0,0,0,0,0],"split_type":[0,0,0,0,0,0,0,0,0,0,0,0,0,0,0,0,0,0,0,0,0,0,0,0,0,0,0,0,0,0,0,0,0,0,0,0,0,0,0,0,0,0,0,0,0,0,0,0,0],"sum_hessian":[2.0472242E4,2.2817656E3,1.8190477E4,2.8262906E2,1.9991366E3,1.3049015E4,5.1414614E3,1.8853499E2,9.4094086E1,1.0888666E1,1.9882479E3,3.9036716E3,9.145344E3,1.3611096E3,3.7803518E3,1.4727477E2,4.1260227E1,7.681952E0,3.2067137E0,1.14366865E1,1.9768113E3,3.6791929E3,2.2447864E2,8.99507E3,1.5027278E2,3.0570517E2,1.0554045E3,1.300418E3,2.4799338E3,3.4248924E1,1.1302584E2,7.6848507E0,3.751836E0,1.847192E3,1.2961923E2,3.5973108E3,8.1882225E1,8.145259E0,2.1633337E2,8.798823E3,1.962473E2,2.0158863E1,2.855463E2,8.763941E2,1.7901039E2,6.9371124E2,6.067067E2,8.846449E2,1.595289E3],"tree_param":{"num_deleted":"0","num_feature":"58","num_nodes":"49","size_leaf_vector":"1"}},{"base_weights":[6.6822716E-3,1.6239211E-1,-1.3802922E0,3.8422054E-1,-2.7777347E-1,-1.9848661E-1,-1.4274515E0,-9.115981E-2,5.713769E-1,3.1248167E-1,-4.4162905E-1,-1.0044588E-1,8.1261575E-1,-1.4791842E0,-7.3268074E-1,-1.8937819E-2,-1.4556763E0,6.0862315E-1,-7.711558E-2,3.5231304E-1,-8.752456E-2,-8.231293E-1,-1.3328287E-1,1.3342024E0,-8.165307E-2,-6.263098E-1,-1.4921457E0,-1.1015295E0,1.0286615E-1,1.3333567E-3,-8.36259E-2,8.559446E-2,-8.098414E-2,3.1935636E-2,-3.815838E-2,2.3534693E-2,-4.8059467E-3,-5.3947896E-2,-2.6840642E-2,-3.684338E-3,-8.807267E-2,-6.582867E-2,7.542161E-2,6.253376E-2,-7.474714E-2,-7.53073E-2,-5.8566093E-2,2.6369369E-2,-7.684547E-2],"categories":[],"categories_nodes":[],"categories_segments":[],"categories_sizes":[],"default_left":[1,0,1,0,0,0,0,1,0,0,0,0,1,0,1,0,0,0,0,1,0,0,1,1,0,0,0,0,0,0,0,0,0,0,0,0,0,0,0,0,0,0,0,0,0,0,0,0,0],"id":8,"left_children":[1,3,5,7,9,11,13,15,17,19,21,-1,23,25,27,29,31,33,-1,35,-1,37,39,41,-1,43,45,47,-1,-1,-1,-1,-1,-1,-1,-1,-1,-1,-1,-1,-1,-1,-1,-1,-1,-1,-1,-1,-1],"loss_changes":[4.369527E3,1.7762323E3,1.13532715E2,1.0761783E3,5.897223E2,1.4720685E2,6.949365E1,3.3677078E2,6.84187E2,1.0950517E2,5.612233E2,0E0,6.817946E1,1.925708E1,1.4434329E2,2.4489204E2,9.201416E1,3.5254224E2,0E0,6.9103195E1,0E0,1.5563818E2,2.5604938E2,2.1935364E1,0E0,4.9260838E1,6.313965E0,8.775203E1,0E0,0E0,0E0,0E0,0E0,0E0,0E0,0E0,0E0,0E0,0E0,0E0,0E0,0E0,0E0,0E0,0E0,0E0,0E0,0E0,0E0],"parents":[2147483647,0,0,1,1,2,2,3,3,4,4,5,5,6,6,7,7,8,8,9,9,10,10,12,12,13,13,14,14,15,15,16,16,17,17,19,19,21,21,22,22,23,23,25,25,26,26,27,27],"right_children":[2,4,6,8,10,12,14,16,18,20,22,-1,24,26,28,30,32,34,-1,36,-1,38,40,42,-1,44,46,48,-1,-1,-1,-1,-1,-1,-1,-1,-1,-1,-1,-1,-1,-1,-1,-1,-1,-1,-1,-1,-1],"split_conditions":[3.1027379E-2,1.337984E4,6.1898985E0,1E0,2E0,3.0226284E-1,4.00001E0,7E1,1E0,1E0,1E0,-1.0044588E-1,1.6223107E-1,8.438789E-3,9.1966915E-1,1E0,-9.271523E-2,1E0,-7.711558E-2,5.5555556E-2,-8.752456E-2,1E0,-5.3333335E-2,2.7E1,-8.165307E-2,2.2022762E1,5.583566E-1,1.9246479E6,1.0286615E-1,1.3333567E-3,-8.36259E-2,8.559446E-2,-8.098414E-2,3.1935636E-2,-3.815838E-2,2.3534693E-2,-4.8059467E-3,-5.3947896E-2,-2.6840642E-2,-3.684338E-3,-8.807267E-2,-6.582867E-2,7.542161E-2,6.253376E-2,-7.474714E-2,-7.53073E-2,-5.8566093E-2,2.6369369E-2,-7.684547E-2],"split_indices":[18,5,16,25,21,18,10,14,57,57,38,0,8,6,8,57,10,46,0,10,0,35,12,31,0,16,15,28,0,0,0,0,0,0,0,0,0,0,0,0,0,0,0,0,0,0,0,0,0],"split_type":[0,0,0,0,0,0,0,0,0,0,0,0,0,0,0,0,0,0,0,0,0,0,0,0,0,0,0,0,0,0,0,0,0,0,0,0,0,0,0,0,0,0,0,0,0,0,0,0,0],"sum_hessian":[2.0230479E4,1.8189322E4,2.0411565E3,1.2094322E4,6.094999E3,7.852575E1,1.9626307E3,3.4166038E3,8.677719E3,1.3241438E3,4.770855E3,2.7786222E1,5.073953E1,1.8255698E3,1.3706096E2,3.2458208E3,1.7078297E2,8.528153E3,1.495662E2,1.2998754E3,2.4268452E1,2.1317212E3,2.6391338E3,4.2195095E1,8.544433E0,2.8067E1,1.7975028E3,1.21591324E2,1.5469635E1,3.1596626E3,8.615813E1,7.9426823E0,1.6284029E2,8.34563E3,1.8252295E2,1.0283525E3,2.7152277E2,1.1243376E3,1.00738354E3,2.5469526E3,9.218115E1,2.1979778E0,3.999712E1,8.740429E0,1.932657E1,1.7188018E3,7.870109E1,2.5600197E1,9.599113E1],"tree_param":{"num_deleted":"0","num_feature":"58","num_nodes":"49","size_leaf_vector":"1"}},{"base_weights":[7.710937E-3,1.5678301E-1,-1.3532165E0,3.5325202E-1,-3.3350277E-1,-1.6839686E-1,-1.4010721E0,-6.688815E-2,5.383048E-1,3.2287547E-1,-5.776494E-1,-9.489538E-2,7.14497E-1,-5.7105243E-1,-1.4266903E0,9.290887E-2,-7.233319E-1,5.7263035E-1,-7.514764E-2,6.6061324E-1,8.793025E-2,-1.0673679E0,-3.3398816E-1,1.2087557E0,-7.753577E-2,-7.6093204E-2,8.9869924E-2,-1.4559176E0,-9.9172235E-1,-1.1935662E-2,1.3735279E-2,-4.1119285E-2,5.9610333E-2,3.0393401E-2,-5.2822627E-2,-5.011304E-2,3.7850868E-2,1.5866455E-2,-4.728468E-2,-4.315018E-2,-6.647109E-2,-3.7541375E-2,-5.5468027E-3,-6.913713E-2,7.053245E-2,-6.019358E-2,-7.364417E-2,5.3539146E-2,-7.281404E-2],"categories":[],"categories_nodes":[],"categories_segments":[],"categories_sizes":[],"default_left":[1,0,1,0,0,0,0,1,0,0,0,0,1,0,1,0,1,0,0,0,1,0,0,1,0,0,0,0,1,0,0,0,0,0,0,0,0,0,0,0,0,0,0,0,0,0,0,0,0],"id":9,"left_children":[1,3,5,7,9,11,13,15,17,19,21,-1,23,25,27,29,31,33,-1,35,37,39,41,43,-1,-1,-1,45,47,-1,-1,-1,-1,-1,-1,-1,-1,-1,-1,-1,-1,-1,-1,-1,-1,-1,-1,-1,-1],"loss_changes":[4.0831208E3,1.7473931E3,1.1242334E2,1.00690234E3,8.318706E2,1.20878525E2,3.979126E1,4.1554465E2,6.3080566E2,1.1164177E2,4.5106897E2,0E0,6.070597E1,1.3524725E2,2.20979E1,1.9215825E2,1.481294E2,5.0825342E2,0E0,9.331331E1,1.9741907E2,6.6142334E1,2.3493185E2,2.4813084E1,0E0,0E0,0E0,5.637451E0,1.1628096E2,0E0,0E0,0E0,0E0,0E0,0E0,0E0,0E0,0E0,0E0,0E0,0E0,0E0,0E0,0E0,0E0,0E0,0E0,0E0,0E0],"parents":[2147483647,0,0,1,1,2,2,3,3,4,4,5,5,6,6,7,7,8,8,9,9,10,10,12,12,13,13,14,14,15,15,16,16,17,17,19,19,20,20,21,21,22,22,23,23,27,27,28,28],"right_children":[2,4,6,8,10,12,14,16,18,20,22,-1,24,26,28,30,32,34,-1,36,38,40,42,44,-1,-1,-1,46,48,-1,-1,-1,-1,-1,-1,-1,-1,-1,-1,-1,-1,-1,-1,-1,-1,-1,-1,-1,-1],"split_conditions":[3.1027379E-2,1.2238824E1,6.1898985E0,1E0,7.32713E-1,3.0226284E-1,2.5570315E6,2.1E1,1E0,6.434647E-1,6.3029E4,-9.489538E-2,1.3206062E-1,1.4916E4,1.5830288E0,9E0,2.894425E0,1E0,-7.514764E-2,2.3860225E-1,2.6570676E2,6.8E1,1E0,2.7E1,-7.753577E-2,-7.6093204E-2,8.9869924E-2,-1.1629506E0,3.191478E1,-1.1935662E-2,1.3735279E-2,-4.1119285E-2,5.9610333E-2,3.0393401E-2,-5.2822627E-2,-5.011304E-2,3.7850868E-2,1.5866455E-2,-4.728468E-2,-4.315018E-2,-6.647109E-2,-3.7541375E-2,-5.5468027E-3,-6.913713E-2,7.053245E-2,-6.019358E-2,-7.364417E-2,5.3539146E-2,-7.281404E-2],"split_indices":[18,4,16,25,21,18,29,13,57,19,13,0,9,13,19,14,5,45,0,19,3,14,38,13,0,0,0,1,3,0,0,0,0,0,0,0,0,0,0,0,0,0,0,0,0,0,0,0,0],"split_type":[0,0,0,0,0,0,0,0,0,0,0,0,0,0,0,0,0,0,0,0,0,0,0,0,0,0,0,0,0,0,0,0,0,0,0,0,0,0,0,0,0,0,0,0,0,0,0,0,0],"sum_hessian":[2.0124117E4,1.8138195E4,1.9859209E3,1.2949362E4,5.1888335E3,7.7274055E1,1.9086469E3,3.9597847E3,8.989577E3,1.406688E3,3.7821455E3,2.572717E1,5.1546883E1,5.7843147E1,1.8508037E3,3.1852605E3,7.7452423E2,8.841617E3,1.4796004E2,5.7635547E2,8.303325E2,1.255473E3,2.5266726E3,4.2696987E1,8.849897E0,4.1528877E1,1.6314272E1,1.7320718E3,1.1873192E2,1.1277596E3,2.057501E3,7.369849E2,3.7539284E1,8.655032E3,1.8658463E2,3.1067938E1,5.4528754E2,6.80089E2,1.5024355E2,7.0779095E2,5.476821E2,8.799177E2,1.6467548E3,2.663208E0,4.003378E1,1.1377458E2,1.6182972E3,2.158698E1,9.7144936E1],"tree_param":{"num_deleted":"0","num_feature":"58","num_nodes":"49","size_leaf_vector":"1"}},{"base_weights":[-4.168242E-3,1.8695463E-1,-1.344401E0,-1.334783E-1,4.0502942E-1,-9.519067E-1,-1.4091381E0,-1.0311169E-1,-8.177998E-2,4.3903005E-1,-7.543315E-2,9.1234076E-1,-1.1280442E0,-1.5442131E-1,-1.4206041E0,-1.7194031E-1,3.370436E-1,5.90318E-1,4.601981E-2,-6.410905E-2,1.459384E0,-7.430896E-2,-4.2210662E-1,7.741683E-2,-6.758103E-2,-1.4336005E0,-1.2343162E0,-1.1527539E-2,2.399796E-2,2.927721E-2,-1.1482774E-2,3.0856336E-2,-5.540045E-2,3.1512517E-2,-3.5463136E-3,-5.318293E-2,8.299519E-2,-7.3828064E-2,3.6158603E-2,-7.236031E-2,-6.1528087E-2,-7.0878185E-2,-3.855234E-2],"categories":[],"categories_nodes":[],"categories_segments":[],"categories_sizes":[],"default_left":[0,0,0,0,0,0,0,0,0,0,0,0,1,0,0,1,1,0,0,0,0,0,0,0,0,0,0,0,0,0,0,0,0,0,0,0,0,0,0,0,0,0,0],"id":10,"left_children":[1,3,5,7,9,11,13,15,-1,17,-1,19,21,23,25,27,29,31,33,-1,35,-1,37,-1,-1,39,41,-1,-1,-1,-1,-1,-1,-1,-1,-1,-1,-1,-1,-1,-1,-1,-1],"loss_changes":[5.0787603E3,1.2126387E3,6.1535156E1,3.2040698E2,6.725304E2,1.1708786E2,3.0311035E1,2.0878543E2,0E0,6.032516E2,0E0,3.9163776E1,8.113019E1,4.3555058E1,3.321289E0,2.2778323E2,1.3138676E2,3.3423975E2,1.9280353E2,0E0,1.4582283E1,0E0,1.3419498E2,0E0,0E0,3.63208E0,1.1159424E1,0E0,0E0,0E0,0E0,0E0,0E0,0E0,0E0,0E0,0E0,0E0,0E0,0E0,0E0,0E0,0E0],"parents":[2147483647,0,0,1,1,2,2,3,3,4,4,5,5,6,6,7,7,9,9,11,11,12,12,13,13,14,14,15,15,16,16,17,17,18,18,20,20,22,22,25,25,26,26],"right_children":[2,4,6,8,10,12,14,16,-1,18,-1,20,22,24,26,28,30,32,34,-1,36,-1,38,-1,-1,40,42,-1,-1,-1,-1,-1,-1,-1,-1,-1,-1,-1,-1,-1,-1,-1,-1],"split_conditions":[1E0,1E0,7.7E1,1E0,1E0,1.3390247E-7,-1.4721769E0,1E0,-8.177998E-2,1.087566E-3,-7.543315E-2,1.2238824E1,5.3E1,3.127466E-2,1E0,1.8721133E-3,5.7692308E-2,1E0,2.7471597E2,-6.410905E-2,2E1,-7.430896E-2,-1.2605042E-2,7.741683E-2,-6.758103E-2,1E0,2.8741675E2,-1.1527539E-2,2.399796E-2,2.927721E-2,-1.1482774E-2,3.0856336E-2,-5.540045E-2,3.1512517E-2,-3.5463136E-3,-5.318293E-2,8.299519E-2,-7.3828064E-2,3.6158603E-2,-7.236031E-2,-6.1528087E-2,-7.0878185E-2,-3.855234E-2],"split_indices":[33,25,13,57,57,21,23,24,0,5,0,5,14,17,40,5,10,46,3,0,14,0,11,0,0,50,16,0,0,0,0,0,0,0,0,0,0,0,0,0,0,0,0],"split_type":[0,0,0,0,0,0,0,0,0,0,0,0,0,0,0,0,0,0,0,0,0,0,0,0,0,0,0,0,0,0,0,0,0,0,0,0,0,0,0,0,0,0,0],"sum_hessian":[1.9825373E4,1.7351795E4,2.473579E3,7.0269624E3,1.0324832E4,3.524453E2,2.1211338E3,6.8887686E3,1.381934E2,1.0145351E4,1.7948218E2,3.0064257E1,3.2238107E2,1.9339207E1,2.1017947E3,5.957745E3,9.3102386E2,7.3250825E3,2.8202678E3,5.7307816E0,2.4333475E1,2.1314401E2,1.0923706E2,7.8627872E0,1.1476419E1,1.9584663E3,1.4332826E2,5.4668794E3,4.9086563E2,6.4719305E2,2.8383087E2,7.211877E3,1.1320529E2,4.6964767E2,2.3506204E3,1.4746138E0,2.2858862E1,5.6723057E1,5.2514004E1,1.8297294E3,1.28737E2,1.01227554E2,4.2100716E1],"tree_param":{"num_deleted":"0","num_feature":"58","num_nodes":"43","size_leaf_vector":"1"}},{"base_weights":[1.5474415E-2,2.0028274E-1,-1.3337501E0,3.566905E-1,-2.3380212E-1,-9.772958E-1,-1.4016504E0,3.9050967E-1,-7.4870445E-2,2.4415699E-1,-4.2813E-1,7.6650214E-1,-1.1330216E0,-7.079525E-2,-1.2114177E0,4.5794424E-2,5.4205346E-1,3.886602E-1,-5.3021705E-1,-1.0015904E0,-2.0353459E-1,1.385505E0,-6.5284856E-2,5.3391397E-2,-1.2689645E0,-6.946359E-2,-7.4654114E-1,6.9578947E-3,-2.593486E-2,2.4106814E-2,5.6115694E-2,-4.32562E-2,2.2502655E-2,-9.976708E-2,-7.1430015E-3,1.6997492E-2,-5.2313477E-2,-5.044227E-3,-3.0771688E-2,-4.9879547E-2,8.036569E-2,7.769295E-2,-7.1416155E-2,-6.79056E-2,1.9541068E-2,-7.164034E-2,-1.967552E-3],"categories":[],"categories_nodes":[],"categories_segments":[],"categories_sizes":[],"default_left":[0,0,0,0,0,0,0,0,0,1,0,0,0,0,0,1,1,0,0,0,1,0,0,0,0,0,1,0,0,0,0,0,0,0,0,0,0,0,0,0,0,0,0,0,0,0,0],"id":11,"left_children":[1,3,5,7,9,11,13,15,-1,17,19,21,23,-1,25,27,29,31,33,35,37,39,-1,41,43,-1,45,-1,-1,-1,-1,-1,-1,-1,-1,-1,-1,-1,-1,-1,-1,-1,-1,-1,-1,-1,-1],"loss_changes":[4.9523613E3,1.1860903E3,5.654248E1,8.058224E2,4.2991864E2,1.057319E2,3.7285156E0,6.5885095E2,0E0,1.4995724E2,4.235788E2,4.3181747E1,5.7308563E1,0E0,1.1106018E1,2.0311719E2,3.040569E2,8.7245056E1,1.19394485E2,5.584326E1,9.9958534E1,1.4987797E1,0E0,8.5470024E1,4.7651978E1,0E0,2.0716599E1,0E0,0E0,0E0,0E0,0E0,0E0,0E0,0E0,0E0,0E0,0E0,0E0,0E0,0E0,0E0,0E0,0E0,0E0,0E0,0E0],"parents":[2147483647,0,0,1,1,2,2,3,3,4,4,5,5,6,6,7,7,9,9,10,10,11,11,12,12,14,14,15,15,16,16,17,17,18,18,19,19,20,20,21,21,23,23,24,24,26,26],"right_children":[2,4,6,8,10,12,14,16,-1,18,20,22,24,-1,26,28,30,32,34,36,38,40,-1,42,44,-1,46,-1,-1,-1,-1,-1,-1,-1,-1,-1,-1,-1,-1,-1,-1,-1,-1,-1,-1,-1,-1],"split_conditions":[1E0,1.2238824E1,8.9E1,1E0,2E0,1.3390247E-7,1E0,1E0,-7.4870445E-2,9.52381E-2,3.216E3,-5.2173913E-2,4.2873013E1,-7.079525E-2,1.5538461E0,2.4E1,1.4178761E7,3.073296E-1,2.2635112E2,1.978696E6,-7.619048E-2,5.056255E-1,-6.5284856E-2,7.2753626E-1,1E0,-6.946359E-2,0E0,6.9578947E-3,-2.593486E-2,2.4106814E-2,5.6115694E-2,-4.32562E-2,2.2502655E-2,-9.976708E-2,-7.1430015E-3,1.6997492E-2,-5.2313477E-2,-5.044227E-3,-3.0771688E-2,-4.9879547E-2,8.036569E-2,7.769295E-2,-7.1416155E-2,-6.79056E-2,1.9541068E-2,-7.164034E-2,-1.967552E-3],"split_indices":[33,4,13,57,21,21,40,25,0,10,13,10,2,0,19,13,30,19,3,30,10,19,0,7,56,0,10,0,0,0,0,0,0,0,0,0,0,0,0,0,0,0,0,0,0,0,0],"split_type":[0,0,0,0,0,0,0,0,0,0,0,0,0,0,0,0,0,0,0,0,0,0,0,0,0,0,0,0,0,0,0,0,0,0,0,0,0,0,0,0,0,0,0,0,0,0,0],"sum_hessian":[1.985918E4,1.746745E4,2.3917302E3,1.284086E4,4.6265894E3,3.851602E2,2.0065701E3,1.261161E4,2.2924916E2,1.3372645E3,3.289325E3,3.1254454E1,3.5390573E2,1.860701E3,1.4586913E2,3.8516345E3,8.759977E3,1.1273853E3,2.0987929E2,9.247353E2,2.3645898E3,2.4320786E1,6.9336677E0,3.6445217E1,3.174605E2,1.04066505E2,4.180262E1,3.3056533E3,5.459813E2,7.9417495E3,8.182268E2,5.20156E1,1.0753696E3,4.3018097E1,1.6686119E2,2.9592094E1,8.951432E2,1.8938622E3,4.707275E2,1.7731096E0,2.2547676E1,1.8083824E1,1.8361391E1,3.0145126E2,1.6009243E1,2.0694437E1,2.1108181E1],"tree_param":{"num_deleted":"0","num_feature":"58","num_nodes":"47","size_leaf_vector":"1"}},{"base_weights":[3.1099736E-3,1.7673726E-1,-1.2707027E0,-1.4841431E-1,3.9371163E-1,-8.857685E-1,-1.3471979E0,-9.757725E-2,-9.6611863E-1,4.2293936E-1,-7.213531E-2,-1.328128E0,-3.071571E-1,1.7934278E-2,-1.3593808E0,1.6121504E-1,-2.2807063E-1,-1.1237361E0,1.0516765E0,5.320782E-1,2.283481E-2,-7.1170054E-2,7.704587E-1,2.9853272E-1,-6.906524E-2,8.0895476E-2,-6.340138E-2,-1.1466343E0,-1.3721538E0,3.9596837E-3,4.234036E-2,-1.6543789E-2,1.5402543E-2,-2.6305748E-2,-7.665524E-2,8.136353E-2,-7.3027186E-2,8.479788E-3,3.149613E-2,3.495772E-2,-6.9913724E-3,6.918122E-2,-5.177155E-2,-3.972851E-2,4.5793097E-2,-6.869305E-2,8.795472E-2,-6.937026E-2,-5.9049197E-2],"categories":[],"categories_nodes":[],"categories_segments":[],"categories_sizes":[],"default_left":[0,0,0,1,0,1,0,0,1,0,0,1,1,0,0,1,1,0,0,0,0,0,0,1,0,0,0,1,0,0,0,0,0,0,0,0,0,0,0,0,0,0,0,0,0,0,0,0,0],"id":12,"left_children":[1,3,5,7,9,11,13,15,17,19,-1,21,23,25,27,29,31,33,35,37,39,-1,41,43,-1,-1,-1,45,47,-1,-1,-1,-1,-1,-1,-1,-1,-1,-1,-1,-1,-1,-1,-1,-1,-1,-1,-1,-1],"loss_changes":[4.3579585E3,1.2234299E3,6.8404785E1,2.8843805E2,5.5885925E2,1.0063168E2,3.278589E1,2.2075452E2,1.3035406E2,4.470719E2,0E0,4.5766724E1,1.1253578E2,3.993299E1,3.7321777E0,1.23165764E2,2.3959877E2,9.1476135E1,4.5676098E1,2.851953E2,2.4160817E2,0E0,1.2894678E1,7.564555E1,0E0,0E0,0E0,7.944667E1,3.717041E0,0E0,0E0,0E0,0E0,0E0,0E0,0E0,0E0,0E0,0E0,0E0,0E0,0E0,0E0,0E0,0E0,0E0,0E0,0E0,0E0],"parents":[2147483647,0,0,1,1,2,2,3,3,4,4,5,5,6,6,7,7,8,8,9,9,11,11,12,12,13,13,14,14,15,15,16,16,17,17,18,18,19,19,20,20,22,22,23,23,27,27,28,28],"right_children":[2,4,6,8,10,12,14,16,18,20,-1,22,24,26,28,30,32,34,36,38,40,-1,42,44,-1,-1,-1,46,48,-1,-1,-1,-1,-1,-1,-1,-1,-1,-1,-1,-1,-1,-1,-1,-1,-1,-1,-1,-1],"split_conditions":[1E0,1E0,8.9E1,3.6E1,1E0,5.3E1,-1.4721769E0,3.0895438E6,2.894425E0,4.059812E-1,-7.213531E-2,7.2652346E-1,2.0351364E-1,-2.2244518E0,1.3390247E-7,9.090909E-2,0E0,6.2849164E-2,5.2949274E-1,8.594918E6,6.434647E-1,-7.1170054E-2,-2.2847946E0,0E0,-6.906524E-2,8.0895476E-2,-6.340138E-2,2E0,1E0,3.9596837E-3,4.234036E-2,-1.6543789E-2,1.5402543E-2,-2.6305748E-2,-7.665524E-2,8.136353E-2,-7.3027186E-2,8.479788E-3,3.149613E-2,3.495772E-2,-6.9913724E-3,6.918122E-2,-5.177155E-2,-3.972851E-2,4.5793097E-2,-6.869305E-2,8.795472E-2,-6.937026E-2,-5.9049197E-2],"split_indices":[33,25,13,13,57,14,23,28,5,5,0,4,18,15,21,12,21,10,17,30,19,0,0,12,0,0,0,12,40,0,0,0,0,0,0,0,0,0,0,0,0,0,0,0,0,0,0,0,0],"split_type":[0,0,0,0,0,0,0,0,0,0,0,0,0,0,0,0,0,0,0,0,0,0,0,0,0,0,0,0,0,0,0,0,0,0,0,0,0,0,0,0,0,0,0,0,0,0,0,0,0],"sum_hessian":[1.9702215E4,1.73396E4,2.3626162E3,6.9399316E3,1.0399668E4,3.9375665E2,1.9688596E3,6.534781E3,4.0515103E2,1.0237501E4,1.6216664E2,2.2241826E2,1.713384E2,1.7411327E1,1.9514482E3,2.1904604E3,4.34432E3,3.7620715E2,2.8943869E1,8.043185E3,2.1943162E3,2.1306702E2,9.351245E0,1.1002157E2,6.1316826E1,7.643394E0,9.767934E0,1.1566628E2,1.835782E3,1.9574009E3,2.3305968E2,3.6456277E3,6.9869226E2,1.5386737E2,2.2233978E2,2.3835087E1,5.108782E0,1.7101927E3,6.332992E3,4.2479575E2,1.7695204E3,7.1555133E0,2.1957314E0,3.9605366E1,7.041621E1,1.0776621E2,7.9000764E0,1.694349E3,1.41433E2],"tree_param":{"num_deleted":"0","num_feature":"58","num_nodes":"49","size_leaf_vector":"1"}},{"base_weights":[-9.190939E-4,1.6478296E-1,-1.2448826E0,-1.3146706E-1,3.6394802E-1,-8.000979E-1,-1.3342406E0,-1.0348955E-1,-7.699021E-2,4.6977076E-1,-1.8419033E-1,7.2209805E-1,-9.346956E-1,3.1746946E-2,-1.3464775E0,-6.320797E-2,-8.811201E-1,4.9662846E-1,-6.84934E-2,-6.446435E-1,3.462113E-1,-6.1953623E-2,1.375881E0,-6.9573574E-2,-3.4217694E-1,7.796213E-2,-6.2069654E-2,-6.806493E-2,-1.1428192E0,4.7994513E-2,-4.410788E-3,-6.113971E-2,2.3010759E-2,4.410442E-3,2.9680884E-2,4.1455813E-2,-4.051741E-2,-9.472374E-2,2.1113863E-2,4.6752036E-2,7.7150546E-2,1.9737495E-2,-6.961321E-2,-6.698438E-2,-3.08366E-2],"categories":[],"categories_nodes":[],"categories_segments":[],"categories_sizes":[],"default_left":[0,0,0,0,0,0,0,1,0,0,1,0,1,0,0,0,1,0,0,0,0,0,1,0,1,0,0,0,0,0,0,0,0,0,0,0,0,0,0,0,0,0,0,0,0],"id":13,"left_children":[1,3,5,7,9,11,13,15,-1,17,19,21,23,25,27,29,31,33,-1,35,37,-1,39,-1,41,-1,-1,-1,43,-1,-1,-1,-1,-1,-1,-1,-1,-1,-1,-1,-1,-1,-1,-1,-1],"loss_changes":[4.0134797E3,1.0138396E3,8.989868E1,2.7203745E2,5.960873E2,7.963466E1,3.1875244E1,2.1215768E2,0E0,4.2621155E2,4.064631E2,4.2571686E1,9.54725E1,3.6717594E1,4.1413574E0,1.649104E2,1.5343964E2,3.36229E2,0E0,2.1820175E2,1.3265732E2,0E0,3.5334015E-1,0E0,1.209991E2,0E0,0E0,0E0,1.3080246E1,0E0,0E0,0E0,0E0,0E0,0E0,0E0,0E0,0E0,0E0,0E0,0E0,0E0,0E0,0E0,0E0],"parents":[2147483647,0,0,1,1,2,2,3,3,4,4,5,5,6,6,7,7,9,9,10,10,11,11,12,12,13,13,14,14,15,15,16,16,17,17,19,19,20,20,22,22,24,24,28,28],"right_children":[2,4,6,8,10,12,14,16,-1,18,20,22,24,26,28,30,32,34,-1,36,38,-1,40,-1,42,-1,-1,-1,44,-1,-1,-1,-1,-1,-1,-1,-1,-1,-1,-1,-1,-1,-1,-1,-1],"split_conditions":[1E0,1E0,8.9E1,1E0,7.2652346E-1,1.3390247E-7,-1.4721769E0,3.8E1,-7.699021E-2,1E0,7.197032E1,1.2238824E1,5.3E1,-2.2244518E0,1E0,4.959672E1,5.833333E-1,7.471481E6,-6.84934E-2,6.05133E5,8.8180166E-1,-6.1953623E-2,1.8276587E2,-6.9573574E-2,4.682175E1,7.796213E-2,-6.2069654E-2,-6.806493E-2,4.514374E2,4.7994513E-2,-4.410788E-3,-6.113971E-2,2.3010759E-2,4.410442E-3,2.9680884E-2,4.1455813E-2,-4.051741E-2,-9.472374E-2,2.1113863E-2,4.6752036E-2,7.7150546E-2,1.9737495E-2,-6.961321E-2,-6.698438E-2,-3.08366E-2],"split_indices":[33,25,13,57,4,21,23,13,0,57,16,5,14,15,40,3,10,29,0,28,17,0,3,0,3,0,0,0,16,0,0,0,0,0,0,0,0,0,0,0,0,0,0,0,0],"split_type":[0,0,0,0,0,0,0,0,0,0,0,0,0,0,0,0,0,0,0,0,0,0,0,0,0,0,0,0,0,0,0,0,0,0,0,0,0,0,0,0,0,0,0,0,0],"sum_hessian":[1.9468883E4,1.7181137E4,2.2877444E3,6.907239E3,1.0273899E4,3.8438718E2,1.9033573E3,6.773747E3,1.3349129E2,8.611516E3,1.662383E3,3.087297E1,3.5351422E2,1.688537E1,1.8864719E3,6.4411733E3,3.325741E2,8.488321E3,1.23194725E2,8.897534E2,7.7262964E2,7.4949446E0,2.3378027E1,1.98862E2,1.546522E2,7.5737586E0,9.311611E0,1.7532004E3,1.3327145E2,1.5279428E2,6.288379E3,2.6512738E2,6.744669E1,1.6292959E3,6.8590254E3,8.9524895E1,8.002285E2,2.4582855E1,7.480468E2,8.239446E0,1.513858E1,9.124363E1,6.3408585E1,9.5854866E1,3.7416595E1],"tree_param":{"num_deleted":"0","num_feature":"58","num_nodes":"45","size_leaf_vector":"1"}},{"base_weights":[-6.222457E-3,1.5376978E-1,-1.2550797E0,2.9329962E-1,-2.2773181E-1,-1.2634138E0,3.775301E-1,3.2269484E-1,-7.043935E-2,2.924515E-1,-3.7910056E-1,-1.1101506E0,-6.6469714E-2,6.612847E-2,-5.934794E-2,3.3156574E-2,4.5455152E-1,-1.1561383E0,3.836062E-1,-8.251078E-1,-1.868148E-1,-1.2044952E0,2.697352E-1,5.8265263E-3,-3.3944286E-2,2.4257857E-2,-3.0198706E-2,-8.1810296E-2,6.9963984E-2,1.3512947E-2,7.0011675E-2,-4.4076536E-2,6.549739E-2,-2.7315528E-3,-4.0110778E-2,-4.0762093E-2,-6.5529995E-2,-6.579922E-2,4.980164E-2],"categories":[],"categories_nodes":[],"categories_segments":[],"categories_sizes":[],"default_left":[0,0,1,0,0,1,0,0,0,0,0,1,0,0,0,1,0,0,1,1,1,0,0,0,0,0,0,0,0,0,0,0,0,0,0,0,0,0,0],"id":14,"left_children":[1,3,5,7,9,11,13,15,-1,17,19,21,-1,-1,-1,23,25,27,29,31,33,35,37,-1,-1,-1,-1,-1,-1,-1,-1,-1,-1,-1,-1,-1,-1,-1,-1],"loss_changes":[3.8687605E3,9.1370154E2,3.039502E1,6.292588E2,3.6206882E2,2.0648926E1,1.9219471E1,4.7167554E2,0E0,1.3733704E2,3.0525668E2,8.683319E1,0E0,0E0,0E0,2.2965123E2,2.753131E2,7.788792E1,1.12098236E2,1.3035645E2,2.024813E2,2.4627869E1,5.1228535E1,0E0,0E0,0E0,0E0,0E0,0E0,0E0,0E0,0E0,0E0,0E0,0E0,0E0,0E0,0E0,0E0],"parents":[2147483647,0,0,1,1,2,2,3,3,4,4,5,5,6,6,7,7,9,9,10,10,11,11,15,15,16,16,17,17,18,18,19,19,20,20,21,21,22,22],"right_children":[2,4,6,8,10,12,14,16,-1,18,20,22,-1,-1,-1,24,26,28,30,32,34,36,38,-1,-1,-1,-1,-1,-1,-1,-1,-1,-1,-1,-1,-1,-1,-1,-1],"split_conditions":[1E0,1.2238824E1,7.2652346E-1,1E0,3.070789E2,-2.2244518E0,-2.2847946E0,1E0,-7.043935E-2,3.2579238E0,4.14E2,9.899767E-1,-6.6469714E-2,6.612847E-2,-5.934794E-2,3.0079862E6,1E0,1.5830288E0,-1.282807E0,1.7369534E0,-5.7971016E-2,7.8E1,8.5169494E-2,5.8265263E-3,-3.3944286E-2,2.4257857E-2,-3.0198706E-2,-8.1810296E-2,6.9963984E-2,1.3512947E-2,7.0011675E-2,-4.4076536E-2,6.549739E-2,-2.7315528E-3,-4.0110778E-2,-4.0762093E-2,-6.5529995E-2,-6.579922E-2,4.980164E-2],"split_indices":[33,4,4,57,16,15,0,25,0,17,31,19,0,0,0,28,44,19,0,19,10,14,4,0,0,0,0,0,0,0,0,0,0,0,0,0,0,0,0],"split_type":[0,0,0,0,0,0,0,0,0,0,0,0,0,0,0,0,0,0,0,0,0,0,0,0,0,0,0,0,0,0,0,0,0,0,0,0,0,0,0],"sum_hessian":[1.9360475E4,1.7162633E4,2.1978435E3,1.2566728E4,4.595905E3,2.186906E3,1.0937501E1,1.235418E4,2.1254773E2,1.0357131E3,3.560192E3,6.6350385E2,1.5234022E3,6.9150524E0,4.0224485E0,3.8660786E3,8.488101E3,6.0623768E1,9.7508936E2,1.0715162E3,2.4886755E3,6.211613E2,4.2342525E1,3.4615925E3,4.0448602E2,8.250104E3,2.3799727E2,5.133883E1,9.284941E0,8.784174E2,9.6671936E1,1.0445005E3,2.7015776E1,2.049538E3,4.3913754E2,1.3491145E2,4.8624985E2,1.3046437E1,2.929609E1],"tree_param":{"num_deleted":"0","num_feature":"58","num_nodes":"39","size_leaf_vector":"1"}},{"base_weights":[-1.1675869E-3,1.480895E-1,-1.1967653E0,-1.2113155E-1,3.3288142E-1,-8.25609E-1,-1.273348E0,-9.5704034E-2,-7.355187E-2,3.5948598E-1,-6.8595886E-2,7.0729715E-1,-9.6071297E-1,4.480803E-2,-1.2855268E0,1.85952E-1,-1.9416805E-1,3.004265E-1,1.0040706E0,1.2374338E0,-6.1758347E-2,-6.7331985E-2,-4.3203416E-1,-5.9526127E-2,7.065546E-2,-1.3002524E0,-1.0836508E0,3.1184799E-3,4.4231933E-2,2.868985E-2,-1.2758993E-2,2.9293973E-2,8.710832E-3,-1.1125994E-1,5.2399166E-2,7.205447E-2,-4.695655E-2,9.0409E-2,-3.7721235E-2,-5.334735E-2,-6.579665E-2,-6.478612E-2,-2.6946777E-2],"categories":[],"categories_nodes":[],"categories_segments":[],"categories_sizes":[],"default_left":[0,0,0,0,0,0,0,0,0,1,0,0,1,0,0,0,0,0,1,1,0,0,0,0,0,0,0,0,0,0,0,0,0,0,0,0,0,0,0,0,0,0,0],"id":15,"left_children":[1,3,5,7,9,11,13,15,-1,17,-1,19,21,23,25,27,29,31,33,35,-1,-1,37,-1,-1,39,41,-1,-1,-1,-1,-1,-1,-1,-1,-1,-1,-1,-1,-1,-1,-1,-1],"loss_changes":[3.4371455E3,8.5192285E2,5.9709717E1,2.3911118E2,4.6103528E2,7.699138E1,2.8474854E1,1.8979762E2,0E0,3.8034204E2,0E0,3.2855522E1,6.8595795E1,3.0707561E1,3.8049316E0,1.5302977E2,2.3772488E2,3.2994183E2,1.2128009E2,1.2168453E1,0E0,0E0,1.05753975E2,0E0,0E0,4.5585938E0,1.3770325E1,0E0,0E0,0E0,0E0,0E0,0E0,0E0,0E0,0E0,0E0,0E0,0E0,0E0,0E0,0E0,0E0],"parents":[2147483647,0,0,1,1,2,2,3,3,4,4,5,5,6,6,7,7,9,9,11,11,12,12,13,13,14,14,15,15,16,16,17,17,18,18,19,19,22,22,25,25,26,26],"right_children":[2,4,6,8,10,12,14,16,-1,18,-1,20,22,24,26,28,30,32,34,36,-1,-1,38,-1,-1,40,42,-1,-1,-1,-1,-1,-1,-1,-1,-1,-1,-1,-1,-1,-1,-1,-1],"split_conditions":[1E0,1E0,8.9E1,1E0,1E0,1.3390247E-7,-1.4721769E0,2.0277304E6,-7.355187E-2,1.4178761E7,-6.8595886E-2,-5.2173913E-2,5.3E1,4.00001E0,1E0,1.5399588E6,1.25525665E2,-1.9672132E-1,5E0,-2.0833334E-2,-6.1758347E-2,-6.7331985E-2,5.4E1,-5.9526127E-2,7.065546E-2,1.3390247E-7,4.514374E2,3.1184799E-3,4.4231933E-2,2.868985E-2,-1.2758993E-2,2.9293973E-2,8.710832E-3,-1.1125994E-1,5.2399166E-2,7.205447E-2,-4.695655E-2,9.0409E-2,-3.7721235E-2,-5.334735E-2,-6.579665E-2,-6.478612E-2,-2.6946777E-2],"split_indices":[33,25,13,57,57,21,23,29,0,30,0,10,32,10,40,29,16,11,13,11,0,0,32,0,0,21,16,0,0,0,0,0,0,0,0,0,0,0,0,0,0,0,0],"split_type":[0,0,0,0,0,0,0,0,0,0,0,0,0,0,0,0,0,0,0,0,0,0,0,0,0,0,0,0,0,0,0,0,0,0,0,0,0,0,0,0,0,0,0],"sum_hessian":[1.9258965E4,1.712231E4,2.136654E3,6.969247E3,1.0153064E4,3.6747528E2,1.7691788E3,6.8414487E3,1.277981E2,9.99783E3,1.5523386E2,2.9421394E1,3.380539E2,1.6171598E1,1.7530072E3,1.7719376E3,5.069511E3,9.160019E3,8.378122E2,2.3398453E1,6.0229416E0,1.9451445E2,1.4353946E2,8.567032E0,7.604566E0,1.6287579E3,1.2424933E2,1.5065509E3,2.653867E2,3.7249203E2,4.6970195E3,2.8072126E3,6.3528057E3,1.0573563E1,8.2723865E2,2.1705439E1,1.6930149E0,1.7478296E1,1.2606116E2,1.0692389E2,1.521834E3,8.843904E1,3.5810287E1],"tree_param":{"num_deleted":"0","num_feature":"58","num_nodes":"43","size_leaf_vector":"1"}},{"base_weights":[-1.2265631E-2,9.701647E-2,-1.1948646E0,2.4320944E-1,-2.674758E-1,-2.2972894E-1,-1.2412233E0,2.7121443E-1,-6.761228E-2,3.4415627E-1,-4.4003928E-1,-1.9208483E0,7.1962184E-1,1.1098831E0,-1.256069E0,-1.06925545E-2,4.0062815E-1,-7.3967375E-2,4.0945598E-1,3.7875584E-1,-5.5939555E-1,-5.206978E-2,-1.0094758E-1,1.1339549E0,-7.402894E-2,7.78852E-2,-3.9905798E-2,-4.5280924E-1,-1.2852255E0,4.959339E-3,-3.1518944E-2,2.1549629E-2,-4.7646426E-2,2.6780635E-2,-7.838206E-3,2.732793E-2,-3.90655E-2,-4.367576E-2,-1.7911946E-2,-6.5357484E-2,6.517935E-2,-7.188723E-2,8.088229E-2,-6.503972E-2,-4.7511935E-2],"categories":[],"categories_nodes":[],"categories_segments":[],"categories_sizes":[],"default_left":[1,0,1,0,0,0,0,0,0,0,0,0,1,0,0,1,0,0,1,1,0,0,0,1,0,0,0,0,0,0,0,0,0,0,0,0,0,0,0,0,0,0,0,0,0],"id":16,"left_children":[1,3,5,7,9,11,13,15,-1,17,19,21,23,25,27,29,31,-1,33,35,37,-1,-1,39,-1,-1,-1,41,43,-1,-1,-1,-1,-1,-1,-1,-1,-1,-1,-1,-1,-1,-1,-1,-1],"loss_changes":[2.4587893E3,9.28106E2,7.172266E1,5.5579175E2,5.264183E2,1.21773834E2,5.4985107E1,4.457265E2,0E0,1.3132251E2,3.8031573E2,2.4713135E-1,4.61245E1,9.928657E0,3.5163086E1,2.618662E2,3.4455957E2,0E0,7.584567E1,9.686741E1,2.1420569E2,0E0,0E0,1.8927933E1,0E0,0E0,0E0,1.1449028E2,6.4418945E0,0E0,0E0,0E0,0E0,0E0,0E0,0E0,0E0,0E0,0E0,0E0,0E0,0E0,0E0,0E0,0E0],"parents":[2147483647,0,0,1,1,2,2,3,3,4,4,5,5,6,6,7,7,9,9,10,10,11,11,12,12,13,13,14,14,15,15,16,16,18,18,19,19,20,20,23,23,27,27,28,28],"right_children":[2,4,6,8,10,12,14,16,-1,18,20,22,24,26,28,30,32,-1,34,36,38,-1,-1,40,-1,-1,-1,42,44,-1,-1,-1,-1,-1,-1,-1,-1,-1,-1,-1,-1,-1,-1,-1,-1],"split_conditions":[3.1027379E-2,1.2238824E1,6.1898985E0,1E0,3.070789E2,3.0226284E-1,6.366482E0,1E0,-6.761228E-2,3.2579238E0,4.4233334E5,7.228749E-1,1.6223107E-1,6.3711145E6,2.5570315E6,2.4E1,1E0,-7.3967375E-2,5.5555556E-2,-1.5789473E-1,6.3029E4,-5.206978E-2,-1.0094758E-1,-1.4285715E-1,-7.402894E-2,7.78852E-2,-3.9905798E-2,2.3631342E6,5.583566E-1,4.959339E-3,-3.1518944E-2,2.1549629E-2,-4.7646426E-2,2.6780635E-2,-7.838206E-3,2.732793E-2,-3.90655E-2,-4.367576E-2,-1.7911946E-2,-6.5357484E-2,6.517935E-2,-7.188723E-2,8.088229E-2,-6.503972E-2,-4.7511935E-2],"split_indices":[18,4,16,57,16,18,2,25,0,17,28,15,8,28,29,31,46,0,10,10,31,0,0,10,0,0,0,29,15,0,0,0,0,0,0,0,0,0,0,0,0,0,0,0,0],"split_type":[0,0,0,0,0,0,0,0,0,0,0,0,0,0,0,0,0,0,0,0,0,0,0,0,0,0,0,0,0,0,0,0,0,0,0,0,0,0,0,0,0,0,0,0,0],"sum_hessian":[1.9023543E4,1.7415154E4,1.6083888E3,1.2429986E4,4.985168E3,7.398856E1,1.5344003E3,1.2216383E4,2.1360391E2,1.0967751E3,3.8883928E3,2.6233814E1,4.7754745E1,9.165032E0,1.5252352E3,3.8439258E3,8.372457E3,3.7169064E1,1.0596061E3,4.9442413E2,3.3939688E3,3.7983778E0,2.2435436E1,4.0594723E1,7.1600227E0,7.5715327E0,1.5934997E0,5.400244E1,1.4712328E3,3.2657085E3,5.7821735E2,8.1894243E3,1.8303229E2,8.665814E2,1.930247E2,4.324058E2,6.2018364E1,1.3236528E3,2.070316E3,2.201928E0,3.8392796E1,3.68013E1,1.7201143E1,1.4031378E3,6.809504E1],"tree_param":{"num_deleted":"0","num_feature":"58","num_nodes":"45","size_leaf_vector":"1"}},{"base_weights":[1.6687684E-2,1.5595615E-1,-1.1793153E0,2.8772867E-1,-2.058673E-1,-8.826941E-1,-1.2367907E0,3.1293184E-1,-6.6550165E-2,2.4336E-1,-3.9656577E-1,3.492227E-1,-1.1213247E0,1.02673985E-1,-1.2495295E0,3.3701044E-1,-9.8296785E-1,3.577271E-1,-3.0027348E-1,-1.010842E0,-1.8070965E-1,8.7873004E-2,-3.066926E-1,-1.219952E0,4.6773994E-1,7.355078E-2,-5.772188E-2,-1.2640715E0,-1.021486E0,1.8510805E-2,-2.4477972E-2,8.5720114E-2,-6.632089E-2,7.0969075E-2,1.4475753E-2,2.0854769E-3,-9.446799E-2,-5.9103984E-2,-1.9332215E-2,-4.3872665E-3,-3.993918E-2,6.429021E-2,-6.4777516E-2,-6.648286E-2,2.1740204E-2,-6.030003E-2,8.2968466E-2,-6.407076E-2,-5.2774686E-2,8.665272E-2,-6.322472E-2],"categories":[],"categories_nodes":[],"categories_segments":[],"categories_sizes":[],"default_left":[0,0,0,0,0,0,0,0,0,1,0,0,0,0,1,0,0,0,0,1,1,0,0,0,1,0,0,0,0,0,0,0,0,0,0,0,0,0,0,0,0,0,0,0,0,0,0,0,0,0,0],"id":17,"left_children":[1,3,5,7,9,11,13,15,-1,17,19,21,23,25,27,29,31,33,35,37,39,-1,41,43,45,-1,-1,47,49,-1,-1,-1,-1,-1,-1,-1,-1,-1,-1,-1,-1,-1,-1,-1,-1,-1,-1,-1,-1,-1,-1],"loss_changes":[3.1855464E3,8.1679297E2,3.2915283E1,5.127212E2,3.9191125E2,9.65992E1,2.8597656E1,3.861825E2,0E0,8.488672E1,4.2559567E2,5.0297115E1,4.357556E1,3.032549E1,4.1899414E0,3.3340833E2,2.114814E2,8.1206436E1,1.2917233E2,8.876672E1,1.3653006E2,0E0,6.0881023E1,4.7530243E1,3.5425495E1,0E0,0E0,4.2526855E0,7.200117E1,0E0,0E0,0E0,0E0,0E0,0E0,0E0,0E0,0E0,0E0,0E0,0E0,0E0,0E0,0E0,0E0,0E0,0E0,0E0,0E0,0E0,0E0],"parents":[2147483647,0,0,1,1,2,2,3,3,4,4,5,5,6,6,7,7,9,9,10,10,11,11,12,12,13,13,14,14,15,15,16,16,17,17,18,18,19,19,20,20,22,22,23,23,24,24,27,27,28,28],"right_children":[2,4,6,8,10,12,14,16,-1,18,20,22,24,26,28,30,32,34,36,38,40,-1,42,44,46,-1,-1,48,50,-1,-1,-1,-1,-1,-1,-1,-1,-1,-1,-1,-1,-1,-1,-1,-1,-1,-1,-1,-1,-1,-1],"split_conditions":[1E0,1.2238824E1,8.9E1,1E0,9.8844826E-1,-2.4E-1,-1.4721769E0,1E0,-6.6550165E-2,8.045977E-2,4.14E2,3.7475216E1,1E0,3.127466E-2,2E0,1E0,3.1027379E-2,1.5674129E1,4.2835694E-2,2.1212122E-1,1.24223605E-2,8.7873004E-2,1.3390247E-7,1E0,7.317073E-2,7.355078E-2,-5.772188E-2,1E0,1.44E2,1.8510805E-2,-2.4477972E-2,8.5720114E-2,-6.632089E-2,7.0969075E-2,1.4475753E-2,2.0854769E-3,-9.446799E-2,-5.9103984E-2,-1.9332215E-2,-4.3872665E-3,-3.993918E-2,6.429021E-2,-6.4777516E-2,-6.648286E-2,2.1740204E-2,-6.030003E-2,8.2968466E-2,-6.407076E-2,-5.2774686E-2,8.665272E-2,-6.322472E-2],"split_indices":[33,4,13,57,21,10,23,36,0,10,13,3,56,17,12,44,18,3,21,11,10,0,21,55,12,0,0,40,13,0,0,0,0,0,0,0,0,0,0,0,0,0,0,0,0,0,0,0,0,0,0],"split_type":[0,0,0,0,0,0,0,0,0,0,0,0,0,0,0,0,0,0,0,0,0,0,0,0,0,0,0,0,0,0,0,0,0,0,0,0,0,0,0,0,0,0,0,0,0,0,0,0,0,0,0],"sum_hessian":[1.9122783E4,1.712906E4,1.9937224E3,1.2556363E4,4.572698E3,3.2626672E2,1.6674557E3,1.2364655E4,1.9170715E2,1.3625859E3,3.2101123E3,5.286917E1,2.7339755E2,1.5642245E1,1.6518135E3,1.213983E4,2.2482556E2,1.1260374E3,2.3654858E2,8.3375543E2,2.376357E3,1.6266312E1,3.660286E1,2.5763916E2,1.5758412E1,7.408299E0,8.233947E0,1.5485227E3,1.0329076E2,1.1671505E4,4.6832565E2,2.4942402E1,1.9988315E2,6.6785034E1,1.0592523E3,1.9545828E2,4.10903E1,6.53567E2,1.8018843E2,2.066654E3,3.0970288E2,1.390668E1,2.2696178E1,2.4180473E2,1.5834417E1,6.54848E0,9.209932E0,1.4248961E3,1.2362663E2,7.876591E0,9.541417E1],"tree_param":{"num_deleted":"0","num_feature":"58","num_nodes":"51","size_leaf_vector":"1"}},{"base_weights":[1.6927638E-4,1.3341272E-1,-1.1586891E0,-1.2007369E-1,3.0634394E-1,-7.889945E-1,-1.2344205E0,6.243836E-1,-1.6730355E-1,3.2929495E-1,-6.587552E-2,4.7733572E-1,-9.8072493E-1,-1.2500184E0,-1.0285431E0,-9.2409027E-1,7.767897E-1,-1.4501618E-1,-6.98888E-2,4.662865E-1,9.059399E-2,1.6954412E0,-6.336325E-2,6.0620433E-1,-1.0979402E0,-9.8193806E-1,-6.3228086E-2,-6.217159E-2,-5.605813E-1,-8.3678395E-2,8.961727E-3,4.0683243E-2,-7.575386E-2,1.5244317E-2,-1.0152175E-2,2.005212E-2,4.9742743E-2,5.8551943E-3,-4.5965653E-2,1.05328776E-1,-5.535155E-2,7.136275E-2,-6.049155E-2,-5.984178E-2,3.679723E-2,-6.181232E-2,2.5368297E-2,8.25725E-3,-6.547355E-2],"categories":[],"categories_nodes":[],"categories_segments":[],"categories_sizes":[],"default_left":[0,0,0,0,0,0,0,0,0,0,0,0,0,0,0,0,1,0,0,1,0,0,0,1,0,0,0,0,0,0,0,0,0,0,0,0,0,0,0,0,0,0,0,0,0,0,0,0,0],"id":18,"left_children":[1,3,5,7,9,11,13,15,17,19,-1,21,23,25,27,29,31,33,-1,35,37,39,-1,41,43,45,-1,-1,47,-1,-1,-1,-1,-1,-1,-1,-1,-1,-1,-1,-1,-1,-1,-1,-1,-1,-1,-1,-1],"loss_changes":[2.92485E3,7.4475006E2,5.37146E1,2.4237524E2,3.7682635E2,8.177435E1,3.914795E0,9.77771E1,1.775083E2,3.2562952E2,0E0,9.715776E1,5.482669E1,4.609375E0,1.13396225E1,3.1151052E1,3.2922134E1,1.6625572E2,0E0,2.1781372E2,9.736699E1,3.3158005E1,0E0,3.2549316E1,5.012033E1,3.1570786E1,0E0,0E0,2.167797E1,0E0,0E0,0E0,0E0,0E0,0E0,0E0,0E0,0E0,0E0,0E0,0E0,0E0,0E0,0E0,0E0,0E0,0E0,0E0,0E0],"parents":[2147483647,0,0,1,1,2,2,3,3,4,4,5,5,6,6,7,7,8,8,9,9,11,11,12,12,13,13,14,14,15,15,16,16,17,17,19,19,20,20,21,21,23,23,24,24,25,25,28,28],"right_children":[2,4,6,8,10,12,14,16,18,20,-1,22,24,26,28,30,32,34,-1,36,38,40,-1,42,44,46,-1,-1,48,-1,-1,-1,-1,-1,-1,-1,-1,-1,-1,-1,-1,-1,-1,-1,-1,-1,-1,-1,-1],"split_conditions":[1E0,1E0,8.9E1,1.7244355E5,1E0,4.2873013E1,1E0,8.303816E3,1E0,1.1111111E-1,-6.587552E-2,7.2753626E-1,1.3390247E-7,-2.2244518E0,1.5538461E0,1E0,3.5922852E-1,1.2521961E0,-6.98888E-2,1.3076074E7,1E0,3.08478E-1,-6.336325E-2,-6.25E-1,1E0,-2.3655984E0,-6.3228086E-2,-6.217159E-2,1.5243902E-3,-8.3678395E-2,8.961727E-3,4.0683243E-2,-7.575386E-2,1.5244317E-2,-1.0152175E-2,2.005212E-2,4.9742743E-2,5.8551943E-3,-4.5965653E-2,1.05328776E-1,-5.535155E-2,7.136275E-2,-6.049155E-2,-5.984178E-2,3.679723E-2,-6.181232E-2,2.5368297E-2,8.25725E-3,-6.547355E-2],"split_indices":[33,25,13,28,57,2,40,28,57,11,0,7,21,15,19,39,19,19,0,29,46,8,0,11,56,15,0,0,10,0,0,0,0,0,0,0,0,0,0,0,0,0,0,0,0,0,0,0,0],"split_type":[0,0,0,0,0,0,0,0,0,0,0,0,0,0,0,0,0,0,0,0,0,0,0,0,0,0,0,0,0,0,0,0,0,0,0,0,0,0,0,0,0,0,0,0,0,0,0,0,0],"sum_hessian":[1.8940066E4,1.6987732E4,1.9523337E3,6.889402E3,1.0098331E4,3.3387726E2,1.6184564E3,4.1027356E2,6.4791284E3,9.95838E3,1.3995097E2,4.370794E1,2.901693E2,1.4997595E3,1.18696884E2,3.6308563E1,3.73965E2,6.364959E3,1.14169716E2,6.3265757E3,3.6318042E3,2.5754177E1,1.7953762E1,1.9671633E1,2.7049768E2,8.070084E1,1.4190587E3,8.02081E1,3.8488792E1,2.1313602E1,1.4994959E1,3.686781E2,5.2868896E0,7.266646E2,5.638294E3,5.6330195E3,6.9355597E2,3.53977E3,9.203431E1,2.2675852E1,3.0783253E0,1.3694344E1,5.977289E0,2.5698663E2,1.3511059E1,6.907565E1,1.16251955E1,1.9942549E1,1.8546244E1],"tree_param":{"num_deleted":"0","num_feature":"58","num_nodes":"49","size_leaf_vector":"1"}},{"base_weights":[6.6229594E-3,1.0091328E-1,-1.0906888E0,2.2837816E-1,-2.2139058E-1,-1.5287113E-1,-1.1640644E0,2.51421E-1,-6.4286515E-2,-3.6467144E-1,1.7246802E-1,-1.8117248E0,4.4341657E-1,-1.2697257E-1,-1.1958992E0,2.0423768E-1,8.307055E-1,-8.2103646E-1,-1.597668E-1,3.272723E-1,-3.903421E-1,-5.4846685E-2,-9.7739466E-2,8.437949E-1,-7.028768E-2,-6.879657E-2,1.6646584E0,8.311907E-1,-1.2124436E0,1.1004863E-2,-9.298288E-2,1.1090666E-2,4.6397366E-2,-2.9360464E-2,-5.572722E-2,-1.0953044E-2,3.7462782E-2,-9.992534E-2,1.8472707E-2,3.214034E-2,-4.8707433E-2,-7.037641E-2,5.321113E-2,-3.707795E-2,9.552398E-2,7.679553E-2,-4.6509113E-2,-3.2820683E-2,-6.1624315E-2],"categories":[],"categories_nodes":[],"categories_segments":[],"categories_sizes":[],"default_left":[1,0,1,0,1,0,0,0,0,0,1,0,1,0,0,1,0,0,0,0,0,0,0,0,0,0,0,0,0,0,0,0,0,0,0,0,0,0,0,0,0,0,0,0,0,0,0,0,0],"id":19,"left_children":[1,3,5,7,9,11,13,15,-1,17,19,21,23,25,27,29,31,33,35,37,39,-1,-1,41,-1,-1,43,45,47,-1,-1,-1,-1,-1,-1,-1,-1,-1,-1,-1,-1,-1,-1,-1,-1,-1,-1,-1,-1],"loss_changes":[1.9447478E3,7.1113214E2,1.02168335E2,4.3308575E2,2.7690884E2,1.0869586E2,4.5384644E1,3.3380005E2,0E0,3.3627646E2,1.14200226E2,8.2514954E-1,6.118406E1,9.670991E1,4.5881348E1,3.7028018E2,5.4263977E1,7.583386E1,1.3405112E2,1.015314E2,1.7125815E2,0E0,0E0,3.486586E1,0E0,0E0,1.1936424E1,1.5610765E1,1.3986206E1,0E0,0E0,0E0,0E0,0E0,0E0,0E0,0E0,0E0,0E0,0E0,0E0,0E0,0E0,0E0,0E0,0E0,0E0,0E0,0E0],"parents":[2147483647,0,0,1,1,2,2,3,3,4,4,5,5,6,6,7,7,9,9,10,10,11,11,12,12,13,13,14,14,15,15,16,16,17,17,18,18,19,19,20,20,23,23,26,26,27,27,28,28],"right_children":[2,4,6,8,10,12,14,16,-1,18,20,22,24,26,28,30,32,34,36,38,40,-1,-1,42,-1,-1,44,46,48,-1,-1,-1,-1,-1,-1,-1,-1,-1,-1,-1,-1,-1,-1,-1,-1,-1,-1,-1,-1],"split_conditions":[3.1027379E-2,1.2238824E1,3.127466E-2,1E0,0E0,3.0226284E-1,2.5570315E6,1E0,-6.4286515E-2,6.3029E4,2.7471597E2,9.8245615E-1,1.5487553E-1,2.3631342E6,6.366482E0,2.6570676E2,3.2E1,5.8E1,1E0,-1.0551655E0,1.4044221E7,-5.4846685E-2,-9.7739466E-2,3.5347388E6,-7.028768E-2,-6.879657E-2,1.5652174E0,6.3711145E6,-3.4316495E-1,1.1004863E-2,-9.298288E-2,1.1090666E-2,4.6397366E-2,-2.9360464E-2,-5.572722E-2,-1.0953044E-2,3.7462782E-2,-9.992534E-2,1.8472707E-2,3.214034E-2,-4.8707433E-2,-7.037641E-2,5.321113E-2,-3.707795E-2,9.552398E-2,7.679553E-2,-4.6509113E-2,-3.2820683E-2,-6.1624315E-2],"split_indices":[18,4,17,57,21,18,29,27,0,31,3,15,8,29,2,3,14,14,24,0,29,0,0,29,0,0,10,28,23,0,0,0,0,0,0,0,0,0,0,0,0,0,0,0,0,0,0,0,0],"split_type":[0,0,0,0,0,0,0,0,0,0,0,0,0,0,0,0,0,0,0,0,0,0,0,0,0,0,0,0,0,0,0,0,0,0,0,0,0,0,0,0,0,0,0,0,0,0,0,0,0],"sum_hessian":[1.8793969E4,1.7307656E4,1.4863123E3,1.2402858E4,4.9047974E3,1.0807555E2,1.3782367E3,1.2217754E4,1.8510495E2,3.5965068E3,1.3082904E3,2.8037569E1,8.003797E1,4.119537E1,1.3370414E3,1.1298808E4,9.189465E2,1.1135016E3,2.4830051E3,1.0263933E3,2.818971E2,6.1212864E0,2.1916283E1,6.623961E1,1.3798367E1,2.4410591E1,1.6784777E1,1.0425424E1,1.326616E3,1.1213532E4,8.527466E1,1.27E2,7.919465E2,6.214308E2,4.9207083E2,2.3316729E3,1.5133229E2,1.7457563E1,1.0089358E3,1.017433E2,1.8015381E2,5.426901E0,6.0812706E1,1.3688784E0,1.5415898E1,7.53764E0,2.887783E0,4.7329674E1,1.2792863E3],"tree_param":{"num_deleted":"0","num_feature":"58","num_nodes":"49","size_leaf_vector":"1"}},{"base_weights":[5.5855955E-3,1.2544341E-1,-1.0988039E0,2.3650664E-1,-1.774994E-1,-6.022197E-1,-1.1903245E0,1.8883345E-1,7.9004264E-1,4.7687358E-1,-2.7148122E-1,-1.0707E0,1.6021E-1,3.5692103E-2,-1.2028841E0,4.5681632E-1,1.1079084E-1,-1.4954045E-1,1.005473E0,-1.1235626E0,5.9256834E-1,-3.281365E-1,9.101826E-1,7.576565E-1,-6.323447E-2,6.917206E-1,-6.472117E-2,6.909018E-2,-5.6416906E-2,-1.218293E0,-9.502048E-1,-3.420181E-2,2.5289843E-2,6.201989E-3,-7.313127E-2,2.3827832E-2,-1.03059344E-1,-8.498025E-2,5.1694114E-2,-9.382414E-2,4.8782937E-2,1.4099123E-2,4.955732E-2,-3.9296083E-2,-5.824683E-3,-2.6034802E-2,6.5897465E-2,6.4253666E-2,-5.8295906E-2,-2.7137294E-2,7.936745E-2,-6.1848737E-2,-4.9423065E-2,8.767935E-2,-6.0875017E-2],"categories":[],"categories_nodes":[],"categories_segments":[],"categories_sizes":[],"default_left":[0,0,0,1,0,1,0,0,1,0,1,0,0,0,0,0,1,1,0,0,0,0,1,0,0,0,0,0,0,0,0,0,0,0,0,0,0,0,0,0,0,0,0,0,0,0,0,0,0,0,0,0,0,0,0],"id":20,"left_children":[1,3,5,7,9,11,13,15,17,19,21,23,25,27,29,31,33,35,37,39,41,43,45,47,-1,49,-1,-1,-1,51,53,-1,-1,-1,-1,-1,-1,-1,-1,-1,-1,-1,-1,-1,-1,-1,-1,-1,-1,-1,-1,-1,-1,-1,-1],"loss_changes":[2.4701377E3,5.664319E2,8.23147E1,3.2491858E2,2.7789124E2,1.02445885E2,2.378125E1,2.3717587E2,1.978039E2,1.0575766E2,2.6473764E2,6.390973E1,8.582489E1,2.7575705E1,4.7841797E0,1.4328357E2,1.8333403E2,2.2001176E2,6.2812256E1,6.285319E1,6.532556E1,3.6516867E2,1.0628279E2,1.940514E1,0E0,9.0531525E1,0E0,0E0,0E0,4.937744E0,6.880895E1,0E0,0E0,0E0,0E0,0E0,0E0,0E0,0E0,0E0,0E0,0E0,0E0,0E0,0E0,0E0,0E0,0E0,0E0,0E0,0E0,0E0,0E0,0E0,0E0],"parents":[2147483647,0,0,1,1,2,2,3,3,4,4,5,5,6,6,7,7,8,8,9,9,10,10,11,11,12,12,13,13,14,14,15,15,16,16,17,17,18,18,19,19,20,20,21,21,22,22,23,23,25,25,29,29,30,30],"right_children":[2,4,6,8,10,12,14,16,18,20,22,24,26,28,30,32,34,36,38,40,42,44,46,48,-1,50,-1,-1,-1,52,54,-1,-1,-1,-1,-1,-1,-1,-1,-1,-1,-1,-1,-1,-1,-1,-1,-1,-1,-1,-1,-1,-1,-1,-1],"split_conditions":[1E0,1.2238824E1,7.7E1,1.3179904E7,6.434647E-1,5.3E1,-1.4721769E0,-2.1957672E-1,3.2E1,2.3860225E-1,1.6973225E0,1.3390247E-7,7.692308E-2,5.8936344E5,1E0,4E0,2.6570676E2,1.7389554E7,1E0,1E0,1E0,4.14E2,2E0,1.0289431E2,-6.323447E-2,-1.0989011E-2,-6.472117E-2,6.909018E-2,-5.6416906E-2,1E0,1.3390247E-7,-3.420181E-2,2.5289843E-2,6.201989E-3,-7.313127E-2,2.3827832E-2,-1.03059344E-1,-8.498025E-2,5.1694114E-2,-9.382414E-2,4.8782937E-2,1.4099123E-2,4.955732E-2,-3.9296083E-2,-5.824683E-3,-2.6034802E-2,6.5897465E-2,6.4253666E-2,-5.8295906E-2,-2.7137294E-2,7.936745E-2,-6.1848737E-2,-4.9423065E-2,8.767935E-2,-6.0875017E-2],"split_indices":[33,4,13,30,19,14,23,11,13,19,19,21,12,28,50,14,3,28,1,41,37,13,13,16,0,12,0,0,0,40,21,0,0,0,0,0,0,0,0,0,0,0,0,0,0,0,0,0,0,0,0,0,0,0,0],"split_type":[0,0,0,0,0,0,0,0,0,0,0,0,0,0,0,0,0,0,0,0,0,0,0,0,0,0,0,0,0,0,0,0,0,0,0,0,0,0,0,0,0,0,0,0,0,0,0,0,0,0,0,0,0,0,0],"sum_hessian":[1.865886E4,1.6832896E4,1.8259639E3,1.2317384E4,4.515512E3,2.8533566E2,1.5406282E3,1.1341905E4,9.7547845E2,5.665671E2,3.948945E3,1.7648738E2,1.0884827E2,1.5603692E1,1.5250245E3,2.5569592E3,8.784945E3,1.8200095E2,7.9347754E2,3.760842E1,5.289587E2,3.7689631E3,1.7998195E2,1.6650467E1,1.5983691E2,8.010358E1,2.8744692E1,7.149156E0,8.4545355E0,1.4337692E3,9.125529E1,1.0472574E2,2.4522334E3,8.712503E3,7.244238E1,1.3766425E2,4.43367E1,7.635275E0,7.858423E2,2.7758488E1,9.849934E0,2.9825528E2,2.3070338E2,1.1907178E3,2.5782454E3,3.9854183E1,1.4012776E2,1.3328043E1,3.3224247E0,3.384634E1,4.6257233E1,1.3219343E3,1.1183483E2,7.7095823E0,8.354571E1],"tree_param":{"num_deleted":"0","num_feature":"58","num_nodes":"55","size_leaf_vector":"1"}},{"base_weights":[-1.9310344E-2,-1.0053105E0,7.11394E-2,-1.0766431E0,9.985026E-1,1.9279929E-1,-2.3440462E-1,1.55081E-1,-1.1219255E0,1.2609614E0,-7.759474E-2,1.3994731E-1,8.105205E-1,-4.2469454E-1,2.6465857E-1,-7.314911E-2,8.222282E-1,-1.2014108E0,-3.131442E-1,-6.513296E-2,1.4034694E0,1.6226572E-1,-6.360232E-2,8.337137E-1,-1.1924642E-1,-8.017743E-1,-2.5065655E-1,7.562036E-1,1.2077618E-1,-6.924912E-2,5.607111E-2,-2.4315398E-2,-6.105256E-2,7.431734E-2,-3.927064E-2,-5.746975E-2,7.488977E-2,9.904709E-3,-3.2486986E-2,5.3528436E-2,3.0440008E-2,-4.183632E-2,7.6199315E-2,1.2987852E-2,-1.782489E-2,-9.9115424E-2,4.61456E-2,1.4144458E-2,-3.8083762E-2],"categories":[],"categories_nodes":[],"categories_segments":[],"categories_sizes":[],"default_left":[0,1,0,0,0,0,1,0,0,0,0,0,0,0,0,0,0,0,0,0,0,0,0,0,0,1,0,0,1,0,0,0,0,0,0,0,0,0,0,0,0,0,0,0,0,0,0,0,0],"id":21,"left_children":[1,3,5,7,9,11,13,15,17,19,-1,21,23,25,27,-1,29,31,33,-1,35,37,-1,39,-1,41,43,45,47,-1,-1,-1,-1,-1,-1,-1,-1,-1,-1,-1,-1,-1,-1,-1,-1,-1,-1,-1,-1],"loss_changes":[1.6377798E3,2.2163635E2,6.253339E2,8.330737E1,3.7809406E1,3.9268665E2,4.5508353E2,5.920533E1,9.2052734E1,1.9771881E1,0E0,3.495135E2,7.225177E1,2.2744067E2,9.348367E1,0E0,2.7100285E1,1.778772E1,1.1165513E2,0E0,1.3041695E1,3.1761356E2,0E0,4.952887E1,0E0,9.028369E1,1.2838669E2,1.3851636E2,1.468038E2,0E0,0E0,0E0,0E0,0E0,0E0,0E0,0E0,0E0,0E0,0E0,0E0,0E0,0E0,0E0,0E0,0E0,0E0,0E0,0E0],"parents":[2147483647,0,0,1,1,2,2,3,3,4,4,5,5,6,6,7,7,8,8,9,9,11,11,12,12,13,13,14,14,16,16,17,17,18,18,20,20,21,21,23,23,25,25,26,26,27,27,28,28],"right_children":[2,4,6,8,10,12,14,16,18,20,-1,22,24,26,28,-1,30,32,34,-1,36,38,-1,40,-1,42,44,46,48,-1,-1,-1,-1,-1,-1,-1,-1,-1,-1,-1,-1,-1,-1,-1,-1,-1,-1,-1,-1],"split_conditions":[3.2579238E0,2.9604945E-1,5.743906E0,-1.4721769E0,5.0062364E-1,1E0,5.7264145E1,6.926407E-2,1E0,4.6238893E-1,-7.759474E-2,1E0,-5.7971016E-2,6.3029E4,-2.5E-1,-7.314911E-2,8.8894445E-1,-3.4316495E-1,3.7688595E-1,-6.513296E-2,2.2950325E6,1E0,-6.360232E-2,-3.7037037E-2,-1.1924642E-1,6.816923E-1,4.4233334E5,1.6133234E2,3.0849478E2,-6.924912E-2,5.607111E-2,-2.4315398E-2,-6.105256E-2,7.431734E-2,-3.927064E-2,-5.746975E-2,7.488977E-2,9.904709E-3,-3.2486986E-2,5.3528436E-2,3.0440008E-2,-4.183632E-2,7.6199315E-2,1.2987852E-2,-1.782489E-2,-9.9115424E-2,4.61456E-2,1.4144458E-2,-3.8083762E-2],"split_indices":[17,21,4,23,21,27,16,11,36,17,0,57,10,31,10,0,7,23,19,0,29,45,0,12,0,21,28,2,2,0,0,0,0,0,0,0,0,0,0,0,0,0,0,0,0,0,0,0,0],"split_type":[0,0,0,0,0,0,0,0,0,0,0,0,0,0,0,0,0,0,0,0,0,0,0,0,0,0,0,0,0,0,0,0,0,0,0,0,0,0,0,0,0,0,0,0,0,0,0,0,0],"sum_hessian":[1.836236E4,1.5420652E3,1.6820295E4,1.4895039E3,5.256127E1,1.2030446E4,4.789849E3,5.273151E1,1.4367723E3,4.8115353E1,4.445919E0,1.1083383E4,9.470629E2,3.467761E3,1.3220883E3,1.504625E1,3.768526E1,1.3077628E3,1.2900957E2,2.1050997E0,4.601025E1,1.0911793E4,1.7159003E2,9.409723E2,6.0906663E0,1.0939484E3,2.3738125E3,2.9840213E2,1.02368604E3,4.0653515E0,3.3619907E1,3.5646484E1,1.2721163E3,2.6372988E1,1.0263658E2,1.2408981E0,4.4769352E1,1.0451397E4,4.6039548E2,4.5648798E2,4.844843E2,1.0783824E3,1.5565943E1,4.0745062E2,1.9663619E3,1.6498066E1,2.8190408E2,8.653873E2,1.5829875E2],"tree_param":{"num_deleted":"0","num_feature":"58","num_nodes":"49","size_leaf_vector":"1"}},{"base_weights":[1.389908E-2,1.24981E-1,-1.0842453E0,1.4582337E-1,-6.5379046E-2,-6.568838E-1,-1.164118E0,-7.399818E-2,2.754919E-1,-1.0493021E0,1.6157E-2,-1.1914088E0,-1.0034289E0,-2.728599E-1,4.5211315E-2,3.1622627E-1,-7.505724E-1,7.5976694E-1,-6.1955143E-2,4.9274904E-1,-5.9708443E-2,-6.0663473E-2,-9.600443E-1,-5.993901E-2,8.466701E-1,2.4749657E-2,-2.0183064E-2,-1.858638E-2,5.060484E-3,1.8224002E-4,2.0151973E-2,3.6352754E-2,-4.8740223E-2,6.502084E-2,-5.651907E-2,9.477412E-2,2.3979899E-3,-5.9510846E-2,-2.4811978E-2,5.7820506E-2,-4.4510867E-2],"categories":[],"categories_nodes":[],"categories_segments":[],"categories_sizes":[],"default_left":[0,0,0,1,0,1,1,0,0,0,1,0,0,0,0,0,1,0,0,0,0,0,0,0,1,0,0,0,0,0,0,0,0,0,0,0,0,0,0,0,0],"id":22,"left_children":[1,3,5,7,-1,9,11,13,15,17,19,21,23,25,27,29,31,33,-1,35,-1,-1,37,-1,39,-1,-1,-1,-1,-1,-1,-1,-1,-1,-1,-1,-1,-1,-1,-1,-1],"loss_changes":[2.2577346E3,5.0204733E2,5.727185E1,4.722731E2,0E0,7.133416E1,5.0809326E0,1.4575513E2,4.35799E2,5.951474E1,5.8523922E1,4.9957275E0,7.840114E1,2.3163461E2,8.980044E1,2.7200885E2,1.3264943E2,1.865627E1,0E0,4.531151E1,0E0,0E0,1.1146797E1,0E0,1.2346167E1,0E0,0E0,0E0,0E0,0E0,0E0,0E0,0E0,0E0,0E0,0E0,0E0,0E0,0E0,0E0,0E0],"parents":[2147483647,0,0,1,1,2,2,3,3,5,5,6,6,7,7,8,8,9,9,10,10,11,11,12,12,13,13,14,14,15,15,16,16,17,17,19,19,22,22,24,24],"right_children":[2,4,6,8,-1,10,12,14,16,18,20,22,24,26,28,30,32,34,-1,36,-1,-1,38,-1,40,-1,-1,-1,-1,-1,-1,-1,-1,-1,-1,-1,-1,-1,-1,-1,-1],"split_conditions":[1E0,1E0,7.7E1,4E0,-6.5379046E-2,5.3E1,9.899767E-1,1E0,1E0,1.3390247E-7,2.0351364E-1,1E0,1.000001E1,1.12693504E2,1.375E0,1E0,-7.55E-1,1.0289431E2,-6.1955143E-2,-2.9317993E-1,-5.9708443E-2,-6.0663473E-2,4.514374E2,-5.993901E-2,6.830121E-2,2.4749657E-2,-2.0183064E-2,-1.858638E-2,5.060484E-3,1.8224002E-4,2.0151973E-2,3.6352754E-2,-4.8740223E-2,6.502084E-2,-5.651907E-2,9.477412E-2,2.3979899E-3,-5.9510846E-2,-2.4811978E-2,5.7820506E-2,-4.4510867E-2],"split_indices":[33,57,31,32,0,32,19,38,36,21,18,40,0,16,11,25,11,16,0,0,0,0,16,0,17,0,0,0,0,0,0,0,0,0,0,0,0,0,0,0,0],"split_type":[0,0,0,0,0,0,0,0,0,0,0,0,0,0,0,0,0,0,0,0,0,0,0,0,0,0,0,0,0,0,0,0,0,0,0,0,0,0,0,0,0],"sum_hessian":[1.8506342E4,1.6807117E4,1.6992245E3,1.6566982E4,2.4013518E2,2.6902478E2,1.4301997E3,6.1468745E3,1.0420107E4,1.6958734E2,9.943744E1,1.217082E3,2.1311758E2,2.303296E3,3.8435784E3,1.0022895E4,3.9721362E2,1.5817854E1,1.5376949E2,7.1769516E1,2.7667923E1,1.1081349E3,1.0894723E2,1.9308217E2,2.0035423E1,3.3484518E2,1.9684508E3,4.544331E2,3.3891453E3,2.1788213E3,7.8440728E3,5.2040257E1,3.4517337E2,1.254231E1,3.2755446E0,1.6493229E1,5.5276287E1,7.1765785E1,3.718144E1,1.7286856E1,2.748568E0],"tree_param":{"num_deleted":"0","num_feature":"58","num_nodes":"41","size_leaf_vector":"1"}},{"base_weights":[2.0986916E-3,1.0835723E-1,-1.0744634E0,1.2790607E-1,-6.438035E-2,-6.302187E-1,-1.1714072E0,3.286436E-1,2.3448553E-3,5.920643E-1,-8.272873E-1,-6.0146898E-2,-9.915218E-1,2.5871986E-1,9.567555E-1,5.0707232E-2,-4.9310398E-1,-6.0705435E-2,1.5856327E0,8.6878914E-1,-1.0036063E0,-5.9305575E-2,7.524741E-1,1.4282415E-2,-5.5902846E-2,1.8467203E-3,5.71728E-2,1.4228316E-2,-1.438047E-3,-3.607137E-2,1.1481668E-2,9.935112E-2,-4.906951E-2,-4.8826613E-2,6.1424524E-2,-5.5785026E-2,4.2845152E-2,5.418975E-2,-4.5591008E-2],"categories":[],"categories_nodes":[],"categories_segments":[],"categories_sizes":[],"default_left":[0,0,0,0,0,0,1,1,1,0,0,0,0,0,1,0,1,0,0,0,0,0,1,0,0,0,0,0,0,0,0,0,0,0,0,0,0,0,0],"id":23,"left_children":[1,3,5,7,-1,9,11,13,15,17,19,-1,21,23,25,27,29,-1,31,33,35,-1,37,-1,-1,-1,-1,-1,-1,-1,-1,-1,-1,-1,-1,-1,-1,-1,-1],"loss_changes":[2.0985696E3,4.5581915E2,7.0237305E1,4.1505716E2,0E0,7.212051E1,6.4735107E0,2.7806067E2,2.4279077E2,7.706706E1,7.758035E1,0E0,7.123456E1,2.1176703E2,1.0890259E2,1.7157048E2,1.4886757E2,0E0,3.0230034E1,1.7588423E1,4.9510345E1,0E0,1.2798244E1,0E0,0E0,0E0,0E0,0E0,0E0,0E0,0E0,0E0,0E0,0E0,0E0,0E0,0E0,0E0,0E0],"parents":[2147483647,0,0,1,1,2,2,3,3,5,5,6,6,7,7,8,8,9,9,10,10,12,12,13,13,14,14,15,15,16,16,18,18,19,19,20,20,22,22],"right_children":[2,4,6,8,-1,10,12,14,16,18,20,-1,22,24,26,28,30,-1,32,34,36,-1,38,-1,-1,-1,-1,-1,-1,-1,-1,-1,-1,-1,-1,-1,-1,-1,-1],"split_conditions":[1E0,1E0,8.9E1,-4E-2,-6.438035E-2,4.2873013E1,9.899767E-1,1.3556919E7,3.0079862E6,6.7E1,1.3390247E-7,-6.0146898E-2,1.000001E1,1E0,3.9E1,-8.3333336E-2,6.6E1,-6.0705435E-2,9.012012E-1,1.2238824E1,1E0,-5.9305575E-2,6.716681E5,1.4282415E-2,-5.5902846E-2,1.8467203E-3,5.71728E-2,1.4228316E-2,-1.438047E-3,-3.607137E-2,1.1481668E-2,9.935112E-2,-4.906951E-2,-4.8826613E-2,6.1424524E-2,-5.5785026E-2,4.2845152E-2,5.418975E-2,-4.5591008E-2],"split_indices":[33,57,13,10,0,2,19,30,28,13,21,0,0,46,14,11,14,0,6,5,54,0,28,0,0,0,0,0,0,0,0,0,0,0,0,0,0,0,0],"split_type":[0,0,0,0,0,0,0,0,0,0,0,0,0,0,0,0,0,0,0,0,0,0,0,0,0,0,0,0,0,0,0,0,0,0,0,0,0,0,0],"sum_hessian":[1.8343102E4,1.669607E4,1.6470316E3,1.6466385E4,2.2968404E2,2.9637872E2,1.3506528E3,6.3357163E3,1.0130669E4,4.087215E1,2.5550658E2,1.1443766E3,2.0627632E2,5.702324E3,6.33392E2,9.230544E3,9.0012585E2,1.4425881E1,2.6446268E1,2.3690617E1,2.3181596E2,1.8585867E2,2.0417643E1,5.593709E3,1.0861511E2,1.0707264E2,5.2631934E2,2.340458E3,6.8900854E3,6.840318E2,2.1609401E2,2.3065586E1,3.3806815E0,3.5848684E0,2.0105747E1,2.1902048E2,1.279548E1,1.7318703E1,3.0989394E0],"tree_param":{"num_deleted":"0","num_feature":"58","num_nodes":"39","size_leaf_vector":"1"}},{"base_weights":[1.4864686E-2,1.1637302E-1,-1.0644E0,-9.901218E-2,2.6561588E-1,-6.6947156E-1,-1.1495796E0,-7.753959E-2,-1.336532E0,2.8406164E-1,-6.165528E-2,5.7180786E-1,-8.784486E-1,-1.1687621E0,-9.132894E-1,-1.4141342E-1,3.111661E-1,-7.966478E-2,1.0271713E0,3.0752084E-1,-7.940903E-1,-5.9785992E-2,1.5119655E0,-9.7722304E-1,6.1436445E-1,-5.9400678E-2,-8.9885527E-1,-5.838884E-2,-3.9177766E-1,-8.361171E-3,5.8851082E-2,1.9581089E-2,-8.0416165E-2,-6.1658233E-2,1.0684391E-1,2.025248E-2,2.755095E-3,8.776714E-3,-5.6201745E-2,8.9713626E-2,-4.4956036E-2,-5.4361176E-2,2.9075742E-2,-5.400693E-2,7.563257E-2,7.4878566E-2,-5.83702E-2,-6.1449047E-2,2.1531446E-2],"categories":[],"categories_nodes":[],"categories_segments":[],"categories_sizes":[],"default_left":[0,0,0,1,0,0,0,0,1,0,0,1,0,1,0,1,1,0,0,0,0,0,0,0,1,0,0,0,1,0,0,0,0,0,0,0,0,0,0,0,0,0,0,0,0,0,0,0,0],"id":24,"left_children":[1,3,5,7,9,11,13,15,17,19,-1,21,23,25,27,29,31,-1,33,35,37,-1,39,41,43,-1,45,-1,47,-1,-1,-1,-1,-1,-1,-1,-1,-1,-1,-1,-1,-1,-1,-1,-1,-1,-1,-1,-1],"loss_changes":[2.0130297E3,5.398949E2,5.2368896E1,1.8258214E2,2.7461725E2,7.382119E1,4.815918E0,1.678507E2,7.276248E1,2.4814227E2,0E0,7.04957E1,3.6330093E1,5.1516113E0,1.308448E1,1.9775244E2,1.4798935E2,0E0,3.2963196E1,2.3614429E2,6.706094E1,0E0,2.0279873E1,3.9667694E1,2.5458742E1,0E0,5.567723E1,0E0,2.4604939E1,0E0,0E0,0E0,0E0,0E0,0E0,0E0,0E0,0E0,0E0,0E0,0E0,0E0,0E0,0E0,0E0,0E0,0E0,0E0,0E0],"parents":[2147483647,0,0,1,1,2,2,3,3,4,4,5,5,6,6,7,7,8,8,9,9,11,11,12,12,13,13,14,14,15,15,16,16,18,18,19,19,20,20,22,22,23,23,24,24,26,26,28,28],"right_children":[2,4,6,8,10,12,14,16,18,20,-1,22,24,26,28,30,32,-1,34,36,38,-1,40,42,44,-1,46,-1,48,-1,-1,-1,-1,-1,-1,-1,-1,-1,-1,-1,-1,-1,-1,-1,-1,-1,-1,-1,-1],"split_conditions":[1E0,1E0,8.9E1,2.9263626E2,1E0,4.2873013E1,1E0,1E0,1.5714285E0,1E0,-6.165528E-2,6.2272362E-3,1E0,2E0,1.5538461E0,2.894425E0,2.9E1,-7.966478E-2,1E0,1.5864426E-3,-3.285124E-1,-5.9785992E-2,3.073536E-1,1E0,7.317073E-2,-5.9400678E-2,1.44E2,-5.838884E-2,0E0,-8.361171E-3,5.8851082E-2,1.9581089E-2,-8.0416165E-2,-6.1658233E-2,1.0684391E-1,2.025248E-2,2.755095E-3,8.776714E-3,-5.6201745E-2,8.9713626E-2,-4.4956036E-2,-5.4361176E-2,2.9075742E-2,-5.400693E-2,7.563257E-2,7.4878566E-2,-5.83702E-2,-6.1449047E-2,2.1531446E-2],"split_indices":[33,25,13,2,57,2,40,24,11,46,0,5,56,12,19,5,14,0,48,5,11,0,9,54,12,0,13,0,10,0,0,0,0,0,0,0,0,0,0,0,0,0,0,0,0,0,0,0,0],"split_type":[0,0,0,0,0,0,0,0,0,0,0,0,0,0,0,0,0,0,0,0,0,0,0,0,0,0,0,0,0,0,0,0,0,0,0,0,0,0,0,0,0,0,0,0,0,0,0,0,0],"sum_hessian":[1.837258E4,1.6793947E4,1.5786329E3,6.8739277E3,9.92002E3,2.8164914E2,1.2969838E3,6.757735E3,1.161929E2,9.800213E3,1.1980722E2,4.0334507E1,2.4131464E2,1.1959481E3,1.0103563E2,5.804543E3,9.5319183E2,1.0510186E2,1.1091037E1,9.592213E3,2.0799957E2,1.3910492E1,2.6424015E1,2.2666252E2,1.4652117E1,1.1131499E3,8.279825E1,6.7068375E1,3.3967255E1,5.69395E3,1.1059292E2,9.156099E2,3.7581944E1,3.615486E0,7.4755507E0,6.9184736E3,2.6737395E3,5.2927345E1,1.5507224E2,2.3883402E1,2.5406132E0,2.1200386E2,1.4658662E1,5.0061727E0,9.645945E0,7.882375E0,7.491587E1,1.6587225E1,1.7380032E1],"tree_param":{"num_deleted":"0","num_feature":"58","num_nodes":"49","size_leaf_vector":"1"}},{"base_weights":[-1.8723872E-2,7.853246E-2,-1.0729591E0,-1.1114235E-1,2.1207094E-1,-2.5965086E-1,-1.0991911E0,-4.8046708E-2,-5.6293637E-1,1.6203181E-1,7.877463E-1,-5.7309896E-2,8.5075563E-1,-5.8168554E-1,-1.1283844E0,8.1047094E-1,-8.1813954E-2,-1.4389871E0,-2.7794147E-1,1.7986117E-1,-6.1259102E-2,-3.3592068E-2,9.9398637E-1,1.3807164E0,-4.88584E-2,1.1350713E0,-6.01097E-2,-5.8631618E-2,-9.78283E-1,4.485541E-2,-8.4148586E-2,-2.106522E-3,-4.4188637E-2,-7.87947E-2,4.361726E-2,-2.033004E-2,4.670166E-2,1.0285127E-2,-3.432988E-2,-4.9748328E-2,3.5005048E-2,5.810013E-2,3.54677E-2,7.831545E-2,-3.2115083E-2,6.603552E-2,-4.3766335E-2,2.9820234E-2,-5.199371E-2],"categories":[],"categories_nodes":[],"categories_segments":[],"categories_sizes":[],"default_left":[0,0,0,1,1,0,0,0,1,0,1,0,1,0,0,1,1,1,1,0,0,1,0,0,0,0,0,0,0,0,0,0,0,0,0,0,0,0,0,0,0,0,0,0,0,0,0,0,0],"id":25,"left_children":[1,3,5,7,9,11,13,15,17,19,21,-1,23,25,27,29,31,33,35,37,-1,39,41,43,-1,45,-1,-1,47,-1,-1,-1,-1,-1,-1,-1,-1,-1,-1,-1,-1,-1,-1,-1,-1,-1,-1,-1,-1],"loss_changes":[1.8337002E3,4.1475842E2,3.1941162E1,1.9283804E2,2.766798E2,4.8726482E1,2.1446411E1,1.7219963E2,2.0657434E2,2.1891234E2,1.3016196E2,0E0,2.2766329E1,8.678615E1,8.043823E0,5.0071396E1,1.8180594E2,6.569006E1,9.8109024E1,1.9562656E2,0E0,1.1013221E2,2.8541626E1,7.5967407E0,0E0,9.293167E0,0E0,0E0,3.1762238E1,0E0,0E0,0E0,0E0,0E0,0E0,0E0,0E0,0E0,0E0,0E0,0E0,0E0,0E0,0E0,0E0,0E0,0E0,0E0,0E0],"parents":[2147483647,0,0,1,1,2,2,3,3,4,4,5,5,6,6,7,7,8,8,9,9,10,10,12,12,13,13,14,14,15,15,16,16,17,17,18,18,19,19,21,21,22,22,23,23,25,25,28,28],"right_children":[2,4,6,8,10,12,14,16,18,20,22,-1,24,26,28,30,32,34,36,38,-1,40,42,44,-1,46,-1,-1,48,-1,-1,-1,-1,-1,-1,-1,-1,-1,-1,-1,-1,-1,-1,-1,-1,-1,-1,-1,-1],"split_conditions":[1E0,1E0,-3.4316495E-1,2.1E1,1.3843053E7,1.553398E-1,2.1E1,-5.5555556E-2,0E0,1E0,4.5E1,-5.7309896E-2,1.8181819E-1,1.3390247E-7,7.3E3,1.6577608E6,4.117647E-1,3.0944306E7,1.676154E0,1E0,-6.1259102E-2,5.555556E-1,1.24E2,9.00791E-1,-4.88584E-2,-5.2173913E-2,-6.01097E-2,-5.8631618E-2,-1.8337889E-2,4.485541E-2,-8.4148586E-2,-2.106522E-3,-4.4188637E-2,-7.87947E-2,4.361726E-2,-2.033004E-2,4.670166E-2,1.0285127E-2,-3.432988E-2,-4.9748328E-2,3.5005048E-2,5.810013E-2,3.54677E-2,7.831545E-2,-3.2115083E-2,6.603552E-2,-4.3766335E-2,2.9820234E-2,-5.199371E-2],"split_indices":[33,25,23,31,30,10,31,10,10,57,14,0,10,21,16,29,11,28,4,44,0,11,14,17,0,10,0,0,0,0,0,0,0,0,0,0,0,0,0,0,0,0,0,0,0,0,0,0,0],"split_type":[0,0,0,0,0,0,0,0,0,0,0,0,0,0,0,0,0,0,0,0,0,0,0,0,0,0,0,0,0,0,0,0,0,0,0,0,0,0,0,0,0,0,0,0,0,0,0,0,0],"sum_hessian":[1.7882518E4,1.6372987E4,1.5095311E3,6.7647163E3,9.6082705E3,4.7506718E1,1.4620244E3,5.936725E3,8.279915E2,8.841065E3,7.6720575E2,2.63982E1,2.1108519E1,7.9188324E1,1.3828362E3,2.2379639E2,5.7129287E3,2.022482E2,6.2574335E2,8.729735E3,1.1132978E2,1.5415E2,6.130558E2,1.6553808E1,4.55471E0,2.080314E1,5.838518E1,1.0627407E3,3.2009543E2,2.1690019E2,6.8962007E0,5.4445664E3,2.683622E2,1.9123875E2,1.100944E1,5.662921E2,5.9451233E1,8.477659E3,2.520761E2,6.6568146E1,8.758184E1,3.8356055E2,2.2949522E2,1.5369555E1,1.1842531E0,1.9358635E1,1.4445051E0,1.1721881E1,3.0837357E2],"tree_param":{"num_deleted":"0","num_feature":"58","num_nodes":"49","size_leaf_vector":"1"}},{"base_weights":[1.1634358E-2,8.1681125E-2,-1.0365227E0,-1.08073495E-1,2.1603876E-1,-1.1052216E0,-2.905856E-1,-7.528408E-2,-1.3469399E0,1.680591E-1,7.703429E-1,-8.085308E-1,-1.1690726E0,6.8039376E-1,-6.0306877E-2,6.167237E-1,-1.2266386E-1,-7.089294E-2,-6.0515072E-2,1.8560214E-1,-6.0394343E-2,-1.0875972E-1,8.207008E-1,-1.2359596E0,3.2712322E-1,-5.795892E-2,-9.457296E-2,-4.901318E-1,1.6111951E0,-4.7518577E-2,3.9753914E-2,1.83323E-2,-9.068671E-3,1.39932325E-2,-9.057098E-4,4.389301E-2,-7.471927E-2,-6.7354E-2,1.1612795E-2,4.4784937E-2,-5.6597978E-2,6.271742E-2,-6.604736E-2,9.241079E-2,-5.1530298E-2],"categories":[],"categories_nodes":[],"categories_segments":[],"categories_sizes":[],"default_left":[1,0,0,1,1,0,0,0,1,0,1,1,0,1,0,0,0,0,0,0,0,0,1,0,1,0,0,0,0,0,0,0,0,0,0,0,0,0,0,0,0,0,0,0,0],"id":26,"left_children":[1,3,5,7,9,11,13,15,17,19,21,23,25,27,-1,29,31,-1,-1,33,-1,-1,35,37,39,-1,-1,41,43,-1,-1,-1,-1,-1,-1,-1,-1,-1,-1,-1,-1,-1,-1,-1,-1],"loss_changes":[1.3282666E3,4.3236484E2,5.7753906E1,2.854856E2,2.639223E2,1.870642E1,8.6987305E1,2.2467395E2,4.0039062E-2,2.2082034E2,1.19063934E2,9.115465E1,3.8928223E0,5.273738E1,0E0,1.2349019E2,1.842668E2,0E0,0E0,1.7330392E2,0E0,0E0,1.0427557E2,2.2507828E1,4.4081825E1,0E0,0E0,3.337813E1,1.8681183E1,0E0,0E0,0E0,0E0,0E0,0E0,0E0,0E0,0E0,0E0,0E0,0E0,0E0,0E0,0E0,0E0],"parents":[2147483647,0,0,1,1,2,2,3,3,4,4,5,5,6,6,7,7,8,8,9,9,10,10,11,11,12,12,13,13,15,15,16,16,19,19,22,22,23,23,24,24,27,27,28,28],"right_children":[2,4,6,8,10,12,14,16,18,20,22,24,26,28,-1,30,32,-1,-1,34,-1,-1,36,38,40,-1,-1,42,44,-1,-1,-1,-1,-1,-1,-1,-1,-1,-1,-1,-1,-1,-1,-1,-1],"split_conditions":[3.1027379E-2,1E0,4.00001E0,7E1,1.4178761E7,7.7E1,5.6395165E6,1.7244355E5,2.32E2,1E0,6E0,6.6E1,1.0569909E0,3.894731E-1,-6.0306877E-2,8.303816E3,1.2521961E0,-7.089294E-2,-6.0515072E-2,1.339908E-3,-6.0394343E-2,-1.0875972E-1,4.0246353E1,1E0,4.959672E1,-5.795892E-2,-9.457296E-2,-1.4721769E0,4.8588097E-1,-4.7518577E-2,3.9753914E-2,1.83323E-2,-9.068671E-3,1.39932325E-2,-9.057098E-4,4.389301E-2,-7.471927E-2,-6.7354E-2,1.1612795E-2,4.4784937E-2,-5.6597978E-2,6.271742E-2,-6.604736E-2,9.241079E-2,-5.1530298E-2],"split_indices":[18,25,10,14,30,13,28,28,13,57,14,14,15,15,0,28,19,0,0,5,0,0,3,56,3,0,0,23,15,0,0,0,0,0,0,0,0,0,0,0,0,0,0,0,0],"split_type":[0,0,0,0,0,0,0,0,0,0,0,0,0,0,0,0,0,0,0,0,0,0,0,0,0,0,0,0,0,0,0,0,0,0,0,0,0,0,0,0,0,0,0,0,0],"sum_hessian":[1.8089188E4,1.6956904E4,1.1322825E3,7.029404E3,9.927501E3,1.0363552E3,9.592734E1,6.8491855E3,1.8021849E2,9.137847E3,7.896542E2,1.8595557E2,8.503996E2,4.667912E1,4.9248222E1,4.3812424E2,6.4110615E3,1.12468056E2,6.775043E1,9.023662E3,1.1418492E2,1.2564033E1,7.7709015E2,1.350414E2,5.091417E1,8.414788E2,8.920772E0,2.0886639E1,2.5792479E1,4.432635E1,3.9379788E2,6.8625775E2,5.7248037E3,6.168865E3,2.8547966E3,7.58972E2,1.8118166E1,1.2561673E2,9.424667E0,3.691518E1,1.3998988E1,6.5737724E0,1.4312865E1,2.3944584E1,1.8478963E0],"tree_param":{"num_deleted":"0","num_feature":"58","num_nodes":"45","size_leaf_vector":"1"}},{"base_weights":[4.5901765E-3,9.517759E-2,-1.046846E0,1.1203215E-1,-6.2323283E-2,-7.07012E-1,-1.1227045E0,2.5951406E-1,-2.6633084E-2,5.2044386E-1,-9.286927E-1,2.3730595E-1,-1.1366934E0,3.0618307E-1,-9.43888E-1,5.18073E-2,-2.7137047E-1,-5.858242E-2,1.4162306E0,6.585888E-1,-1.0707684E0,-4.9128782E-2,6.13387E-2,-5.7998538E-2,-8.5770696E-1,-4.06687E-2,1.7486317E-2,-5.160451E-2,6.639915E-2,-8.297981E-2,3.0021325E-3,2.1818096E-3,-2.5413513E-2,8.771629E-2,-4.72283E-2,5.8214057E-2,-5.2580964E-2,-6.0162682E-2,3.472757E-2,-5.685232E-2,-1.8165063E-2],"categories":[],"categories_nodes":[],"categories_segments":[],"categories_sizes":[],"default_left":[0,0,0,0,0,0,0,0,0,0,0,0,0,1,0,0,0,0,0,0,0,0,0,0,0,0,0,0,0,0,0,0,0,0,0,0,0,0,0,0,0],"id":27,"left_children":[1,3,5,7,-1,9,11,13,15,17,19,21,23,25,27,29,31,-1,33,35,37,-1,-1,-1,39,-1,-1,-1,-1,-1,-1,-1,-1,-1,-1,-1,-1,-1,-1,-1,-1],"loss_changes":[1.7035883E3,3.7251004E2,3.578076E1,3.3261243E2,0E0,7.1666824E1,2.230371E1,4.429239E2,1.6095238E2,6.3289337E1,5.075688E1,1.6436485E1,6.4505615E0,3.7019165E2,6.0380432E1,8.9588745E1,1.5187968E2,0E0,2.3238255E1,1.7529272E1,4.8568497E1,0E0,0E0,0E0,1.2310951E1,0E0,0E0,0E0,0E0,0E0,0E0,0E0,0E0,0E0,0E0,0E0,0E0,0E0,0E0,0E0,0E0],"parents":[2147483647,0,0,1,1,2,2,3,3,5,5,6,6,7,7,8,8,9,9,10,10,11,11,12,12,13,13,14,14,15,15,16,16,18,18,19,19,20,20,24,24],"right_children":[2,4,6,8,-1,10,12,14,16,18,20,22,24,26,28,30,32,-1,34,36,38,-1,-1,-1,40,-1,-1,-1,-1,-1,-1,-1,-1,-1,-1,-1,-1,-1,-1,-1,-1],"split_conditions":[1E0,1E0,8.9E1,1.1627907E-1,-6.2323283E-2,4.2873013E1,-1.4721769E0,1E0,1E0,6.7E1,1.3390247E-7,4.00001E0,1E0,-9.247188E-1,1.0526316E-1,1.1109289E0,-4.5454547E-2,-5.858242E-2,9.012012E-1,-5.2173913E-2,1E0,-4.9128782E-2,6.13387E-2,-5.7998538E-2,4.514374E2,-4.06687E-2,1.7486317E-2,-5.160451E-2,6.639915E-2,-8.297981E-2,3.0021325E-3,2.1818096E-3,-2.5413513E-2,8.771629E-2,-4.72283E-2,5.8214057E-2,-5.2580964E-2,-6.0162682E-2,3.472757E-2,-5.685232E-2,-1.8165063E-2],"split_indices":[33,57,13,11,0,2,23,36,35,13,21,10,40,10,11,9,10,0,6,10,54,0,0,0,16,0,0,0,0,0,0,0,0,0,0,0,0,0,0,0,0],"split_type":[0,0,0,0,0,0,0,0,0,0,0,0,0,0,0,0,0,0,0,0,0,0,0,0,0,0,0,0,0,0,0,0,0,0,0,0,0,0,0,0,0],"sum_hessian":[1.788398E4,1.6466229E4,1.4177529E3,1.626284E4,2.0338751E2,2.6060458E2,1.1571483E3,7.880455E3,8.382386E3,3.965965E1,2.2094492E2,1.16186075E1,1.1455297E3,7.586971E3,2.9348386E2,6.3484443E3,2.0339412E3,1.3621474E1,2.6038176E1,1.7853096E1,2.0309183E2,5.20657E0,6.412038E0,1.054398E3,9.113174E1,2.8337335E2,7.3035977E3,2.830409E2,1.0442953E1,2.9442398E1,6.319002E3,8.7339703E2,1.1605441E3,2.3001036E1,3.03714E0,1.4025196E1,3.8279004E0,1.892102E2,1.3881618E1,5.740057E1,3.3731167E1],"tree_param":{"num_deleted":"0","num_feature":"58","num_nodes":"41","size_leaf_vector":"1"}},{"base_weights":[1.1101551E-2,7.509262E-2,-9.975918E-1,1.7619945E-1,-1.8219669E-1,-6.794409E-1,-1.1485751E0,2.094613E-1,-6.4515793E-1,2.391417E-1,-3.5058513E-1,3.242663E-1,-9.5600003E-1,-5.690312E-2,-9.308367E-2,2.2696386E-1,-5.9458483E-2,-1.2051321E0,-1.3646995E-1,3.631168E-1,-2.1057948E-1,-7.99831E-1,-1.641631E-1,-6.501075E-2,9.664697E-1,-1.6969651E-1,-6.1109304E-2,9.38504E-3,3.5232153E-2,-1.1821627E-1,-4.3673974E-2,1.8364608E-2,-4.3415405E-2,3.1450128E-3,3.170377E-2,3.839451E-2,-3.0393187E-2,-3.384747E-2,-6.4483084E-2,-1.1165882E-2,3.525596E-2,6.39299E-2,-5.3950667E-2,-8.625954E-2,2.370265E-2],"categories":[],"categories_nodes":[],"categories_segments":[],"categories_sizes":[],"default_left":[1,0,1,0,0,0,0,0,0,1,0,0,1,0,0,1,0,0,0,0,0,1,0,0,1,0,0,0,0,0,0,0,0,0,0,0,0,0,0,0,0,0,0,0,0],"id":28,"left_children":[1,3,5,7,9,11,13,15,17,19,21,23,25,-1,-1,27,-1,29,31,33,35,37,39,-1,41,43,-1,-1,-1,-1,-1,-1,-1,-1,-1,-1,-1,-1,-1,-1,-1,-1,-1,-1,-1],"loss_changes":[1.1514813E3,4.3641083E2,5.0339233E1,3.291509E2,3.3587317E2,9.606169E1,3.2808228E0,2.8362476E2,1.3342072E2,7.545607E1,2.8309732E2,7.9772385E1,5.6447845E1,0E0,0E0,2.1429364E2,0E0,8.37059E1,9.133025E1,8.62034E1,1.1428636E2,5.8808777E1,1.2312407E2,0E0,3.6182587E1,7.0532196E1,0E0,0E0,0E0,0E0,0E0,0E0,0E0,0E0,0E0,0E0,0E0,0E0,0E0,0E0,0E0,0E0,0E0,0E0,0E0],"parents":[2147483647,0,0,1,1,2,2,3,3,4,4,5,5,6,6,7,7,8,8,9,9,10,10,11,11,12,12,15,15,17,17,18,18,19,19,20,20,21,21,22,22,24,24,25,25],"right_children":[2,4,6,8,10,12,14,16,18,20,22,24,26,-1,-1,28,-1,30,32,34,36,38,40,-1,42,44,-1,-1,-1,-1,-1,-1,-1,-1,-1,-1,-1,-1,-1,-1,-1,-1,-1,-1,-1],"split_conditions":[1.8740239E-2,1.2238824E1,7.7E1,1E0,7.32713E-1,7.1839066E1,1.0569909E0,1E0,1.6E1,2.9263626E2,6.3029E4,4.2E1,3.127466E-2,-5.690312E-2,-9.308367E-2,1.4178761E7,-5.9458483E-2,-4.3879908E-2,1.8471865E6,2.1241534E2,2.4924702E2,1.04E2,1E0,-6.501075E-2,1.5664514E7,3.0226284E-1,-6.1109304E-2,9.38504E-3,3.5232153E-2,-1.1821627E-1,-4.3673974E-2,1.8364608E-2,-4.3415405E-2,3.1450128E-3,3.170377E-2,3.839451E-2,-3.0393187E-2,-3.384747E-2,-6.4483084E-2,-1.1165882E-2,3.525596E-2,6.39299E-2,-5.3950667E-2,-8.625954E-2,2.370265E-2],"split_indices":[18,4,13,45,21,2,15,57,13,2,13,14,17,0,0,30,0,10,29,16,16,14,24,0,30,18,0,0,0,0,0,0,0,0,0,0,0,0,0,0,0,0,0,0,0],"split_type":[0,0,0,0,0,0,0,0,0,0,0,0,0,0,0,0,0,0,0,0,0,0,0,0,0,0,0,0,0,0,0,0,0,0,0,0,0,0,0,0,0,0,0,0,0],"sum_hessian":[1.7837162E4,1.6773955E4,1.063207E3,1.2042096E4,4.73186E3,3.4394623E2,7.192608E2,1.1574133E4,4.6796338E2,1.3509979E3,3.380862E3,7.4260925E1,2.696853E2,7.1136945E2,7.8913193E0,1.143191E4,1.4222192E2,2.22101E2,2.458624E2,1.0591998E3,2.9179813E2,9.905389E2,2.390323E3,2.0749514E1,5.351141E1,6.8620476E1,2.0106483E2,1.0564915E4,8.669952E2,4.8045017E1,1.7405598E2,1.4591776E2,9.994463E1,5.030561E2,5.5614374E2,8.399481E1,2.078033E2,7.937872E2,1.9675172E2,2.2387214E3,1.516016E2,4.675222E1,6.7591863E0,1.9594444E1,4.902603E1],"tree_param":{"num_deleted":"0","num_feature":"58","num_nodes":"45","size_leaf_vector":"1"}},{"base_weights":[1.3936841E-2,9.463093E-2,-9.9137557E-1,5.8629908E-2,6.7479634E-1,-5.221656E-1,-1.0802044E0,7.3943235E-2,-6.132512E-2,-9.879245E-2,6.982548E-1,-1.0596392E0,2.0376818E-1,-1.0914688E0,3.926971E-2,1.0381821E-1,-5.185063E-1,7.158062E-1,-1.053256E-1,5.840263E-1,-5.9314724E-2,9.842845E-1,-5.805991E-2,-9.732209E-1,-5.7005942E-2,6.4764596E-3,-2.6578529E-2,1.8406546E-4,-5.2568067E-2,-9.86057E-2,3.653268E-2,-4.1786473E-2,5.8838096E-2,-5.7401754E-2,7.4667804E-2,5.4030713E-2,-5.111686E-2],"categories":[],"categories_nodes":[],"categories_segments":[],"categories_sizes":[],"default_left":[0,0,0,0,0,0,1,0,0,0,0,0,1,1,0,0,1,0,0,1,0,1,0,0,0,0,0,0,0,0,0,0,0,0,0,0,0],"id":29,"left_children":[1,3,5,7,9,11,13,15,-1,-1,17,19,21,23,-1,25,27,29,-1,31,-1,33,-1,35,-1,-1,-1,-1,-1,-1,-1,-1,-1,-1,-1,-1,-1],"loss_changes":[1.4496432E3,3.4546155E2,5.47771E1,3.0662897E2,6.147058E1,8.343651E1,2.4299316E1,2.7251727E2,0E0,0E0,4.8700348E1,2.623973E1,9.870707E1,5.2714844E0,0E0,2.3949236E2,2.056751E2,3.949164E1,0E0,8.935719E0,0E0,6.554521E1,0E0,3.4410522E1,0E0,0E0,0E0,0E0,0E0,0E0,0E0,0E0,0E0,0E0,0E0,0E0,0E0],"parents":[2147483647,0,0,1,1,2,2,3,3,4,4,5,5,6,6,7,7,10,10,11,11,12,12,13,13,15,15,16,16,17,17,19,19,21,21,23,23],"right_children":[2,4,6,8,10,12,14,16,-1,-1,18,20,22,24,-1,26,28,30,-1,32,-1,34,-1,36,-1,-1,-1,-1,-1,-1,-1,-1,-1,-1,-1,-1,-1],"split_conditions":[1E0,1E0,7.8E1,1E0,1.7779251E2,5.3E1,7.2652346E-1,1E0,-6.132512E-2,-9.879245E-2,1E0,-8.52459E-1,4.2873013E1,-8.5E-1,3.926971E-2,1E0,-7.55E-1,1E1,-1.053256E-1,2.1170927E2,-5.9314724E-2,0E0,-5.805991E-2,1.44E2,-5.7005942E-2,6.4764596E-3,-2.6578529E-2,1.8406546E-4,-5.2568067E-2,-9.86057E-2,3.653268E-2,-4.1786473E-2,5.8838096E-2,-5.7401754E-2,7.4667804E-2,5.4030713E-2,-5.111686E-2],"split_indices":[33,27,14,57,16,14,4,36,0,0,45,12,2,11,0,45,11,14,0,2,0,12,0,14,0,0,0,0,0,0,0,0,0,0,0,0,0],"split_type":[0,0,0,0,0,0,0,0,0,0,0,0,0,0,0,0,0,0,0,0,0,0,0,0,0,0,0,0,0,0,0,0,0,0,0,0,0],"sum_hessian":[1.7867588E4,1.6540803E4,1.3267858E3,1.5575402E4,9.653998E2,2.1229301E2,1.1144928E3,1.5392927E4,1.8247598E2,7.738836E0,9.5766095E2,1.2171605E2,9.0576965E1,1.1082163E3,6.2764764E0,1.4654768E4,7.381592E2,9.524456E2,5.21532E0,8.449658E0,1.1326639E2,5.7802933E1,3.2774033E1,3.2916293E2,7.7905334E2,1.4085591E4,5.691767E2,3.7331287E2,3.648463E2,4.5079975E0,9.479376E2,2.3679206E0,6.0817375E0,1.0898375E1,4.6904556E1,7.1973953E0,3.2196555E2],"tree_param":{"num_deleted":"0","num_feature":"58","num_nodes":"37","size_leaf_vector":"1"}},{"base_weights":[-2.2646942E-4,7.848359E-2,-1.0345497E0,1.6350892E-1,-1.5267618E-1,-5.547666E-1,-1.1249859E0,1.9403774E-1,-5.552954E-1,2.6835302E-1,-2.73333E-1,-5.865202E-2,2.0045625E-1,1.8484782E-1,-5.7016004E-2,2.0916499E-1,-5.8395814E-2,6.8298876E-1,-7.437589E-1,-9.972102E-1,3.492056E-1,-6.454733E-1,-1.1670333E-1,9.337829E-1,-5.712212E-2,5.8387227E-2,-4.8704565E-2,1.1170575E-2,-5.4389413E-2,-8.231977E-2,4.2485006E-2,-6.2553786E-2,-1.0412031E-2,6.047636E-3,-9.9452995E-2,3.186578E-2,4.2255647E-3,3.205487E-2,-3.900322E-2,-7.168943E-6,-3.3960093E-2,9.369202E-2,5.5095716E-3],"categories":[],"categories_nodes":[],"categories_segments":[],"categories_sizes":[],"default_left":[0,0,0,0,0,0,0,0,0,0,0,0,1,0,0,1,0,0,0,0,1,0,1,0,0,0,0,0,0,0,0,0,0,0,0,0,0,0,0,0,0,0,0],"id":30,"left_children":[1,3,5,7,9,11,13,15,17,19,21,-1,23,25,-1,27,-1,29,31,33,35,37,39,41,-1,-1,-1,-1,-1,-1,-1,-1,-1,-1,-1,-1,-1,-1,-1,-1,-1,-1,-1],"loss_changes":[1.4303872E3,3.2092944E2,5.3286743E1,2.6206143E2,2.2314145E2,9.31686E1,2.118872E1,2.3617801E2,1.140659E2,1.00481766E2,1.9889198E2,0E0,9.013658E1,1.5884895E1,0E0,2.0952682E2,0E0,2.6562044E1,1.1460477E2,6.570119E1,7.0149635E1,1.7555054E2,1.5759119E2,4.551186E1,0E0,0E0,0E0,0E0,0E0,0E0,0E0,0E0,0E0,0E0,0E0,0E0,0E0,0E0,0E0,0E0,0E0,0E0,0E0],"parents":[2147483647,0,0,1,1,2,2,3,3,4,4,5,5,6,6,7,7,8,8,9,9,10,10,12,12,13,13,15,15,17,17,18,18,19,19,20,20,21,21,22,22,23,23],"right_children":[2,4,6,8,10,12,14,16,18,20,22,-1,24,26,-1,28,-1,30,32,34,36,38,40,42,-1,-1,-1,-1,-1,-1,-1,-1,-1,-1,-1,-1,-1,-1,-1,-1,-1,-1,-1],"split_conditions":[1E0,1.2238824E1,7.8E1,1E0,8.122093E-2,5.3E1,-1.4721769E0,1E0,1.7744938E5,6.514828E1,7.144E3,-5.865202E-2,4.2873013E1,3.127466E-2,-5.7016004E-2,2.0105835E2,-5.8395814E-2,5.4846676E4,1.6E1,1.6462505E1,-2.5E-1,2.37416E6,-2.5316456E-2,5.8E1,-5.712212E-2,5.8387227E-2,-4.8704565E-2,1.1170575E-2,-5.4389413E-2,-8.231977E-2,4.2485006E-2,-6.2553786E-2,-1.0412031E-2,6.047636E-3,-9.9452995E-2,3.186578E-2,4.2255647E-3,3.205487E-2,-3.900322E-2,-7.168943E-6,-3.3960093E-2,9.369202E-2,5.5095716E-3],"split_indices":[33,4,14,45,21,14,23,57,29,16,13,0,2,17,0,2,0,29,13,16,10,30,10,14,0,0,0,0,0,0,0,0,0,0,0,0,0,0,0,0,0,0,0],"split_type":[0,0,0,0,0,0,0,0,0,0,0,0,0,0,0,0,0,0,0,0,0,0,0,0,0,0,0,0,0,0,0,0,0,0,0,0,0,0,0,0,0,0,0],"sum_hessian":[1.7567812E4,1.6326333E4,1.2414792E3,1.1936233E4,4.3900996E3,1.9802885E2,1.0434503E3,1.1450636E4,4.855976E2,9.775919E2,3.4125078E3,1.0858279E2,8.944607E1,1.1946343E1,1.031504E3,1.13256875E4,1.24948204E2,6.3797466E1,4.2180014E2,5.8024055E1,9.195678E2,1.00991205E3,2.402596E3,5.80506E1,3.1395472E1,6.4600096E0,5.4863343E0,1.120345E4,1.22237625E2,3.6681595E0,6.0129307E1,2.1591728E2,2.0588286E2,2.7688004E1,3.033605E1,4.396344E2,4.7993344E2,9.5287254E1,9.146248E2,1.9910204E3,4.1157547E2,2.651306E1,3.153754E1],"tree_param":{"num_deleted":"0","num_feature":"58","num_nodes":"43","size_leaf_vector":"1"}},{"base_weights":[-6.8218503E-3,6.611763E-2,-9.703281E-1,-1.1562816E-1,1.935462E-1,-5.7974654E-1,-1.0623859E0,1.2399905E-1,-2.2818169E-1,1.4734325E-1,7.32909E-1,-1.075461E-1,-5.845789E-2,2.6887047E-1,-1.0773437E0,-4.7207907E-1,2.0956407E-1,3.388856E-1,-3.1400752E-1,1.7126492E-1,-6.402083E-1,-2.0843454E-1,9.1613656E-1,-7.237263E-1,4.9611154E-1,5.9419967E-2,-4.7123086E-2,-1.1034573E0,-7.6011056E-1,-7.869517E-2,-4.2076535E-3,2.2065135E-2,-8.4006035E-4,2.2826513E-2,-4.752827E-2,2.606733E-2,-1.8104529E-2,9.28323E-3,-5.7926815E-2,3.8828526E-2,-5.550751E-2,9.600687E-3,-1.20310865E-1,-8.307978E-2,4.6835337E-2,4.821622E-2,-5.7392627E-2,-5.6201573E-2,5.0464917E-2,-5.6474324E-2,-3.713509E-2,-5.51362E-2,-7.240636E-3],"categories":[],"categories_nodes":[],"categories_segments":[],"categories_sizes":[],"default_left":[0,0,0,0,1,0,0,0,0,0,1,1,0,0,0,1,0,1,0,0,0,0,0,0,0,0,0,0,0,0,0,0,0,0,0,0,0,0,0,0,0,0,0,0,0,0,0,0,0,0,0,0,0],"id":31,"left_children":[1,3,5,7,9,11,13,15,17,19,21,23,-1,25,27,29,31,33,35,37,39,41,43,45,47,-1,-1,49,51,-1,-1,-1,-1,-1,-1,-1,-1,-1,-1,-1,-1,-1,-1,-1,-1,-1,-1,-1,-1,-1,-1,-1,-1],"loss_changes":[1.2255956E3,3.7548914E2,4.3512573E1,1.8026349E2,2.3739502E2,6.563905E1,2.0042725E1,1.0905943E2,2.2141646E2,1.655174E2,1.2985095E2,4.9566444E1,0E0,1.428832E1,7.2894287E0,